480 100
<s> 0.7615192 -0.26498702 0.3132461 0.6304099 -0.43274418 -1.2133435 1.2820511 -0.4559471 -0.8009278 -1.4063418 0.47908902 0.9805579 -0.5650607 0.19536641 0.25848693 -0.1959661 -1.0053297 0.040929418 -0.59254384 0.88162374 1.2510545 -1.6336616 -0.028932732 0.8386564 1.3606958 1.2786161 -0.023600757 1.247862 -0.2906459 -1.2252228 -0.34025264 0.7840998 0.58424383 1.4873452 -1.2130136 -1.3996116 0.6607687 0.45532954 -0.7076952 -1.6729699 -1.0540818 -1.474217 -1.4890606 -0.8494932 0.110496484 -1.1719087 -1.7084372 -0.69012797 0.07016328 -0.017176025 0.045102768 -0.02172662 -0.009185806 -0.07984304 1.3975496 -0.11084076 -1.0418589 0.8781357 -0.004610245 -0.7737926 0.8256333 -0.7924824 0.26984027 -2.3414357 -0.0648551 0.56480324 0.66645044 0.8663687 -1.6286619 0.12728795 -0.8619671 1.0574056 -1.8448921 -1.0718704 -2.5346186 -0.890264 2.4458394 -0.028679587 -0.5476501 0.05724015 0.043036073 -1.0274402 -0.4132422 0.8193819 -1.6606107 2.43668 -0.752256 0.38211733 -0.35253823 -2.0915549 -1.3465543 1.1167079 0.37500218 -0.37328747 0.7465594 -2.692229 0.7771112 -0.105409846 -0.21577221 0.94485295
les 1.161277 0.4703924 1.1714671 0.65095294 0.023977246 -0.6226597 -1.0574665 -0.29945213 1.538445 -0.10194439 -0.51252556 -0.42976856 -0.63348323 0.5683031 -0.67464906 -0.19263127 0.4279197 0.2207892 1.1119153 0.5563771 0.8290215 0.8928932 1.0336508 1.593137 1.1367233 -1.2859432 -0.1994464 -0.23028454 1.4016654 -1.1754386 1.5171702 1.1674341 1.1251955 1.6587707 0.12051046 0.8791703 -1.4556413 1.0323886 1.3481025 -0.7164484 0.3129066 -1.5514692 -2.1332414 -2.477911 -0.17938243 0.64757055 0.6209281 -0.29652542 -0.3581339 -1.012639 0.1423302 0.25385395 0.4063788 2.2495284 0.15731171 -0.70732087 0.06347422 -0.36244076 0.8066833 -0.16921894 0.6142868 -0.3630726 -0.024115581 -0.018414967 0.47254008 0.3705349 0.4696044 -0.10262884 1.3419632 -1.1284273 -0.5937509 1.4315362 -0.29747808 0.34428388 -0.14767101 1.2865553 -1.5290217 -0.4970713 -0.32389522 -0.07231573 0.540424 -0.4208316 0.80212986 0.8970074 -0.5873795 1.5328872 -1.9206312 -1.0564601 -1.5519359 2.3712285 -0.8680468 -1.3413708 0.6841169 0.7469168 0.53531945 -0.34629416 0.53673524 -1.4105053 -0.76481193 0.16129963
sont -1.9066563 -0.3262135 1.1223482 -0.59459966 1.023582 -0.4204496 -0.17688423 0.75323546 0.46614408 0.45109665 0.27999848 0.9599862 0.19413908 -0.43471402 0.8588182 2.781453 0.43825108 -0.28121656 0.79495555 -0.46691266 -0.70064676 -0.21426177 1.92931 0.022997018 -0.21230826 -0.53758013 2.2363548 -0.831211 0.59140265 0.9908393 0.9373135 0.33505666 -1.1637384 -1.5494056 -0.1221921 1.1586294 -0.85952437 0.133256 -0.13838443 -0.5722863 0.36060888 -0.76747656 0.4652407 -1.2195591 0.24375033 -1.1673018 -0.5839302 1.1107987 0.45793703 -0.021317137 0.3981344 2.0363362 -1.3468127 -0.47670376 -0.5920199 0.6388435 -0.40295866 1.0018728 -2.28716 0.021286834 -0.106237896 -0.7223695 -0.075325 1.9779804 0.07144969 -0.048500314 -0.65024495 -1.0418326 -1.8706847 -1.2182443 0.14162034 -1.2354442 -0.5738355 -1.7747532 0.28437862 -1.0335598 1.2472326 0.30615902 2.6305013 0.40404776 0.12805843 -0.32920593 0.74406934 -0.48932385 -0.23689386 -0.38571978 0.2676498 0.9496493 1.0083342 0.43481457 0.2555375 1.6373515 -2.2157965 0.4576337 -0.6459746 -0.41918686 -0.16190311 1.5785412 -0.5625339 0.7880911
pour 1.0548278 0.034518458 0.35138884 1.8259283 -0.86610395 -1.1345491 0.090399176 1.1231596 -1.7576455 -1.0228373 0.24011916 -0.7752645 -0.084992245 -1.4770193 -0.9081522 -0.93860096 -0.6664976 -0.7741098 -0.44951054 -1.4527842 -0.4303939 0.81524056 0.029312037 -0.0758592 -0.2913187 0.050269987 0.11597642 -0.89401746 0.05418991 -2.6145442 -1.6911211 -0.22711197 -0.82347345 -0.946881 0.597985 -1.1334467 0.769122 0.2162449 1.4369286 -1.4250025 0.8605311 0.52514803 0.56840676 -1.4956892 -1.2800162 0.057654954 0.2072719 -0.43609735 0.37589365 -0.023377612 -0.76532924 0.12959838 -1.6217867 -1.4680841 -1.0209115 -1.1092479 0.30436558 0.037029885 1.1747547 -2.6515656 2.7188172 -0.6656099 -2.0783648 -1.1806959 0.76378316 -0.34094563 0.2712269 -0.32947278 -1.460174 0.35936785 -0.947544 0.31374907 -0.8820458 0.5889447 0.14454658 0.10324216 -0.9150902 -0.2355925 1.5975356 0.76010513 -0.6648253 -0.52992636 -0.3876902 0.3838745 0.22888237 0.87167454 0.41482538 1.4268434 0.6924951 -1.6267971 0.8413905 -1.1490253 1.1754345 -2.4235704 0.549235 -1.3311868 -1.5048803 0.41666007 -2.0991738 -1.839124
de -0.9266358 -0.37611556 1.123934 -0.08747661 0.86582595 0.9224555 -1.3327628 -1.1197733 -0.7264266 -1.1263025 0.9568761 0.5654629 -1.1907494 0.03901775 1.2966856 -1.9799653 -0.48864964 1.7258036 0.40445673 1.7927144 0.35192522 -0.17628074 -0.18913966 1.4120823 -1.0927813 -0.9272462 1.0139551 -0.26511675 -0.3378577 -1.9175135 -0.26335016 -0.42894274 0.6136063 1.3931713 -0.13737233 -0.37382632 0.6963845 -0.8273181 1.4276363 -1.3223029 -0.09419544 0.0711664 -0.52282065 1.0627921 1.389441 -1.2869942 0.20411682 1.0545666 -0.823021 -0.46078733 -1.2671231 2.9748352 0.34898826 -0.78483266 -1.3994057 -0.51832545 -1.1338826 -0.16207425 -0.07470572 -0.64672726 -0.6503414 -0.7742777 -0.4005097 1.3846859 0.41655758 1.7025828 0.27127814 -0.59479207 -0.26978534 0.5752563 0.68292326 -1.1890565 0.16721484 1.2482932 -0.65944725 -1.1277443 1.2900381 -1.7069762 0.98584086 -0.60480225 -0.049832698 0.20222484 0.17799146 -0.47318715 1.2969495 1.4637606 2.1843731 -0.66007936 0.38038707 -2.213014 0.06944966 -1.8501724 0.98262066 1.4970164 -0.34401822 2.0561159 0.9483868 0.44103158 0.12551033 -1.3440579
. -0.8726551 0.0033854693 0.30101967 0.9196907 -1.5716115 -1.6378644 -1.2375574 1.0461551 -0.93155324 0.479952 -0.08210952 -0.9442042 -0.088349015 1.08036 1.5795819 -0.9733591 -0.47095752 0.6323428 0.63878596 0.80540013 0.25540423 0.031702843 1.4218194 -1.227959 -0.66571504 -0.2908911 -1.2417248 -0.37832865 -2.0974932 0.3905535 0.61730516 0.49029917 0.015785096 -0.38529786 -0.68264323 0.29035404 1.4918734 -0.66791654 1.3259397 0.8049515 0.604764 -0.14486118 0.517625 1.6289026 -1.1314331 1.1959758 -1.2196758 1.8956757 -0.52472585 -0.29027683 -0.4268747 1.669275 0.9871825 -0.8906137 0.95561737 2.215859 -0.00538601 -1.7283083 -0.39485252 -1.2184078 -0.26308078 -0.7177738 -0.1004875 -1.5003303 0.16985995 -0.3530732 -0.26863655 -0.21578307 -0.43071532 1.0190046 1.3198733 1.7908672 -1.4989355 1.502593 0.75496745 -0.8329852 -0.22799021 -0.66801643 -0.6715476 0.097163774 0.31547153 -0.008790688 -0.40096754 0.10679037 0.28379607 1.5164316 0.026612926 -1.2183151 -3.4810898 2.343153 -1.1288433 0.6436497 0.80025905 1.070647 1.2269783 0.13118273 -1.4528263 1.7243981 -0.47282404 0.84459037
</s> 1.306252 -0.91601527 1.0412736 -1.4854519 -0.9769651 -1.3404696 -2.119357 -0.7414431 -0.8467552 1.2273519 0.42027056 0.9551736 0.21128745 -0.10624479 0.6806038 0.8998254 -1.4679594 1.5199078 0.7319674 -0.6272823 -0.8769152 -0.77591324 -0.8282953 -0.069971606 0.56452054 -0.721273 -0.7939098 -1.4273819 -1.650025 1.9025049 -0.46739626 -0.6076877 1.2227772 0.83742356 -0.011668082 0.04582998 -1.0600119 -0.26449218 1.0992094 0.562339 0.1967784 -2.6428478 0.49579453 0.8474291 -0.61768717 1.299036 -0.70033234 0.10988136 -0.68612224 -1.61569 0.47293037 -0.30336377 1.0790125 -0.80054754 -1.2072554 -0.84721 -0.70804983 0.044375677 -0.4474822 -0.040302042 -0.4591384 1.7530298 0.44916114 -3.2121491 -0.98319465 -0.10837356 -1.0562909 0.51632303 0.5432097 1.2691753 -0.63997823 0.4148013 -0.51337147 -0.10527761 0.0802778 -0.7795777 0.59085256 -0.7632066 -1.0552276 0.24858493 0.30628368 -0.5433919 0.30899054 0.62577206 1.3403137 -0.2271732 2.144824 0.55543584 -0.22746646 -0.2909617 -0.934738 0.30874193 0.06346512 0.0726059 0.3401804 -0.34037498 0.53127676 0.40950346 -1.7550894 -0.21935591
 -0.20991544 -0.31165084 -0.70491993 2.2653017 0.30980918 -0.39761367 0.17236915 0.17268658 0.47154555 -1.5243195 -0.42895395 -1.6342139 1.7050436 -0.50486195 0.682538 1.2897104 0.7914553 0.94039017 0.04369532 1.100181 -0.2329535 0.16921109 -1.8025634 -0.39706278 0.8645803 -2.3151815 0.21410903 -0.4837017 1.400699 0.047903765 0.054134604 -0.71668 1.2157694 0.6362417 -1.6447185 0.8813033 1.5429614 -0.9480797 -0.82773423 -1.7469211 0.6764435 -0.64566445 0.475819 1.1482456 0.12962182 -2.5913513 0.6827626 0.46196222 1.1892388 0.89883345 -0.31636924 -1.8082113 0.25381243 1.5340887 0.82092625 -0.28765264 -0.5271286 -0.34274876 -1.5538728 1.4937576 -0.77717346 -2.0563037 -0.45794046 0.069693126 1.5078461 0.3788155 1.5151156 -0.80369794 -0.3442602 0.13032697 -0.85117996 -0.5487769 -0.6242758 1.9953235 0.16239153 -0.11120546 -0.11622729 0.41592792 -1.5132685 -0.03650482 -0.6343461 1.1678851 -1.9637575 -0.5369191 -1.5821029 -0.30973992 2.1680672 -0.19227295 1.0677267 1.1366957 -1.5266093 -0.24840795 0.43850622 -1.0042301 -2.251998 -1.140717 -0.1045478 -0.3281317 -1.1639442 0.55444205
cependant 0.5663676 -0.44999278 -0.3900434 -0.78557837 -0.24935982 -0.4658406 -0.09509238 -0.5429016 1.0861312 1.1845924 0.2906465 1.3246238 -0.60757405 -0.69459134 1.999816 0.10172427 -0.21451366 -0.8817842 0.650326 -1.0369117 1.0392293 0.5953445 0.15745117 -1.0888113 0.691403 0.33137423 0.25751483 0.12671204 0.4856519 0.6585176 -0.36728778 -0.85757136 1.6955713 1.1063323 1.2906616 0.3835771 -0.9684176 -0.098526806 0.10365087 -0.65478575 0.289665 0.86774313 -0.04909538 -0.36468306 0.62251115 1.4228364 1.5332315 -0.9885585 0.68048656 -0.70659745 -0.20583364 4.3790787e-05 -1.4188408 0.29408717 1.2583659 -1.2425737 1.3868876 0.3980919 -0.66807735 0.0043701474 0.41684586 0.5390429 1.0329349 -0.79321367 -0.5748304 -0.46919024 -0.7385967 -0.36030915 -0.14685586 -1.1038904 1.0393766 0.2936024 0.35960478 -0.28395644 0.9397916 0.6152832 0.15833968 0.80087954 -0.35315642 0.8105459 -0.30906096 -0.7239005 0.05199984 0.5768417 -1.0141436 0.399538 -0.1417924 0.17992038 1.6165377 -2.6665332 -0.47476134 -1.65515 -0.0662113 -0.6806961 1.0442863 0.32620877 -0.90656906 1.0268754 0.2360158 -0.7218068
, 0.9591867 0.061509095 -0.1254885 1.6432436 0.22800514 1.1274585 0.9718513 -1.651831 0.31866264 -0.41496205 1.4547371 0.40380853 -1.2436026 0.37022382 -0.5159643 0.7929227 -0.6119243 0.66047794 0.12353358 0.3924588 1.3379368 0.17232808 -1.2126921 0.044218823 -0.8483793 1.3726326 1.8193998 1.218381 0.49123463 0.38149244 1.3392645 -1.0606256 -0.77432454 -0.6150791 1.5674978 0.38556165 0.20165208 0.39632943 -0.063993156 -0.1175307 -0.80276084 -0.9389026 0.053864837 -0.2816964 -0.5235924 -0.58444536 -1.7531773 -0.21794729 -0.8512187 -0.29866403 -0.83541435 0.9923045 0.89061284 0.27775115 -2.351115 0.71574205 0.6628426 -1.2195562 0.3595711 -2.5984163 -0.58398503 -0.43736982 -0.40067616 -1.6866761 1.3564454 -2.627386 1.616278 0.9042946 -0.41169006 0.17361818 -0.17838517 1.4491843 0.026898935 0.404001 -0.90566623 -0.108161844 -0.026718099 -0.9096315 -0.87979084 -0.32073432 -1.3469658 -1.4872515 1.3513342 -0.81640255 0.30196333 -0.89398086 -0.29785782 0.604425 -0.8034065 0.065238684 0.17910996 -0.43917245 0.32820153 -0.92729175 1.7535961 -0.5476902 -0.92330986 -0.30544716 -0.092215255 -0.7541084
malgré -0.13398848 1.2601945 1.1443267 1.2520932 -0.019860098 1.1291144 0.43477377 0.16655655 0.23621969 2.003204 0.21874514 1.4839206 -1.1091473 -0.26262978 1.5059255 -1.2593333 0.23363756 0.30292964 -0.33144057 -0.9168229 -0.10119048 0.5398428 -1.450572 -0.9402697 -0.5602861 -0.052306518 -0.45454296 -0.030205667 -0.85902065 -0.46743497 0.9610731 -0.38547263 -0.22000659 -0.71067566 0.24650058 -0.88356924 0.8852984 -1.3123401 0.15084834 1.1667887 0.7987277 0.8005282 -0.3962456 1.2883136 1.4412074 -0.17281975 1.4407908 0.20243469 -0.49609804 -0.5967278 -0.7807669 -1.2465553 2.0979586 1.5683007 0.66024405 1.5467777 1.1697916 -0.24235922 -0.55495757 0.7719655 -0.7108761 -0.32066274 0.1724528 0.5985601 2.1156342 -0.16472064 0.24626555 1.249476 -0.996555 0.0012459233 0.66436917 -1.0093671 -2.3871782 -0.54669476 -1.0024208 -0.38387647 -1.5340445 -0.44850242 1.667114 1.2050115 0.3241305 0.61766165 0.15623721 1.8499591 0.29971173 -0.8510391 -0.057249326 -0.4614767 -0.6733921 0.03429269 0.87019706 -0.61566335 -0.107113674 -0.21333396 1.2082317 0.9162699 0.43798965 1.0825701 -1.0104312 -0.9868141
toutes 0.81006783 1.4124298 0.13944459 0.822094 0.56803244 1.2703316 1.0162601 0.9881824 -0.3404508 0.63345855 1.9560502 0.5791975 0.15971479 -0.2534114 2.2968812 0.93553966 0.39264846 -1.7051706 0.7454089 0.0923347 0.72150695 1.0704511 0.3877367 -0.5392875 -1.3598278 0.78866524 -0.15133883 0.48439243 0.24434741 -1.2136222 -2.6309843 0.772766 0.39486867 -0.05555804 0.5725494 -1.2562358 0.85001224 0.24740896 -0.24748388 -0.8668324 0.33886254 -0.8331592 1.2028801 -0.013897985 0.34761155 -1.4013968 -0.56141627 -0.9458951 -0.53700775 0.40869668 0.7896375 0.595435 0.5522827 -0.49816647 0.38018307 -0.7783694 -0.73687905 -1.9301046 1.0010135 0.80871445 -0.50086373 1.1272907 1.6583146 0.95236874 0.20399177 -0.31073844 -0.39573273 1.2772676 -0.35734108 0.32294267 0.71290356 0.17409892 -0.024782369 0.33670098 -0.52336264 -0.6893632 0.24959971 0.3266958 1.156563 0.89427143 0.42227313 -0.56828624 0.6058681 -0.8894944 -0.8638796 1.9391434 0.08710233 -0.47063443 1.2160225 0.5538949 -0.8232616 -0.74651575 1.1658312 0.9814355 0.39467925 -0.23555896 -0.3012022 1.3539622 0.32805303 1.7233629
s’ 0.37859693 1.3229377 1.3173401 -0.07766834 -0.11681726 -0.62986016 0.019290894 -0.39630163 -1.3051214 -0.09392533 0.6771106 0.8184861 -2.0557501 1.2203357 -0.30123726 1.3151488 -0.05830536 0.98558384 -1.3784884 0.44382364 -1.5249813 0.47344896 -1.6518071 -0.3231663 -1.0195926 -1.2206464 1.0138785 0.2981511 -0.9099592 0.64447725 0.46114624 -2.225104 0.43513644 0.7639372 -0.07321939 -0.4333222 0.6799573 -0.46748233 1.9953562 -0.3439491 -1.0819438 1.0075396 -1.0131178 -0.75089735 1.2618204 -0.9681677 0.3820511 0.30652386 -0.04789587 -0.48325336 -1.0150803 -0.34296238 0.3903851 1.1018808 -0.00089069083 0.014287578 -1.102413 -2.2661645 -0.49833834 2.0602298 -0.06626912 0.31404102 1.0390413 -1.91063 -0.7557762 0.57774544 0.53579164 -0.51070154 -0.5083947 0.9202941 2.2979589 -0.8693434 -0.57684404 -0.3815009 0.5276162 0.94329023 0.020617269 0.6497778 -1.202169 -0.588659 1.2051028 0.51034635 1.4782106 0.64810956 2.1602683 1.9033515 0.1801112 -0.2604549 -0.51863563 0.35116613 -0.65791136 0.84574765 1.2039883 1.3598291 0.48469916 0.16821717 0.040846743 1.8837632 -1.0880272 0.35109133
il 0.12168872 -0.18521646 0.8559667 2.5793626 0.5065865 -0.21125275 0.45090362 -0.23964562 0.0088754 -0.8552224 0.52867097 -0.90985996 1.8056101 1.0217946 -0.76250184 -0.5029154 -0.19463055 -0.3177273 3.3314831 -1.9047508 -0.4697562 -0.08817605 0.36109072 0.68914783 0.22803332 1.0563728 -0.27055448 -0.7498055 0.05646044 -1.4600885 -1.2073343 1.3720535 0.79120725 -0.54104626 -0.2514471 1.0233433 -0.14270777 -1.9533817 0.12756485 -0.107138544 0.24328727 0.079150334 -1.4127399 -0.47134414 -0.19117849 1.0234755 0.031006886 1.1564233 -0.45823053 0.79117537 -0.7400714 -0.64692456 0.21818884 0.5712013 0.3045868 -1.4921782 0.6605849 -1.9361542 -0.92477655 0.7298351 -1.0893587 0.27570775 0.021991555 1.2518735 0.037159212 1.0391928 -0.32489756 0.391773 1.7616901 -0.55072707 -0.19605225 0.8316617 1.022334 0.37212592 -0.010628562 -1.0086664 -0.30715713 0.22214885 0.6054855 0.68934554 -1.8491274 0.42958122 0.6057139 -0.8692008 -1.0987623 -0.7827728 1.4581141 0.39693266 -0.41036552 -0.50281227 0.30088094 -0.28947392 -0.70125043 2.4117389 -0.28749388 1.4942379 -0.35688007 0.24856646 -0.93443376 1.7276212
fût -0.07663437 -1.1166818 0.37997067 1.2641697 0.7145635 -0.0585857 0.5884495 0.79402417 -0.09845121 0.32319835 0.63143665 -1.2393191 -0.3670613 0.013109272 2.1659548 0.22221257 0.36628747 -1.1782062 0.13372172 0.7530384 -0.190579 0.9537574 -0.11870364 0.119479865 1.3500245 0.32830527 1.0118161 -0.6919621 1.0057561 -0.041593015 1.5770587 -0.6862748 -0.8648083 -1.0725453 -3.276464 -2.115756 -0.4247257 -0.68812215 -0.16156322 -0.19528538 0.21022487 0.807142 -2.3333738 1.0702304 0.63811517 0.46870014 -0.3951061 0.09999586 -1.0087268 0.19279772 1.0838996 -0.108813845 -0.7816194 0.92700016 -0.3615148 0.48507732 -1.3095939 0.19486886 -1.0040308 -0.78551364 0.004808447 0.06942394 -0.41141787 0.813968 0.60359037 1.4215783 -0.39923802 0.022027828 1.6861525 -1.3151051 -0.22144867 -1.557869 -0.92106503 -0.39785263 -0.67681426 0.050742988 -0.15375838 -0.13769414 -0.09388032 1.0479717 -0.18773572 -1.7952676 0.09093369 -1.5080963 0.57852894 -0.08438487 -0.046445884 0.06225701 1.6482643 -0.07190842 -1.6199652 0.5173175 0.3751878 1.1796229 -2.3330157 1.0420752 0.4987344 0.0451574 0.9639278 -3.0556047
à 0.8377828 -0.19143897 -0.675322 -0.8605296 0.37137544 0.337767 -0.5258093 -0.36366907 0.29120478 -0.3814752 -0.0976579 -0.7973453 -1.9109049 -1.3262708 0.6708592 -0.7389821 0.53541607 2.5949354 -0.38931423 -0.54233694 0.54052204 0.55863994 1.0972674 -1.0052186 0.6254122 1.5065012 -1.0265157 1.7140859 0.48406327 -0.008395813 1.0533751 -1.7661438 0.17390674 -1.586348 -0.6315053 0.13065454 0.005732283 1.408609 -0.4124487 -0.9430238 0.8461352 0.6957388 -0.50631326 -0.20201105 -0.15455776 -1.3809667 0.73219615 0.2130713 0.3419788 -0.2868845 0.537432 -1.9971614 -0.0843051 0.6403468 0.41660103 -1.1571745 1.7598693 0.50829375 -1.4580027 -0.67577267 -1.3119268 -0.58286375 -0.27873263 0.87790775 0.926478 -0.20831168 -1.5788401 -1.11172 -0.6178787 -0.56548095 -0.5721111 -1.4287363 0.21993317 2.495672 0.40223125 0.3126282 0.2563058 1.7974346 0.69572896 0.61326015 1.1543181 -0.1977315 -1.0807654 0.6249802 -0.21032943 -1.7333723 -0.17148003 2.0759375 -0.23904262 -1.0863413 -0.17249861 0.8705053 -0.28633738 1.0203742 -0.22356811 -0.6776989 0.6770178 -0.52133596 -0.29493213 -2.0299084
son 0.41970113 -0.054597434 -0.057190463 1.1919798 1.2231562 -0.86342144 -0.2605639 -1.0642264 1.2825011 -0.39179653 -1.0092131 1.8144761 -1.0902592 -0.6970702 -0.5096837 0.0074882666 0.97875786 -0.99451494 -0.99782586 -1.0337497 0.70364505 0.97020817 -0.35057142 0.7395056 -1.3379033 0.12327044 0.67575866 -0.03650742 -0.70389646 -0.6445108 0.3672525 1.879092 -1.0803902 0.62601846 1.7001649 -0.1457489 0.78215814 -2.2180421 1.4217045 -1.6166992 1.7653319 0.46893716 -0.6282725 0.07120758 -0.4120347 1.114225 0.775568 -0.13934888 -0.31016558 0.753474 -1.2872504 0.71834207 -2.0989254 -1.9668001 0.08691206 -0.674819 -0.42473236 0.17611131 1.1172967 0.8266678 0.2000824 -0.17301628 1.5661632 -1.7400895 -0.16549504 -0.587663 0.34716943 0.20898166 -1.4524812 0.11137056 0.6857254 -0.65907544 -0.45820975 -0.77257955 -0.17174049 -1.1944934 0.14982367 -1.7746496 0.343743 2.5506837 -1.1361501 -0.2435979 0.09719325 -0.15144628 -1.8473436 0.28562135 -0.35301098 0.8770663 -0.8650167 0.25294796 1.1326176 1.1073921 0.40717897 0.08500628 -1.589072 -1.7951531 -0.730381 0.35523292 0.042099345 2.6630678
poste -0.29436696 0.67981887 -0.992686 -1.9135025 0.39592347 -0.06499495 0.097953334 0.08312558 -0.10676709 -0.0026613474 1.0817636 0.4867492 0.17197894 -2.1808493 0.40666926 0.011551708 0.14523822 -0.73709726 -0.7814913 -1.4861465 -1.7069671 -1.1279702 0.22112788 0.4704117 -0.044476405 0.25501338 -0.39271528 1.195507 0.779592 0.14948243 -1.1222391 0.73295844 -0.76913357 0.1542185 -0.8777806 -0.042865135 -0.7829229 -0.2291884 -1.710402 0.97976786 -0.2549207 -0.67220867 -0.7352445 0.20707002 -0.6396864 -1.1547904 -0.21632735 0.5601952 0.202215 0.14237902 -0.42653096 -1.1961027 -0.25069717 -0.3974657 -0.38501036 -0.41999656 -0.52444375 -0.2600181 -0.42671305 -2.1984587 -0.19110641 -0.92006356 -0.8357085 -1.6202047 -0.5861294 -0.119613804 0.66888845 -1.2086418 -0.76769495 2.0222929 -0.7587412 0.023593577 -0.8724168 0.8229489 -0.3632839 0.33037573 -0.17620443 0.16769901 -0.120380625 -1.0189059 0.45582247 0.3308014 -0.6569239 -0.24104579 -0.29615682 -1.5123802 0.45617023 1.6951895 -0.1277208 -0.8448789 0.37720588 -1.2565593 1.6089333 0.0038832054 1.3728797 0.053617366 0.91375256 -0.2918454 -0.25045097 -1.9303215
caderousse 1.0384332 -0.3699293 2.1355956 -0.63402134 0.64748114 1.3744911 -1.4665496 -0.07233247 -0.6095716 2.2686145 1.2171062 -1.2882031 -1.3915154 -0.85379887 0.19293004 0.61562186 0.36742744 1.4666164 1.6293149 0.83387357 -1.9714943 0.6887165 -1.7351329 0.11340467 0.12643152 -0.12395831 -0.5626205 -0.33005175 -0.2186315 0.23819004 0.4336232 1.5183923 -0.054700732 0.39780188 0.37059695 0.48638493 0.5969653 0.0055891126 -2.335036 0.7976108 -1.1827079 0.21110725 -1.4448894 -0.88819104 -1.2384611 -0.65085 -1.0234392 1.4851222 -0.24800995 -1.0300618 -0.68548584 -0.6224486 0.72891235 -0.32918218 -1.401808 0.4289677 -0.35030827 2.4059255 -0.5007325 -2.19381 0.24183701 -0.50197434 0.6693623 0.30005956 0.16270357 -0.9980761 -0.253901 -1.3181018 0.73976517 -0.14884053 0.4293727 -0.21258563 1.4813125 -1.3471911 -0.7631101 -1.3530262 -0.13796164 0.9997563 0.33946094 0.4550566 1.1866491 -0.108533084 -1.1307366 -0.14745873 -0.98151016 0.52510154 0.37405747 0.29286548 0.5668822 0.27975154 0.15545496 -0.78005743 0.019451344 0.7463988 -0.047732443 -1.9148014 -1.5952513 -1.651524 -0.7443865 -1.0778632
aurait -0.53187966 -1.8009932 1.1586621 -0.34637713 -0.14430116 -1.6594522 -0.4733327 0.1995345 -0.66809815 -0.35841194 0.38585052 -1.502228 1.0134041 -1.2221398 0.6874718 0.9531136 -0.26247236 0.22857727 -0.3191423 0.7080165 0.21474142 -0.7606007 -0.30297965 -1.7278316 1.2148712 -0.14481328 1.045732 0.22457317 1.398239 -0.29671186 -1.0182554 -0.9137275 -0.79681844 0.09954932 -0.10598876 -0.6272627 -1.7935991 0.030577302 0.17190194 -0.6330165 1.2848129 -0.7113855 -0.3441561 0.05606232 0.1842655 0.7017119 -0.3437253 -0.6100578 1.673131 -0.8153347 -1.0354089 -1.0684832 -0.15685983 0.6112408 0.5120158 0.071090795 0.4403037 0.02109855 -0.26402393 -1.4252176 -0.31715178 1.0497897 1.2769725 0.41801313 0.019615991 1.6248031 -2.0435905 0.70882064 1.0918403 1.2759501 -1.0714928 0.8010316 -0.047156733 -0.3032557 0.16511519 0.9667779 0.47321767 1.5430435 1.2522945 0.10582428 -1.0414529 -0.86575073 -0.9741264 -0.42974332 -0.3724289 0.7189544 -1.4059223 0.16155986 0.3419787 0.68318844 -0.07694896 0.10401155 0.41793892 1.1509212 0.15891331 1.0352715 -0.8618332 -0.7781759 -0.39949566 -0.10786559
pu -1.281113 1.0020337 0.82492 -0.076672986 0.450378 -0.4449606 -0.49671212 -0.07611192 -0.7113744 0.7473196 -0.61676544 -0.64499545 -0.5738309 0.23491396 1.6061095 0.66295695 0.06549608 0.32242835 1.2995427 -0.12387941 0.14971755 1.1350688 -0.40417287 -0.2771226 1.1065676 -2.128664 2.0479884 0.63471675 0.11935383 0.20817408 -0.66645765 -0.5125309 -0.14373739 0.3956442 1.8088651 0.43962 -0.15469676 -0.34495613 0.15704893 -0.9511594 -0.431491 1.2140009 0.16371378 1.4859344 0.7846967 -0.23875841 1.8521677 -0.24679288 -0.4033558 -0.10821511 -0.5641226 -0.25280046 -0.6677036 0.16802812 -1.8996757 -0.522342 -0.1120806 0.071244344 1.7079942 -0.2873601 0.7506833 -0.48924473 0.41976833 0.8992162 -0.44265407 0.20671865 2.4596007 -1.6578653 0.2288164 -0.5098354 0.71569926 0.66506636 1.0565609 1.1026402 1.4386921 0.34977818 -0.68536603 -0.49283078 0.6021146 -0.33199418 -1.2702836 0.45370588 -0.6203819 0.07550156 1.3793539 0.69913936 2.1293826 0.050924756 0.9394754 -0.53486687 -1.1505413 0.2782529 1.6306298 -1.1275685 0.3564512 0.2342836 0.1855859 -0.65290654 -0.06382843 -0.072103344
voir 0.419374 -0.16093798 -0.75919276 0.2707337 -0.11359728 -1.3052588 0.029144669 -0.44922337 -2.1997912 -0.48678526 -0.12730536 0.80019814 1.2186823 -0.21333963 -0.36856732 0.74046564 0.89996713 1.3536652 -0.52773565 -2.1165893 0.31461948 -1.6635381 -0.17947139 -0.8163062 0.41877392 0.12512574 -0.5426735 0.20429453 -0.11200035 0.057112128 0.2663665 0.26494718 -0.32027686 0.55545795 0.45400518 -0.040970307 0.49391967 1.3269236 -1.4763068 -1.4011431 -0.14735949 -1.0368748 -0.7029975 0.71166265 1.1858068 -1.521751 0.9585821 -1.5055375 -0.2599588 -0.27695942 -1.3069934 0.033076208 0.82507604 -1.076074 0.16430761 -1.3332037 -0.6564704 0.69919515 -0.21095994 0.15811104 0.67109793 0.24776034 0.8452154 1.0507714 -1.5500574 -0.33700886 0.047209978 -0.87695205 0.513029 -1.3734108 -0.4594909 0.1603913 0.8798045 2.1194558 -1.6201968 0.3059837 -1.693415 2.7274697 -0.55491984 -0.11063968 0.39017117 -0.36114356 1.5249298 0.3964713 -0.19218811 2.2547505 -1.4374942 -0.33112887 0.32240656 -0.6151883 -1.9631174 0.80081123 0.9867796 0.31674093 -0.021796018 -0.2521497 0.94066 -1.0740383 1.5266902 -0.94978166
du 1.3714106 -0.37134057 0.71864283 1.3508935 1.1174744 0.9722832 -1.0555612 -0.5636603 0.47826794 -0.07040726 1.1931702 0.93071586 1.5274081 -0.17074846 -1.0232186 -0.019451907 0.6396523 0.3872701 -1.5502927 -1.6728958 0.66113627 0.70510453 -0.71376556 -1.8258862 0.7731289 -1.3727942 2.124518 -1.0717818 0.97985697 -0.6474931 1.2755466 -0.5755575 1.0484123 -0.8294516 -0.54201084 1.8995109 -0.8703935 0.48911622 -1.2907757 -0.44252527 1.6619267 0.030579861 0.5205659 0.39398158 0.6893732 0.42223138 0.9471009 -1.1237586 0.6064608 -0.18875001 -0.68741065 0.6238579 0.20149237 -0.6478431 -0.47851577 -0.115593135 0.39554384 -2.7030013 -0.3915559 -1.5191653 0.10044192 -0.37964833 -0.412228 1.2194256 0.58692616 -0.43603772 -0.37663522 -0.059668563 0.27623078 1.8338577 1.7847185 0.7010591 -0.5405422 0.6512537 -0.5877329 0.04473705 0.008187469 -1.7345703 -1.5258905 -0.9483 0.29883912 0.39937806 -0.50603557 0.06758133 0.87273294 -0.84061044 -0.7521455 0.2331597 -1.2087443 0.05597554 0.7929553 0.14326131 1.4012725 0.4726273 0.26067677 0.6760451 -0.5810951 -1.5334691 -1.7742851 0.87076485
côté -0.4058019 2.0574238 -0.69803727 -0.07304439 -0.72838324 0.18649673 1.3206283 0.20649332 0.04671512 0.11863556 -0.48441964 3.1895614 0.7182895 0.37645006 -0.9678192 1.201357 -0.2855228 1.7095242 2.5326643 1.3072151 0.9456675 0.22537607 -0.07536505 0.8541072 0.88417745 0.5835571 0.8738913 0.4667542 -0.35663372 -0.31238264 0.057474732 0.39178857 0.1194577 0.65358895 0.29153883 -0.62974435 -0.15232898 0.5675192 0.89300126 0.43984377 -0.04459738 -0.69634336 0.17137231 -0.23898579 -0.26193067 -0.53275424 1.3184794 0.9005707 0.08254482 0.47319388 -0.4101543 -0.07838872 -0.9312805 0.12230457 0.3851957 -1.2190858 0.4895252 -0.19389825 0.28207564 -0.7050771 -0.9815563 -0.5394781 1.5194328 -0.17311871 -0.68654615 0.22931531 0.51319927 0.51038957 0.8213085 -1.3479038 -0.50351995 0.25211143 1.9299188 0.453673 -2.1495214 -0.33903182 0.8057192 -0.6370359 0.033241805 -0.3149636 1.5621933 0.0738788 -1.8297429 0.529531 -0.84139305 1.010188 -1.3350033 1.1122429 1.7145873 0.39799428 1.09248 -1.068018 -0.18665901 2.1935446 -2.994008 1.0407941 -0.2617353 0.9574492 -0.011232614 2.067622
un 0.7008657 -1.4490147 -0.19364852 0.9602513 0.55666983 -0.10622673 -0.37374756 0.48233184 0.016166883 2.2662895 0.2492238 -0.15649761 -1.5483309 1.7159325 -1.2852081 -0.16284749 0.29797715 -1.0843031 1.2192975 -0.51848656 -1.2364122 0.11042102 0.55062294 0.51758564 -0.7082338 -1.1306691 0.55214775 -1.3731062 1.4260341 -0.87181824 -0.8019402 -0.6960219 -1.1473294 -0.7254054 0.0802613 0.87702423 -0.34011975 -1.7598761 -0.11645519 0.48660436 0.038168307 0.9764821 -1.6090189 0.65881634 -1.7892497 0.6318782 0.8863131 1.259379 0.19052288 -0.40788484 0.8082997 0.08415722 0.025546575 0.19843401 0.7770076 0.21398528 0.18199162 -0.18883103 -0.75515735 -0.021547668 -1.6963465 0.90539426 0.09844908 -1.44006 0.80761665 -0.63261515 -1.1997926 1.8460234 -0.1234476 -0.01246912 -0.33296624 -0.4763306 -2.0551212 0.89184386 1.139593 1.1392187 1.6903362 -0.587037 -0.6222698 -0.21371493 -1.4433188 -0.105830275 0.364721 0.64439315 0.71913457 0.023190308 0.9940306 0.7356153 0.4914995 0.9603599 -1.2944229 1.8373656 -0.9880929 1.1080489 -1.7765026 0.1590268 0.6375703 0.46039003 -1.5448554 0.38850746
et -0.5297484 -0.016788784 0.75694454 -0.055194207 0.77336264 0.15860865 1.2234422 0.7367271 0.7943483 -0.16786063 0.25755635 -0.5769429 -0.7813434 0.65062976 0.35357064 -0.39415056 0.17430294 2.3204885 -0.4215322 1.7392818 0.5559326 1.2326707 0.2038597 -1.1432128 -0.0850704 0.38272354 0.15499584 0.5022823 1.0688987 -0.5244852 -0.8894286 0.64769834 -0.41328394 -0.7529762 1.0458338 -1.1601803 1.3270446 0.7136046 -0.55071455 2.273849 -0.5018224 0.36622816 -0.93124396 -0.29537913 -0.4501332 -0.079995856 -0.2863409 -2.4216504 -0.08453522 -0.049604006 -1.188347 -1.4681826 -0.49661312 -1.703713 -1.0174994 1.808376 -0.6289652 1.1014495 0.98177344 -0.98236454 0.48417947 -0.86364883 0.20341186 0.52211297 0.43284976 0.02006597 -0.8234027 0.05721969 0.7960473 -0.1573562 0.71774954 -1.9066384 -0.4126863 -0.39644194 0.55714285 1.4639663 0.39182258 -0.7697995 -0.74329776 -0.17021224 -1.4718833 2.2523782 -1.2146014 -0.7305412 0.23832639 -0.049712222 -0.32865956 -0.44924664 -1.3986654 0.39654332 -2.1126137 0.23321977 0.59203756 0.017540604 -0.26928556 -1.6002334 0.17263313 0.64309025 -0.73542935 -0.69537455
cheval -1.7018487 -0.15383188 0.3513025 -2.785288 -0.07831141 -0.09271039 0.20894632 -1.6869631 -0.64082325 -0.7538521 0.3644367 -0.06343359 -2.362356 0.8496614 -0.09296392 0.3042949 -1.4227618 1.9253049 0.17665714 -0.07388735 1.2485511 0.9141361 -0.50454265 0.5499864 0.45675087 0.3140071 0.37522528 1.2519932 0.22230868 1.6313733 0.62523234 -2.0837598 -1.3668424 0.9207208 0.150969 0.015283699 0.3213407 1.5310239 -0.875715 -0.6514089 0.097610734 -0.054736875 -0.113853976 0.79919916 0.85701156 -1.8057761 0.23352991 -0.13141613 1.0684865 -0.19426908 -1.4176719 1.1585178 0.1974677 0.72619355 1.429311 -0.103208505 -0.6734901 1.6209924 -0.10348499 0.097588316 0.25612408 0.67461526 -0.14098302 -0.47838902 -0.2852809 1.3257343 0.58382404 0.16886872 0.78992414 2.08519 -0.49795353 -0.4728164 -1.026217 0.9572066 -0.7444267 -1.9616737 -1.2193347 0.9999855 -0.5340873 -0.3590615 0.7461101 -0.9920708 -0.74002373 -0.91160256 0.20431343 -0.94349015 -0.06825358 -0.35088733 -0.101428986 -0.147441 0.63579905 -0.9668976 -0.35692728 1.6446645 0.8328372 -0.2624285 0.4837454 1.4371693 0.6471414 1.5409569
cette -0.10764066 0.34084764 0.2709844 0.36929125 -0.22435194 1.2039359 0.6222848 2.3569682 1.3356451 -0.106756546 -0.10535849 -1.108531 -1.8132831 1.323676 0.116455644 1.2518282 0.69242126 1.3551261 -1.8290085 -1.3882114 0.28977096 1.0935247 0.119974434 -0.41633618 -0.40490726 -1.4373267 -1.258038 0.36240867 -0.6061668 -0.55515414 -0.7515831 -0.3745509 -0.070525296 0.06911288 0.5513227 -0.11350456 -1.7591399 -0.11247298 1.0503714 0.33479938 0.387762 -1.667806 0.058924578 0.2637339 -0.51249367 0.9145285 -1.7935073 -0.7176649 1.1542778 0.17722692 -0.3324917 -0.34016752 -1.3240012 0.30058375 -0.032827538 -1.0137943 1.7466464 -0.9371565 -0.9112516 0.7247852 -0.090187 -0.44761086 0.14631708 0.82440084 1.7943738 -1.0990593 -2.2304196 0.23056054 -0.08729394 1.8397852 0.7161361 0.44211796 -0.08549808 0.13137175 -0.05844503 0.37820435 -0.94502103 -0.42287123 -0.16793162 0.16969939 -0.5399596 0.9605011 -0.2691403 -0.26557535 0.14730924 -0.64604545 -0.6910454 -0.59746814 0.77443784 0.75057393 -0.9579199 -0.29693806 -0.5248923 -0.4700185 -0.6607135 -0.80862814 -0.6089225 -1.2149411 0.36596227 -0.16175488
qui -0.93761367 -0.10775169 1.1175269 0.40586644 0.4479818 0.5736309 0.8301767 -0.1788295 -0.53706086 -0.59595233 0.16193607 0.27057385 0.37935948 0.4466801 2.2199013 -0.92512476 0.7961575 -0.15934962 0.07678865 1.2093589 0.8963439 -1.1839339 -0.95353293 0.6123334 1.003524 0.10211851 -1.0552661 -1.7111162 0.4005499 1.8002961 0.17318562 0.24158555 -1.6170123 1.1331202 -0.33509135 -1.0525522 -0.592766 0.29412493 0.4331311 -0.4059777 0.91950035 0.6880071 1.294744 -1.2984538 -0.93049335 1.3950571 1.4357936 -1.0281243 -0.48960778 0.18323272 0.4937439 -0.77218115 -0.67972124 -0.16680777 1.2856121 0.24288775 0.08324015 0.039748874 0.1745602 0.6750022 1.3441498 -2.4663267 0.2597955 0.8475816 -1.8701564 -1.0314866 -0.15632263 0.5160207 0.68379724 0.8858593 0.891865 0.07779684 -1.802069 0.6924133 1.0220672 -1.5185618 -0.34625262 0.6216791 0.85471576 -1.2317485 1.1290971 0.51886034 0.22025776 -0.38550636 -1.1413283 0.8993897 -0.04654014 -0.8267072 -0.53826517 -0.26251593 0.5827835 -0.4080532 -1.8760301 0.547261 1.3144481 -1.007167 -0.092185594 -0.89097625 0.6748181 -0.50704354
entre 0.16092665 -0.0024644397 1.1653904 1.2452433 0.28592327 0.051417053 -1.0071894 -2.3683157 -1.6289911 -1.19213 0.80247235 -1.0311916 1.0559841 0.46543938 0.16061921 0.09007585 -0.00044289976 0.80884755 0.08554499 -0.19820067 0.6533559 1.7102147 -0.31187597 -1.8829947 -0.68609357 1.638483 0.59559786 -0.57029545 -1.5309547 -1.117765 -1.5806828 1.3603377 0.33867136 -0.110590324 -0.5681939 -0.70699084 0.9561042 -0.0067599677 -1.0568087 -0.29211664 -0.19681494 0.23704946 0.6732569 1.1360152 -0.7429088 0.09053732 -0.34007266 0.85307074 1.2115604 -0.108049564 -2.7655573 -1.6955106 -0.7265084 -2.061198 0.6145867 -1.8276674 -0.49287322 -0.7044447 0.66895974 -0.13387589 0.23099393 -1.4831607 -1.683776 -1.3163966 -0.6245258 0.60811186 0.4712896 -0.73118955 0.9790067 0.02368704 0.57452106 0.5729697 0.9861554 0.83145577 -0.5989037 -2.0196044 -0.93531764 -0.1266805 -0.47002205 -1.2957036 -0.37944916 -1.3708476 -0.8833074 -1.250131 -0.008176673 0.4142113 -0.35444462 -0.5713769 -0.26199752 1.3079942 1.851123 0.60441464 -0.6024022 -1.3194056 2.5136704 -0.088460214 2.7569091 0.7243214 1.7081739 -1.2946725
le 2.1696968 0.17476392 -0.19078249 -0.30092183 1.1313454 0.11774807 0.9684527 0.4469719 0.31429347 0.33343616 0.25047714 -0.32219508 -0.24365014 1.4150829 0.40943813 0.8094338 -0.8810278 1.1709387 0.20592453 1.7064762 0.8135118 1.0862159 0.73827755 -0.5933257 2.3672051 1.1883157 -0.51262563 1.3592677 0.56788355 1.6652682 1.6413476 -0.80947495 -1.7934889 -0.4125989 0.45763862 0.69534177 1.9496851 -0.29450515 1.4118606 0.30594683 -1.3030576 0.67053056 -0.24874988 0.7324689 1.0752963 -0.22859532 -0.9345618 1.1541376 -0.32465327 0.29413244 1.1916882 1.8690788 1.6161319 -0.45909512 -0.65811807 -0.2577584 0.87765294 0.70913804 -0.19998342 -0.5763674 -0.0027027875 -1.6138557 -2.0235696 -0.11380246 0.8063283 -0.43676844 -0.2844776 -0.3162287 -0.40975276 -0.0952834 -0.5391416 1.2039213 -0.17994748 -0.17683107 -1.0644782 0.97606295 -1.6588817 0.67091763 -0.2834248 -0.60398734 0.73866856 -0.8101814 1.4185941 0.3525102 0.83029896 -0.6688671 0.24244125 0.11098866 -0.21123841 -0.10309264 -0.9054436 1.064749 -1.168139 -1.5604702 -0.627853 0.53414655 -0.69868064 -0.21833068 1.1648638 -0.29218918
; -0.9080137 0.39764306 -0.26377848 1.1309677 0.34974605 -0.5075243 0.028461767 0.09186042 -0.2813433 -0.6796539 -0.3537947 -0.82539093 0.3706419 0.8036531 -0.34259993 -0.84683955 -0.4796844 -1.0316895 2.1681087 -1.3482583 0.06953967 -0.95454586 -2.2867303 1.6254053 -0.38755032 0.042204626 0.5010125 1.1341002 -0.31174743 0.19858424 -0.5920288 0.505634 0.20064601 0.54925776 0.7088182 1.1576416 0.7394303 1.4304138 1.5480902 -0.64735585 0.6130465 3.9121983 0.16653241 -2.053639 -0.23387699 -0.9052641 1.7133023 -0.76400864 1.3451625 -0.13213594 1.6032676 0.5202673 1.0616237 -0.3747359 0.034956634 -1.2349545 2.4283888 0.07130489 0.41191208 1.9830345 0.2588503 -0.82743865 -0.5177765 -0.24837473 0.17873561 0.29083547 -0.28166825 1.8983729 1.8672643 0.20311138 -1.5285876 0.57061964 0.08662655 0.7000266 0.051165543 -0.34890184 0.60184604 0.020181496 1.1282929 0.17313734 -0.11709805 0.3541139 -0.05667635 1.2653393 0.61177427 0.5276709 -0.96050954 1.158319 -0.31057876 -0.6010573 1.901913 -0.20817807 1.0070744 -1.3666553 0.0023733452 0.8126639 -0.07732914 -0.1893292 1.7800967 -0.22635189
était 1.3205644 0.6027019 -1.2982292 0.6848594 -1.2426554 0.65076965 0.022571212 -0.14764278 -0.30359125 0.6873426 0.11275213 -0.69906384 -0.55506223 -0.22995543 -0.14742875 0.5688994 0.15561318 0.048070885 -0.17890133 -2.1258447 1.2346238 -1.3860779 0.21744895 -0.51704746 0.6605531 1.6763824 0.39309007 -0.04495641 2.2047362 -0.83260053 -1.235667 0.42077154 -1.1134558 1.2278192 1.0452533 0.54515266 0.056319498 2.7441385 -0.59773487 -0.4626081 -0.23099017 0.533707 0.29207787 -0.6703711 0.41503215 -0.97177005 0.16284427 0.31377912 0.6828855 0.49190706 0.24734493 -0.30944055 1.319612 0.6899067 0.8686538 0.772834 1.1071897 -0.70123494 0.2542485 0.18330494 0.21956626 0.46929508 -1.3822 -0.56297773 0.22082718 0.41231027 1.1499053 0.1321058 -0.6291566 -1.8041197 -0.21306686 1.0475379 0.3593884 0.00722993 0.47963965 -0.0016872212 0.2266914 -0.83574665 0.7303375 0.15523846 0.79732263 1.0310425 -2.4496336 -0.32368425 0.88385123 -0.6763564 1.3598484 0.6424265 0.5305199 1.2795482 0.019493183 0.9507359 -0.55964744 -0.0820757 0.21544999 0.62205595 0.4545246 -1.510583 -0.18118395 -1.0026445
l’ -0.033676416 -0.2961305 -1.2066635 0.3717651 -1.4640973 0.094187975 -0.555473 -0.23858501 0.61498123 -1.3506589 0.23270775 0.28788996 0.7727435 0.60390383 0.06465896 1.1014521 -0.48575738 2.6654649 0.59297574 -0.431295 -0.39580178 0.38183 -2.6573775 0.153007 -1.015138 0.6555807 1.1588861 -0.11173461 -0.0068340274 -0.39979064 -0.15335466 -0.6214556 0.122223064 -0.06707895 0.37624374 0.53308874 -0.59341747 -1.8943619 1.3883954 1.4401497 0.43756813 0.6448267 -1.5779002 -0.42941773 -0.40542856 0.7885021 -0.5845895 0.32333633 -0.23303401 0.7354778 0.8851406 -1.2048855 0.24153167 -1.0046668 -0.36429027 -1.0291445 0.51577973 -0.019588884 0.30233634 -0.2936654 -0.31890228 0.20563579 -0.92194885 -0.3195756 1.3152118 -0.9119119 0.862611 -0.34680545 -0.72814393 -0.4331103 -0.66634333 -1.4813743 0.44951764 -1.2126973 0.45072952 0.6831834 0.029782783 1.6567038 2.8168793 0.13667539 1.0964777 0.2786859 -0.36390042 -0.57630146 -1.2067729 0.9296674 -0.37070352 0.73848194 1.4234369 -1.3388213 0.18283254 0.76952577 -0.57213885 -1.3957615 -0.28253472 1.0173432 -0.16532195 0.34377873 -0.6556882 -0.60557175
d’ -0.26462114 1.0293844 -0.08354299 1.2538415 0.4157608 0.0397831 0.73721826 -0.45790392 -0.027992748 -0.5386748 0.35636416 -0.6351543 0.8325432 -0.42309946 -0.18929884 0.14599514 -0.0118567115 1.0412046 0.16374221 0.8604754 1.2827319 -0.36501065 0.054763682 0.19572398 -0.21871075 0.13048935 -0.5637472 -0.38721946 -1.5965303 -1.418162 1.1367404 -0.21693164 1.2931879 0.57837254 -0.6223379 -0.7825808 1.3514802 0.3702284 0.080190994 -0.41904277 -0.07679353 -0.9844531 -0.13182975 -1.0984654 1.811101 -1.2820548 -1.3531578 -1.4563558 0.21916616 0.90895367 -1.4431669 1.325463 -1.1321765 0.7415732 0.41437852 0.3381835 0.3763059 -0.25133827 -0.5037414 -0.026843572 -0.4437319 -0.24160436 -0.40739346 -1.2003112 -0.08584431 -0.07002717 0.635449 0.93726784 -0.6870303 -0.16976136 -0.6947792 0.25577715 -0.69107103 -1.4734725 -1.6462648 0.77457726 -0.9256821 -2.1391656 1.8323889 2.572467 0.33346874 0.04553307 -1.5099695 0.2015745 1.4391778 -0.99858445 0.55044746 -0.98230624 -1.1511527 -0.112594694 0.8283637 0.4074184 1.6954386 0.8824409 0.6495383 -0.36988875 -1.1088836 1.5431453 -1.6515456 0.12041485
chapeau -1.4081632 0.27774668 -1.0554892 -1.4314367 -1.1237155 -0.0545679 -0.008583013 -0.32007125 0.7151359 1.484645 -0.3638631 -0.8158662 0.41671556 -0.19120815 -0.74405235 -0.34362197 -0.42942244 0.037686206 -0.088647455 -1.0140388 1.329582 0.9363055 0.20445286 -0.079777054 0.20618287 0.0598444 1.090003 0.6109941 -0.45419568 0.013212273 -2.2303767 -0.036932614 -1.0546682 -1.1595709 -0.02236034 1.2574247 -0.7417325 0.57115954 0.43373433 -0.118363485 1.8684782 -1.072236 0.59954375 0.3725949 0.21359265 0.2142992 -0.34260425 -1.1081779 0.5704826 1.4662735 0.28480962 0.8659291 1.796137 -1.816793 -0.04346553 0.41520482 0.44596982 -0.9039425 -0.6992097 0.0750847 -0.4377485 0.03903552 -0.11543101 -0.8414733 1.3212508 0.9589004 0.35379228 0.97937703 -1.5415881 -1.3114282 -0.33244187 -0.10266596 1.8626395 1.1007841 -0.8142125 -0.33415532 1.5479783 2.208014 1.0367044 -0.23272943 -0.13722315 -0.5764684 0.9759529 0.8855514 0.37622008 0.5060107 -0.72883517 -0.004448645 -0.25126562 1.5970953 1.0217607 1.3491933 -0.5638817 -0.9712529 1.2952361 0.56869614 -0.21334226 -1.3022062 -1.844303 0.18672194
trois 0.40992582 -0.19597358 -1.9279177 1.1465961 0.4606822 -0.10021943 0.10221951 -0.5451788 0.75199103 1.1923059 -0.043207508 0.16890965 0.0008729324 0.38135865 -0.25323698 -0.29260647 0.8877361 1.8246315 0.10774545 -0.08550442 0.2949661 1.1001904 0.5975442 0.4776782 0.9103404 0.33371216 0.39878586 0.4243354 -0.04270376 0.5084029 1.0305864 1.0256083 -1.8237017 1.3898947 1.344852 0.7583505 1.7855412 1.7921773 -0.36715868 -0.54616123 -1.4152312 -1.4393262 -1.5214791 0.64117914 1.252159 1.1678065 0.83215463 0.24634406 0.07858364 0.6542324 0.2719368 0.031121999 1.0599706 1.3273423 -0.012072509 0.2893268 -0.22305875 -0.32241127 -0.74270105 0.29287043 2.1221535 0.30012757 0.88086444 0.16305083 0.31993875 -0.85128164 0.17712174 0.7956568 -0.79022807 0.20737971 0.014463161 -0.6049623 -0.16901775 -0.5609521 -0.102678984 0.5773204 -0.64145553 -0.80023706 -0.9738788 -1.2205623 -0.25602317 0.30219007 -0.03161743 0.26657736 0.42730886 0.26460898 -0.40634817 0.14056472 0.3663925 -0.9550643 -1.3769815 1.2903947 1.9570957 1.6167108 -0.64084774 0.9349529 -0.43569684 1.4270849 -0.7063988 0.4659652
la -0.43481627 0.6282014 -2.5717409 -1.200413 0.15851876 0.6518142 -0.67825735 -1.5619211 0.32378206 -0.19889796 -0.49077356 0.27169484 1.4445739 1.3130051 -0.0030140858 -1.7064159 -0.5516146 0.09724853 -0.71363395 -1.5172994 -1.8849876 0.89452374 0.80480444 1.4371933 -0.7891839 0.13946342 1.0763451 0.112877354 -1.1533519 0.8798166 -1.3329515 1.7706056 -0.72698295 -0.45488527 -0.045454796 -0.23696959 -0.34637678 -1.0158669 0.845614 -1.3949151 0.7282871 1.2988261 -0.5277314 1.5543512 0.70023376 -0.0057743173 1.8878001 0.7245763 0.4192147 -0.72408235 -0.74243957 0.41009107 -0.8362222 -0.070957385 0.79499924 1.2432399 -0.5804847 -0.54723644 -0.37232623 -0.32788205 -0.8891847 -3.2803025 -1.0851165 0.65377957 -0.11584185 -1.3465047 -0.9246572 0.7413793 0.6418681 -1.545782 -0.0031493548 1.7910179 -1.0969356 1.4350444 -0.44912523 -0.09393144 1.1354342 -2.1109798 0.3036025 0.48534718 0.7528213 0.68336844 -1.684642 -0.3638605 -1.259796 0.13327639 0.42280945 0.46209955 0.5561072 -0.71342903 0.29330653 0.7741227 0.4137249 1.2452273 0.49149466 -1.3972052 0.6610524 -1.8683212 0.46019554 -0.5760968
alors -0.32261947 0.12755024 0.8798096 -0.21588859 0.85731953 -1.9397237 1.0801961 -0.6380894 0.55764043 -0.87505066 0.355534 0.9373235 1.5109584 0.09974461 0.28275472 -2.9954538 1.2472254 0.13385504 0.2736295 0.69005996 -1.295978 -0.3238408 0.28682965 1.5195206 -1.2167354 -1.93898 -1.1667256 -0.49054757 1.6152993 -0.23423877 0.9144685 1.1641421 0.4162853 0.039277107 -0.9936773 0.7801025 0.46139568 0.2737876 0.74174696 -0.9971833 -0.9824031 1.137907 -0.0009349473 0.75833327 -0.8001555 -0.24459137 0.6797292 1.5571892 0.29391983 1.9177759 -0.19647548 -0.0304254 -1.5013182 -0.39812008 -0.40533668 -0.48017484 0.5974223 -0.16330165 -0.7166627 -0.39600125 0.7824429 0.19612521 -1.8416364 1.5249448 -0.23987669 -1.0615845 1.4220439 1.0653828 0.19760972 -0.54989225 -0.29527235 0.2561573 -1.7362343 -1.4822282 0.8845822 1.1583917 -0.25680998 -0.6987618 -0.46774146 0.20805974 -1.021542 -0.9434511 0.2155646 0.7170557 0.12864478 -0.3607215 -1.1090108 1.5935905 -0.40551415 1.1571146 0.783193 -0.28444803 -0.020852387 -0.7809612 1.9533123 0.93264747 1.633934 0.16744208 0.22172554 -0.039718516
ils -0.96885884 2.106276 1.393359 -0.15547286 -1.4329716 -1.0632352 -1.1698675 -0.6266798 -0.24609345 -0.25903612 0.44710496 -0.4554332 0.39386073 -1.7390885 1.4782729 0.2851358 1.8172771 0.0757965 -0.44188386 1.0765543 -1.1964892 -0.13799448 -0.06540788 0.7753412 -0.49416515 -0.5560024 0.114802815 0.14951071 0.13175778 -2.2700002 -0.44704062 -0.060371548 -0.7362685 2.2524161 0.8362536 -0.5124776 0.9765344 0.7110741 -0.99769825 0.38295478 -0.5976511 1.1583729 -1.8435334 0.42007574 0.3930014 0.8245323 -1.1968567 -0.095820524 -1.5813974 1.4696811 -0.74994916 1.449033 -1.1827526 0.6089213 -0.6690455 0.40178758 -0.025332328 0.39701357 -0.4879401 -0.14715545 -0.26325125 -1.5774306 0.1866426 -0.09609253 -0.21031545 0.9112484 0.09692583 -1.5297148 -0.1404558 -0.31873813 0.3615268 0.5849756 -0.78516185 -1.0831218 0.2796461 -0.0482229 0.59566474 -0.3199773 -1.3608251 1.046281 -0.5158437 2.581953 -0.34513208 1.0202947 0.199155 0.041787516 -0.77346885 -1.5018624 -1.8195724 0.18393812 -3.339707 -0.39634773 -0.27839768 0.9616474 0.8158049 -0.535604 -2.3031192 -0.5001746 -0.7603913 -0.3394425
n’ -0.47380245 0.26042566 1.3165113 0.21603982 -1.1562244 -0.49074587 0.22265047 -0.10376614 -0.353562 0.39175922 -0.2785729 1.2574651 0.09482459 0.7072706 1.0356661 -1.1575086 1.054841 0.9964016 -0.045451865 0.32353005 -1.0830373 0.633802 0.07517841 -1.3342376 0.82734823 -0.2679011 -1.4484025 -0.1493572 -1.109342 -0.05285128 0.5797652 -0.53509945 0.7735529 -1.6856117 -0.673809 -0.76453316 0.75996006 0.58917946 -0.7374459 0.5017206 0.73499465 -3.577136 0.92547506 0.93044984 1.2177536 -0.98145187 0.5657743 0.93839365 -0.12997706 0.31200626 -0.23548341 1.344267 -0.68810815 -0.18533199 0.82862175 -0.042090632 1.2041875 0.72980773 -0.009295207 0.06161678 -0.77944714 -0.884497 -0.045244552 -0.47670546 0.32618213 1.9293187 1.2235407 -1.5402716 -1.0121989 -0.2711741 0.6955197 -0.9747068 0.45968956 0.7322886 -0.44181168 0.5227879 0.1524281 -0.77232444 -2.5122657 1.3407565 0.50660735 0.5540423 -0.34551516 -1.8997054 0.4696401 -0.41613626 0.63163996 0.28241575 -1.1907848 1.5594786 -1.4593716 0.7908602 1.0778798 -0.34482756 0.72147095 -0.79164994 -0.31412792 2.5002694 0.54154575 0.7371372
tous -0.20362866 -1.3789918 0.46346575 0.2569355 0.8772482 -0.22441669 0.0742383 1.3350269 0.38703865 1.550616 -1.3271234 -0.33085144 0.64337444 -0.45274234 -2.5158257 0.9688729 -1.0705492 1.620138 -0.040704116 0.43762243 0.10804594 -0.26816687 0.7372746 -0.18298571 1.0766419 -0.5229379 -0.49100167 0.12783158 -0.29847544 -0.5153433 -0.11945059 0.15029782 -0.35916 -0.3309517 -0.51548773 0.38188607 -1.111042 1.1577303 -1.3977598 1.4840379 0.082114436 0.4894162 -0.30243766 -0.10444644 0.1430082 -0.15592253 -1.11662 -0.10303117 1.3658516 1.3135192 -0.10133943 0.11988887 0.8309635 0.3198619 -0.5396902 -1.0683537 0.16547397 1.4766431 0.021881763 -0.17655149 0.43901575 0.44204468 -0.65154135 -0.15252852 -1.4475455 -0.79230696 -0.57613033 -0.2868438 -0.35844082 -0.74595606 -0.5912583 0.49283573 -1.3256536 0.23227204 0.026736164 -0.32908997 0.1719925 0.24196337 0.42225662 0.08152626 -1.3366686 -0.7635407 -0.2767828 0.37224418 0.80583847 -0.80459505 0.033662178 -0.99620014 -0.27354375 0.8247264 -0.8487052 -0.83870417 -0.06200601 1.0453339 -1.0201946 0.11799559 -0.26162 -0.42525136 -0.18928573 -0.88221
deux 0.4022616 0.52330565 -0.77134645 0.38824067 0.716145 0.8255498 -0.5379943 -1.6345549 -1.0023518 0.41115808 0.50740516 0.16689773 1.3154216 -0.109021515 -2.4321733 0.12869759 -1.7289649 -0.66925573 -0.23178676 -0.3647648 0.05302098 1.1806079 0.41494903 -0.060917243 1.1672866 -0.45771348 -0.8330935 0.5089859 0.80110216 -1.2627512 -0.87182474 0.6706519 0.4392962 -1.170241 -0.404326 -1.5969307 -2.2998455 -0.20474635 -1.3608959 1.5496854 0.33291942 -0.76111734 -1.7172673 0.22139536 1.4859171 1.168379 0.1441504 -0.19599754 0.63737684 1.8504524 1.5068288 -0.4574909 0.36320072 1.0702666 0.87681526 -1.7061386 2.7974913 0.36916947 0.8042062 0.51542854 0.13623647 1.6303915 0.57766503 0.29672474 -0.22788678 -0.70814186 -0.7664086 -0.34682745 -0.21630603 0.5563547 0.57426107 -1.0675148 0.7796792 0.42686796 -0.4887117 1.0185757 0.32174176 -0.64653355 0.65071815 1.0047739 0.8471784 1.0449592 0.35559353 0.35021427 -0.3182258 1.5563664 -1.5549941 1.0623014 0.2011314 -0.8032338 -1.0685701 -0.18841836 0.18038319 1.9786055 0.88790905 0.33075476 1.0924287 -0.703153 0.68202555 0.5269907
qu’ 1.135473 0.9714566 2.0689678 -0.62261856 1.9071243 0.34515592 0.21076868 0.6982082 1.0783364 -0.41126323 -0.012408206 0.016142813 0.35697997 -0.5522696 -0.2657934 0.19599238 -0.2746189 -0.46567464 0.5089883 0.16003731 0.52190703 -0.16656715 -0.16706006 -0.5118753 -2.7501254 -1.4887539 0.5435035 -1.6730974 -1.5374612 -0.55052745 -1.1778855 0.24513961 0.32197353 -0.095916755 1.2246156 1.7559246 1.3094523 2.1277459 -1.2247337 -0.34885743 -0.6104999 -0.25775948 0.6586349 0.3229058 1.6510407 1.2633116 2.2036972 -1.1885686 0.5304844 -1.258274 -0.22911344 -2.726126 -0.6832472 -1.0020717 -0.422354 0.44492108 -0.17834455 -0.5816061 0.30602202 -1.1378084 -0.8715359 -0.75398856 0.30833697 -1.0832407 0.46871382 1.2631575 1.1091197 -0.4958317 -0.09454078 2.086207 0.47640848 -1.0244356 1.330588 -0.22736499 0.014719268 1.5017817 -0.03224081 0.8081016 0.63727164 -0.75283414 -1.8662201 -1.014767 0.60071206 -1.0840621 0.27421916 1.7215066 -2.3629603 -0.6024911 -0.027885616 -0.053460136 -0.4913752 0.23898023 0.8354351 -0.98104745 -0.5014759 0.41875023 -0.1545991 -0.023225248 0.5928384 -2.0139258
fort 1.0066056 1.2111543 -1.7356508 1.5213848 0.6401781 -0.3130194 -0.020576358 0.0142585 0.20807193 -0.3435889 -0.8777597 -0.5908949 1.4580488 -1.1161556 -0.14397629 -0.73965967 0.08661304 0.3611881 -0.6149285 -0.06733417 0.27255464 0.6121457 0.2905109 -1.3381587 -2.1398966 0.50139034 -0.27929705 1.6156979 -0.82762754 0.13644777 -0.7674012 -1.0014468 0.36772755 0.17412753 0.23192534 -1.5512472 1.2822379 1.1729138 -0.2193174 0.7560251 -0.15353769 0.31419408 -0.101868644 -1.6060259 -1.3186548 -1.0140026 -0.19080396 1.0988532 -0.35750535 1.452447 1.6723052 -0.13731912 0.60205907 0.78669506 0.58483297 -1.3619007 -0.510937 1.2355067 0.56959206 0.44392532 -1.2633656 -0.5497182 -0.8171806 -1.5405334 0.6166181 -0.73829067 1.5270287 1.6703901 0.18217762 -0.42456242 -0.19944172 1.6642989 -0.857309 -0.755955 0.12816359 0.016616512 -0.1742744 1.3846238 0.82283485 1.4559741 0.080923505 -0.81477416 -0.0124010425 0.8937561 -0.71952456 1.9455594 0.5944613 1.5983502 -1.2333454 0.7780469 -0.6438191 -0.71341765 -0.674626 -1.475636 1.2029356 -0.735331 0.20299312 -0.5754632 0.18278325 1.063693
dont -1.2164963 -1.8671489 0.52836156 0.16043259 1.0038038 2.1193652 -0.42895985 1.4683058 0.18559626 1.63229 -0.8335897 -1.559052 -0.038931593 0.9391151 -1.5289367 -1.712725 -0.55621743 -2.018632 -0.25473645 -1.1746294 -1.0340141 0.5810047 0.9126769 -0.6442211 1.3837881 0.48515245 -0.16871388 1.2262622 0.29161748 -0.034260772 -1.4914912 1.3218855 1.140635 0.50785625 0.961105 1.1722912 0.30532423 0.07009966 -0.31028643 -0.10868482 -0.2659304 -1.1385984 1.4999348 0.2970017 -0.02016547 -0.84586096 1.3489093 1.0048441 -0.8424048 -1.6305566 0.3179464 -0.2549666 -0.8260339 -2.0871816 2.545013 -0.5274482 1.3694398 1.5484165 -0.22365713 -2.664151 1.3261222 -0.40219152 -0.51483124 -0.442045 -1.8207427 0.15151757 -0.26853973 0.5576181 -0.4334772 -2.280136 0.5945303 1.3965162 0.88390046 -0.155531 -2.6684113 0.90784067 0.39195952 0.29619443 -0.77040094 0.21762466 -0.8013271 -0.08492699 -0.6208539 1.8320911 -1.808346 -0.19122398 1.4208254 1.7178383 1.7806433 0.10123554 0.35852945 0.21675563 -0.8963945 -1.1188174 1.3442707 -0.6009404 0.37005937 -0.58291876 -0.3224087 0.32069755
lit -1.2040111 -1.7680355 -1.2481649 -0.7978025 -0.38325754 0.17117652 -0.5098572 0.9586508 0.36044893 -0.83718073 0.26407242 -1.0112576 1.6527505 -1.6790848 1.5067042 -0.7545149 -0.30912006 -1.1331139 -1.7085636 -1.3289511 -0.28185534 -0.7248735 0.6401369 0.7177123 -0.5882531 1.0690154 0.08462271 0.58625954 -0.3814732 0.117003486 1.329793 -0.11214278 -0.36931968 -0.32319555 -0.6507468 -0.3479565 1.0097398 1.1080577 -0.32758126 1.1990302 -0.39981362 -0.57630485 -0.3878268 1.0486578 -0.13564762 0.5495908 1.4087791 -1.4248317 -0.41664317 0.113508515 1.3815241 -1.7632374 -1.3028388 -0.9335485 -0.32863128 0.37067574 0.34707052 -0.24876095 0.09241024 -0.35441744 -0.7431128 0.73125964 -0.06457031 0.6585994 -0.37297454 -0.20638797 0.66382694 -1.3696847 1.3566294 1.238173 0.27824414 -0.236489 -0.042602535 -0.15428561 0.009611815 -1.2339157 0.28242922 1.757031 0.23893647 -0.21874458 -0.61282223 2.3998787 2.0518887 1.1638727 1.0998597 0.14937872 -0.906809 0.88002694 -1.4389714 0.91052413 -0.21285109 -1.3546153 -1.5532182 0.0363403 -0.66303813 -0.6957751 -0.56015146 -0.17773326 0.5145595 -1.1194594
dans 0.19919316 1.1869445 0.40515915 -1.1555773 -0.74023974 0.49318823 0.93749976 -0.28447753 -0.318214 0.53651524 1.1729875 0.34460038 0.4859025 1.6306238 -0.016169183 -1.1047157 1.0610979 -1.4289708 0.1394633 -1.7727778 -0.3877979 0.6261658 -0.57781917 0.11001281 1.4694607 0.5706962 0.6796304 -0.43638623 0.27717564 -0.7242136 1.464053 -0.06342023 0.10437922 -0.30983943 -0.8649626 -1.4072275 1.0356042 1.1634374 -2.5883002 -0.28439245 1.1821642 0.41111928 0.547243 -0.104364924 0.71572536 0.027130509 -0.13519241 0.2066216 -1.2268133 -0.74942786 -0.50011283 -0.21325193 0.58795905 -0.58640116 -0.39289168 -0.962004 -0.5183887 -0.36932468 0.79557806 0.24373743 -0.26666513 -1.1056983 0.14928673 -0.6851193 -0.55843353 0.77119 -0.14108038 -0.116327874 1.5860759 0.25850654 -0.50204533 1.0432019 1.1798213 0.80093867 0.032049887 0.41197833 -0.5499419 -0.5922655 0.6989701 1.3138993 -2.0468895 -1.3031511 0.6954498 -0.5572498 0.31467217 0.19731924 -0.128445 -1.968436 2.1891334 -0.00297302 -1.29487 -1.3594155 -0.08950175 -0.4809859 0.6147746 0.2706599 1.7936025 0.44081223 0.7648548 0.7156954
une 0.27724165 -0.9876743 1.8155346 1.0484904 0.013593039 1.1511632 1.0109947 -0.7277272 -0.5397921 -0.69381726 -0.07293545 -1.3612823 -0.7631309 -0.31982073 0.5197763 -0.06232576 -0.3817393 0.15373956 -0.7425365 0.070782036 0.010837723 1.9988025 0.273957 -1.0132391 1.2750032 0.46698573 -1.084152 -0.44201788 1.9130908 1.527197 0.9937129 1.26845 0.8529236 -1.4871757 -0.43723047 0.9615298 -0.07364097 0.62845844 1.266199 -0.26059988 1.3022894 -0.3202395 -0.9082266 -0.48093623 0.3988188 2.6835735 -0.20971835 -0.96792746 -0.4640916 1.1819568 -0.81196934 0.69092005 0.6412386 -2.2056923 0.80575883 1.254582 0.71848273 -1.2544354 0.6314285 1.2227473 0.47062677 0.9984837 -0.37497672 0.7379189 -0.7595667 0.4370364 0.21857849 0.13447054 0.5205325 0.4564907 -1.3790178 -1.0203654 -0.65927404 -0.58558613 -1.2164633 -0.92049086 0.20612398 -1.9441265 0.8485376 -0.07367076 -0.12282358 -0.6821685 0.004444916 0.7959862 1.9775532 1.0698789 1.0049405 2.0755656 0.090522476 1.9831527 -0.43824714 0.028967164 1.9601597 -0.82129675 0.3696947 0.11964342 -3.3233187 -1.4547831 1.0698153 0.9952051
dit -0.65039575 -0.5779058 1.1429462 0.14547727 1.0880202 0.6394218 0.47745374 1.6694453 -0.34430373 -0.8102992 -0.3112651 -0.52074957 1.3846681 1.2910101 0.38724685 0.5383779 1.3954316 0.47873017 0.10224888 -1.6886404 0.8446403 1.8796881 -0.35446173 -0.5597438 0.35117447 -1.8656001 1.5160004 -0.90651506 -0.2328946 -0.87053436 0.41458845 -0.6441425 1.4504465 -0.18933512 -0.69397205 -0.6292598 0.5132539 -1.6929947 -0.5165398 1.4265026 1.0294334 0.3785423 -0.1661586 -0.19715708 -0.7455557 0.0103461705 -0.097203895 -0.029532526 0.76049614 -1.1568418 1.6519666 -0.3882476 -0.25974807 -0.8552574 0.16248825 1.2961011 0.62265575 -0.9961406 -0.2212505 -0.23927976 0.60530996 -1.5726634 0.7124108 1.2488365 -0.14141443 -1.3088943 -0.7326385 0.19998403 -0.30243403 -0.54113495 0.22788534 1.2708071 1.8872709 -2.142687 0.6326274 -0.19826077 1.3540205 -0.320456 -1.0808239 1.4915779 0.42545626 -1.2670258 0.69943124 1.6691129 0.8091269 1.5476375 0.8424658 0.44804373 0.22537145 -0.14762288 1.9335232 1.0231104 1.2219546 0.11218394 -1.6662631 0.7635136 1.6356192 -0.62755877 0.7015704 2.3379004
fernand -1.3885429 0.063758984 -0.011506505 0.73959476 -0.40132132 0.0065375287 0.1351679 -0.6032503 -0.06406605 -0.42496324 -0.810056 -0.8578233 -1.6615343 -0.5872628 -0.61245054 0.02666018 0.19033992 0.7802721 -1.9994678 0.89875764 -0.9425528 1.4430305 0.7393896 -0.46386293 0.20440169 0.1666854 -0.013832811 0.27234727 1.0282111 0.5088125 1.0376135 -0.51120454 0.0065523908 -1.0025079 0.57354254 -0.295236 -0.64734995 -1.9112535 -0.5666688 0.04965737 -0.47782665 -1.481961 0.75479144 0.43348855 -0.23597606 1.8900224 -0.10562983 0.52051467 -0.22899678 -1.0661247 -0.40115967 1.5979034 0.2223395 -0.9879425 -0.9007225 1.1169567 0.110716455 1.3443452 -0.5447641 1.495765 -1.5136176 0.1952411 1.2183856 -0.10309237 -1.1515744 1.7640488 0.4888416 -1.8855908 1.1776901 -1.3143085 -1.2247291 1.3763597 0.048548825 1.5727943 0.9486662 -0.020888992 0.6467782 -1.4126399 -0.25954992 0.05765956 -0.24981296 0.538602 0.7361016 -0.63081574 1.258528 0.30282825 0.94267327 -0.8322467 0.56536347 0.0514394 -0.88332933 -0.80802035 0.71402526 0.27681416 1.6492445 -0.60112935 -1.996111 1.4867244 -1.0741959 0.051665112
elle -1.2169297 6.6189095e-06 -0.16669783 0.7783177 -2.2904177 -2.2841048 0.47607455 -2.5732484 -0.16493118 0.37148416 1.5283971 0.15411568 -1.7531273 -0.789858 -0.5900713 1.7296824 -0.5448739 1.786835 0.53215057 1.4719894 -1.2856174 1.1350781 0.17283124 -0.37340316 -1.9265385 -1.2924615 0.21883613 1.137899 1.4529427 -0.88766545 -0.21912688 0.8304447 -0.14235148 0.2661336 -1.7140337 -0.7087972 0.48758397 -0.34635136 0.83745617 -0.28956905 -0.72848755 0.7070349 0.3412755 -0.5090911 -0.36646667 -0.22862983 0.5929602 -0.69945884 -0.3111716 -1.2407396 -0.43722388 0.36756313 0.40219507 0.6803876 1.1411564 1.1606058 -0.09793689 -1.6958168 1.6236382 -1.109436 1.8709229 -0.6517138 -0.0227009 -0.3430978 0.10266053 1.4607764 0.67326945 0.5515793 -0.6532452 -0.1332764 1.17861 2.1066055 -0.18288538 -1.6956934 -0.4351851 -0.07986958 0.2360354 0.114694536 -1.3079039 0.8171362 1.8930221 0.13470362 0.03910662 -0.57130295 -0.21439514 1.2924181 0.11817719 -1.1382607 -1.2549304 0.032662332 -0.7744943 -0.9409588 0.64397436 0.113051325 -1.463972 -1.557964 -0.123525366 -0.11865037 0.7366622 0.2391807
cela 1.6773137 0.9413448 -0.3118756 0.9605142 -1.2351378 0.9670388 -0.65819454 0.41495475 -0.4345759 -0.067923255 -0.9484321 0.27229536 -0.22786152 0.77533907 -1.2686971 -0.18891428 -0.8306472 0.38957718 -1.1718552 1.127889 2.0336006 1.5803508 -0.41509068 -1.9001461 -0.8521373 1.7044257 0.41087902 -0.78203565 0.5347834 -0.81973976 1.9415045 1.2593772 -0.6939199 -0.04177804 0.1977376 -0.4137889 0.41951224 0.61519086 1.9253719 1.2841188 1.1780818 -0.34282827 -0.6124833 -0.39207855 0.3984176 0.6324377 1.1173539 -0.34836283 -0.2077342 0.4446574 -1.9402723 0.60129 -1.0642667 0.07967259 -0.10870924 0.27508625 2.0928187 -0.10805471 2.5708232 -0.5900241 -0.035468537 -0.0045972914 1.4266014 0.94192654 1.2109407 -0.055272564 1.0537126 -1.7173328 -0.20516945 -0.6149986 -1.5013319 -0.13612509 -2.2411964 -0.014559128 0.105596304 0.32096866 0.9985272 -0.033720545 -0.5537531 0.68553144 0.39060825 0.14091016 -0.5272733 0.7843647 0.4003211 -1.0724967 -1.3317646 -1.3286616 -2.2000458 -0.45084235 -0.81252515 1.2863688 0.22076854 -2.11973 -0.027830612 0.9857217 -0.0922267 -2.0197914 -0.59212226 0.5837829
? 0.19237134 -0.53949606 -0.81526285 0.81810004 0.25112918 -0.165673 0.1209341 -0.2657376 0.26514834 -0.13298915 1.0831603 -0.69390416 -1.8196222 0.26139194 -0.73867625 0.088036306 0.46177194 1.6431947 -0.47091416 0.5608297 1.3528501 -0.57743335 0.5145115 0.4581803 -1.5882015 1.0881257 -0.43291295 -0.7894448 -0.2220919 -0.3958052 0.39838362 0.5290208 -0.80860406 0.9957984 0.70181435 1.0279084 0.87800485 -1.5856315 -0.61151576 0.0016473047 0.7088283 0.33064497 -2.0192306 0.07237379 -0.33991644 -1.3233199 0.0357089 0.22985493 0.123066485 0.8797619 -0.8017156 0.9671556 0.42303932 1.2239747 0.104015484 -0.7878878 0.8698687 -0.43397138 0.829129 1.4910523 -1.1643981 -0.30884063 0.5023402 -1.7217906 2.3889687 0.05013536 -0.9817734 -0.8921885 -0.12582932 0.37762782 0.52722067 0.28022185 1.883149 0.92504025 1.18196 -1.1102549 0.7385106 -0.95628464 -0.90781873 0.4394431 -1.2688067 -0.8216287 -0.4724016 -0.35092527 0.92269135 0.10930616 -0.65197045 -0.2190634 0.023175636 1.0758036 0.266511 0.17965268 -0.124700755 -0.7977552 0.6088164 -2.6268365 -0.18513308 0.8191565 -0.04090287 0.17712267
— 0.500095 -0.21062325 -0.24565372 -0.745572 -1.4742341 1.9707304 1.0310764 -1.107935 -0.03184177 -0.20928061 2.4247928 -1.1548291 -1.9300673 0.76057935 1.347326 0.27870435 -1.0954547 0.1897179 0.8485864 -0.50653327 0.2552691 -0.34202126 -0.084388204 1.666047 1.013769 0.8811414 -0.22556168 -1.084792 -0.69921714 -0.36948943 -0.030557869 -0.24722825 0.94366825 0.19633819 1.4042461 0.98777103 -2.0876753 0.36440453 -0.15821743 0.08203683 0.081015125 -0.47390455 -0.97577566 0.5398733 -0.1959101 0.8799964 -1.5123292 0.3007431 1.6240482 1.6528145 0.42144704 1.5761402 0.6423343 0.24290372 0.82812035 -0.6354928 0.19475079 0.6590182 -0.7604485 1.0807502 -0.3813711 -0.03303523 -0.18102819 2.3791656 -0.60678715 0.046086915 -1.1361724 1.2122852 0.6309096 -0.80028445 -0.1571547 -0.2716204 0.830081 -0.6079157 0.1881951 -1.2185252 -0.98080283 -0.23822306 -0.017700791 -0.115310885 -1.4730452 0.7247617 -0.12723044 -0.67341393 1.209856 -1.0157449 -0.60498255 -0.46210313 1.5476266 1.359324 -0.75046045 1.294295 0.55814403 -1.0326409 0.99971443 -0.16332424 0.3196327 -0.9940923 -2.422456 -0.045120426
ah -0.20196198 -0.52084744 -0.3870783 -0.86928964 -0.48507223 -0.3624982 1.2682599 0.03391266 0.41605234 0.83845973 0.07624101 -0.15966631 -1.1828865 1.1339669 0.11294589 0.71572465 0.2335096 1.7588779 1.0813715 1.3473713 -0.58224297 -0.10373651 -0.3665623 -0.10539902 -0.58828866 2.2486398 -0.9151387 -1.5137595 -0.24014488 1.0605897 0.44296658 0.19372971 -0.19013268 -1.8994364 0.29545963 -0.5501349 0.56777525 0.3442556 0.039398592 -0.48873124 -2.7006247 0.19667412 0.9319142 -0.23292135 -1.2895465 -0.7582936 0.8409367 -0.6053136 -0.42220554 0.6585464 -0.4726641 -0.57549286 -0.5502067 0.5937255 -2.0069008 1.5338317 -0.09947036 0.66303486 1.962519 1.391255 -0.21592328 0.02124484 0.90473956 -0.6163331 0.52439123 -0.913725 1.3119535 1.5068587 0.2682455 0.5977372 1.2844131 -0.7354465 -0.93416834 -1.6110792 -0.10831236 0.70033944 1.2875789 0.59761107 -0.9365147 -1.6556425 -2.6047661 1.6619948 -1.6159497 0.36866203 0.3684059 -1.6993884 -1.2492296 0.8945568 1.6098523 0.15915906 -0.57218564 0.7856658 2.3121455 -0.8064724 0.7962622 0.12383717 -1.1346575 1.4686776 1.4875963 -0.90676683
! -0.11381481 -1.6827592 -0.72947913 -1.1426071 -0.032869957 -1.4945949 1.1922266 1.299769 0.43912402 -1.656069 0.28049767 -1.168975 1.513765 -0.34749195 -1.009803 -0.11847172 1.6015693 -1.5172372 0.15948972 -0.066147745 -0.4787499 1.5767639 -1.0920353 -0.3249845 1.416714 0.16310124 2.299392 0.857667 0.21520717 -1.0838704 0.42200938 -1.4665382 1.4836936 0.99710524 -1.9852743 -1.3656528 2.254034 -1.2533748 1.3707981 -0.15304397 -0.6896396 -0.8439706 1.5113919 -2.8853285 0.29888964 -0.90175813 -0.89858115 0.9171265 1.2036611 1.5050501 -0.4587024 -0.5958992 0.1758621 0.2661034 -0.42209908 0.57880855 0.484861 0.7673007 0.48899004 0.47455406 -0.018640168 -1.7845042 0.2685427 0.24334079 0.51503426 -0.9340276 0.506934 -1.1946708 0.8863971 0.3199999 1.0814536 0.28565338 -1.0518514 1.6206673 1.1129162 1.7306386 1.327533 -0.9058377 -0.44360578 0.62316144 0.4526699 0.16774032 -0.79152334 1.4879122 1.2200196 1.3119237 0.40110493 -2.443726 -0.84807724 -1.2176806 0.68985546 0.21455893 -0.2905622 0.8197972 -0.37433916 0.41555724 -0.3466359 1.6853311 0.47665232 -0.9101674
est 0.4179148 -0.68270624 0.20265348 0.59532917 -0.25430435 0.9687952 -0.59363264 -0.4869089 1.242457 0.067235515 0.31382918 1.196569 -1.0591116 1.8864508 1.5901487 -2.859911 -0.07457747 -1.4424629 -0.1568675 0.68486786 0.18289585 1.0536673 0.14892906 -2.0941446 -0.5102913 -0.7856526 -2.3423665 -0.96299684 0.31548172 -0.6658133 0.19226724 -1.6972111 2.2746985 -0.4222303 1.3545207 -1.6322827 1.4248329 -1.1295387 -0.64353055 0.3189907 2.2581651 -1.2823756 0.1614434 -1.5571389 -0.779975 0.362341 -0.5990778 -1.0619856 1.0713506 -0.6964099 -1.0718758 0.42198148 -0.7408085 0.8183541 0.82658964 0.72981215 0.45522976 -0.515169 1.5295088 -0.53889173 0.53875047 0.5287873 -1.4080144 0.16556433 0.12363319 -1.3826851 -0.3653649 -0.56614596 1.4829798 1.4741684 1.6465719 1.5634042 0.93095094 -0.55472463 -0.55729353 -0.377759 -0.4535617 -0.32120368 -1.4278315 0.49958122 0.14642291 0.44565737 -2.2998729 -0.7162223 1.3186474 -1.5309743 -0.62985325 0.88850933 0.68231046 -0.76043564 -0.34166682 -0.51510435 0.8525189 0.5613399 0.11249305 -0.14656046 1.2286011 0.35873938 -0.95838696 -0.3724661
mort 0.33011743 -0.1528634 -0.31453726 -0.93790025 -0.9474599 1.3119471 -1.4316795 -0.28071648 0.89811116 -2.1304393 0.64519405 -0.4257671 0.48049054 -0.25610635 0.91549754 -0.65790576 0.58316755 0.2063067 -0.5339231 0.718668 0.08817543 -0.38843712 0.2578529 1.3691636 0.73163277 -1.8171855 -0.36578462 0.47302783 1.3320477 -2.4799027 -2.0930312 1.2113652 1.0286882 -0.5989989 0.5299879 -1.2907947 1.1770684 -1.240143 0.22647062 0.09184721 -0.52374893 0.42296442 -0.21583857 0.16606352 -0.2652456 0.61255026 0.64637256 -0.30898616 -0.35726035 -0.8519261 0.5954832 -0.20294887 -1.4997516 -0.0067092814 0.62042505 -1.0567896 0.35904506 -1.424811 -0.59703434 -1.5087031 0.48834026 0.12817116 0.40312412 -0.9531394 -0.04014928 0.34761375 -2.027587 -0.39032647 0.9176838 -1.2320368 0.0332491 -0.90679914 0.5618484 -1.4334098 -0.7417777 0.9130492 -1.2876568 1.0966516 -0.87136513 -0.011364348 -0.5571065 0.13648914 1.4207884 -1.3340665 1.2888113 0.24957724 -0.50824153 -0.02374807 -0.40196997 -0.72922957 -0.989415 1.1818645 1.1944262 -0.9097163 0.6687168 -0.96058893 1.564575 -0.14863166 -1.6509687 -1.0444524
je -0.6488206 -0.64431745 -0.1051231 0.9222624 -0.17398101 -0.55806696 0.3031833 0.103589565 0.51325375 0.693145 -0.1759347 0.000753209 0.2771323 -0.1981874 -0.8984426 0.73145664 0.29241064 0.4130092 0.23966879 -0.25630212 -1.228516 -1.0558301 -0.82965904 0.40204307 -0.12533364 1.0194219 -0.3424775 0.89702487 -0.071045734 0.0035426486 -0.5579346 -0.76131 0.61249596 -0.517143 0.40721625 -1.2426254 0.9182046 -0.08619517 0.47930035 1.4953885 0.30028537 0.027291965 0.504426 -0.7385899 2.5740333 0.11886038 -0.94429666 0.5837154 1.995841 -0.29818612 -0.29398432 0.29893595 0.24544355 0.52363336 0.6506159 -0.4807145 0.36277047 1.6519312 -1.0422021 -1.8649638 -1.4353845 0.40691006 0.69161195 -0.48188853 -1.3386337 -0.51694506 0.2539758 1.5668044 -1.9119352 0.3784119 -1.0278904 0.59914136 0.508265 -0.058806095 2.0686955 -0.5175546 -0.7824191 1.3415778 0.20873104 0.27691612 -0.55974084 -0.5573828 -0.9526336 -0.011883769 2.0449195 0.34282288 0.533537 -0.6911091 0.014293387 -0.08794368 -0.58951634 0.15922019 -0.31845614 -1.5947253 -0.056387775 1.0390123 -0.7045471 -0.41420713 -1.3751246 0.3084604
non 1.698699 -0.42102093 0.10080083 0.38317123 -0.9987238 0.74396735 0.9500167 1.9336731 1.2510679 0.066728614 -0.422846 0.06424829 0.1998933 0.23333836 -0.0029991833 1.1739943 -0.052950285 2.0665393 -0.29626596 -0.352068 0.08681434 1.7881478 -0.70704186 1.0823561 0.68629783 0.47525534 -0.95427555 0.57831913 1.5907738 -0.6736391 -1.4818902 -0.89700353 -0.58105266 0.057868045 0.17857043 -0.6440205 -1.1361479 -0.6563618 -1.1483209 -0.8179333 -1.1616995 1.4766694 0.49506974 0.22513162 -0.22965638 2.185821 0.24817228 0.6964798 0.809826 0.44704244 -0.8727931 1.1892669 0.3367217 -0.4833402 0.7224125 1.9207697 0.8467282 0.32120448 -0.6414203 2.1713107 -0.19872831 -1.5144305 -0.25483236 0.30718303 1.0565283 -0.38189614 -0.4784917 -0.20665486 -0.5881544 0.086264715 -0.024125699 -0.52257776 0.6072576 -0.1002239 0.5075989 0.15737121 2.06848 -0.40325734 -1.9588693 -1.0163931 -0.04425288 0.3365011 0.562028 -0.1702752 -0.6135222 -0.7151133 -0.08602125 1.0419501 0.46163726 1.7463673 -0.8100129 0.0016242787 0.19865432 1.150027 -1.0687724 2.4640112 0.19904798 0.0078078927 -0.84681505 1.3279538
pas 0.73782253 -0.24248473 0.4587459 -0.96269226 -1.4271288 0.32165167 -0.9576647 -0.77853286 2.4063265 -0.6698903 -1.0126495 -0.014653757 0.90755934 -0.21190567 -0.3300783 0.57226455 -0.09083071 1.5266141 -0.40832666 0.1766547 -1.5854788 -0.65808016 -2.1373768 1.2460093 -1.3382896 -1.3543451 -0.5553532 -0.70804065 0.445785 -0.4470594 1.4934083 0.17741317 0.3743878 -0.048418257 -0.50036377 1.0400165 -1.3142455 1.5020008 0.4004739 -0.06508071 -1.8496634 0.4024877 -0.05517991 -0.9839509 0.12630236 1.0670247 -0.6038301 -0.2627609 -0.24434534 -0.19559622 -1.2358035 0.31051275 -0.58580977 -0.26353434 1.014655 0.34921607 -2.0486014 0.55347925 0.4188331 -0.30920666 -0.35718042 -0.1638368 -1.5149148 0.15360066 1.2004831 -0.07118106 -1.0411491 0.053980626 1.596539 -0.74818665 -0.08379735 0.9734935 -0.71531296 -1.2431194 0.7279325 -0.29759863 0.5370506 -0.27741745 -0.2051179 -0.8040177 -0.40937045 -0.04950796 1.3731484 -0.51996505 -0.31529906 -0.3675182 -0.9518777 2.1928144 -1.0261455 0.05009058 -2.4688737 -0.750165 0.21848491 1.2982893 -0.046189275 0.47423798 -1.0472401 -0.80651134 -0.99575067 0.1027803
moins 0.7926555 0.020472776 -2.3101246 -0.029722482 1.2060554 -0.5780084 -0.2042268 1.0285288 -0.3606298 -0.22566094 -1.1281551 -0.5724265 0.024853505 1.3135923 3.1944466 -1.4668458 -1.3060325 -0.060154296 -1.3513851 0.17610307 -0.25503284 -0.76884776 1.5428498 2.0010886 0.17509009 2.528001 0.5841243 -0.023957504 1.9894147 -0.48705405 0.33502334 0.29136464 -1.9320875 -0.45179412 -1.0288268 0.88928884 0.69817674 1.2681392 -0.48843408 -0.23312926 -0.9669761 0.20316172 -1.003444 0.41763386 -0.5089786 0.26448655 -1.4308124 0.12308358 -0.5150136 -0.7419849 0.7897546 0.63057375 0.7350371 0.07115978 -0.38908467 -0.06039451 1.0044221 1.2472969 -0.90269744 0.6286494 -1.0004051 0.4227294 -1.393865 1.2961684 -0.87362885 0.2952503 0.62088215 -1.7454832 -1.3692566 0.032209553 -0.9600241 -1.0158849 0.7565927 -0.3996305 -0.63298863 2.1480598 0.95364046 0.19437297 1.4783016 -0.37388515 0.14939675 -1.64425 0.4716554 1.4822773 0.51630217 -1.5942459 -0.607077 -0.055159383 0.6595701 -1.085382 0.3259858 0.1544407 -0.29507315 1.2747262 -0.47400507 -0.45609722 0.13530248 1.1103245 -0.8496638 1.2575742
monde -0.034769397 -1.2190973 0.267565 -3.1498616 -0.4000802 2.2090042 0.12658875 0.5264025 0.21899875 -1.6484381 1.2869439 1.219252 0.13270941 -0.94207925 -0.97357124 -0.5540637 -1.9506128 2.1333477 -0.48158425 -0.09000686 0.21734521 0.9037419 1.3946371 1.4965029 0.18118303 1.6705333 1.9802802 -1.0488302 1.18791 0.2047597 0.8820893 -2.199283 0.1487331 -0.20095359 -0.9414252 0.18579863 0.86747277 -0.50657004 -1.2129922 -0.5332795 1.6587288 1.0591596 1.0519698 0.5708228 -0.4509638 -0.40791023 0.73318464 0.5074761 0.737776 1.1305935 -0.32378387 0.92628455 0.86998 -0.59463847 1.8239335 -2.3459325 -0.7584367 -0.647575 0.4502128 0.21188608 -1.8218651 -0.59801394 0.75307643 -1.279313 -1.0187455 -0.3372876 -2.1360662 1.8148254 -0.60599136 0.18133108 0.14181614 0.08664382 2.181415 1.0199323 -0.60425484 0.2414593 -0.4441867 0.5672099 0.014481156 0.74422854 -1.4362619 -0.20506342 1.1738095 1.0752207 0.16639723 2.5980139 1.2329471 0.8367957 0.58277535 -0.56935585 0.08556785 0.09148244 -0.4207108 -1.0499909 -0.70619303 1.0890377 1.0141888 -0.6105388 -1.9883504 -1.3138692
ce 0.018339768 -0.3819905 -0.80157053 -1.5588467 0.9870703 -0.35219496 0.3154533 -1.2867295 0.8569149 -0.2794111 -0.047481608 1.0860196 1.1915817 -0.3262624 1.0681754 1.2412721 1.9490753 0.1738622 -1.1125067 -1.1367475 0.280956 0.123684235 0.74779457 2.0364997 -0.12058475 1.1904473 0.19232383 -0.20177247 -0.5715223 -0.9124489 0.19106287 0.7541263 -1.2981324 1.2247565 0.37911835 1.2114717 0.4944107 -0.5497244 1.66886 -0.06727043 -2.0480616 -1.4136992 -0.18815619 1.1038878 -0.48544928 -0.30737498 0.9962941 -1.3691137 0.72587174 -2.8611872 0.19045258 1.788719 -0.89653176 -0.3491188 2.1029518 0.13063806 0.9515224 -0.8859333 1.1291891 1.5800543 0.93450296 1.5772861 -0.6015671 -0.79264194 0.016855843 -0.08612831 -0.04112541 -1.5490339 -0.012128135 -0.9225347 -2.0288806 -0.44113883 0.089749336 -0.3880742 -0.026752852 1.5784519 -0.751297 0.63729715 -1.682051 0.34021607 -0.3804655 0.78422964 0.0064974437 2.21708 1.1691774 1.9182839 0.75775164 0.7112757 0.7843956 0.07583141 -1.8575484 -0.4646602 0.06208898 0.9172963 1.2639422 -1.0372119 -0.75054234 -0.36252397 0.8727282 -1.0768428
que -1.1035424 1.7914767 0.2340948 -0.04092435 -0.23234661 1.2644291 -0.11961462 0.619263 0.05852113 0.71397954 0.6017884 -1.3683814 1.9289713 1.1079696 -1.0641857 0.07264666 1.1887892 0.1339711 0.29415283 -1.0947989 1.2100892 -0.13191964 -0.39048478 -0.20943609 0.46638924 -0.7819242 -0.16881485 1.2864703 0.21320161 -0.95272493 -1.719672 0.41107526 -0.16442543 1.4949516 2.505815 0.20676151 0.43891013 -0.599592 0.24841869 -0.43998477 1.2929859 1.1932735 -0.368386 1.0194436 -0.8298539 0.9844432 0.89421785 -0.4175024 -0.068028726 1.0993826 0.64571804 -1.2962265 -0.86433774 -0.7865457 -0.79657364 -0.32217816 0.65800655 -1.5787004 0.24107876 0.5604224 -0.74917144 1.4409703 0.18812752 0.28736797 0.9236266 0.22459657 0.59913534 0.24608716 0.20456168 0.17259507 -1.8554 0.08323479 -1.3481667 0.02015318 0.23124325 -1.066664 0.75593346 -0.8873729 -0.5489654 -0.38781148 0.2559869 -0.25437394 -0.09004763 0.9176178 -1.4194925 1.3370961 -1.8244396 -0.8776091 0.31970552 -1.4063466 -1.3894387 0.25071606 0.08212423 0.5433967 1.59827 -0.17164177 0.7226847 -0.6250835 -0.913983 -0.44840807
ne -1.0266318 1.1818867 -0.8009962 0.5255248 -0.27120933 -1.5738565 -0.24358703 -0.5606082 -2.51417 0.5755473 -0.26387638 0.9155909 0.99682885 -2.1006298 -0.67672044 -0.40276232 -0.2014269 0.90600026 0.25896856 -0.6343985 0.15942812 -0.6055383 -2.1273673 -0.19450155 -0.1810689 0.6501048 -1.5979156 -1.5294526 -0.24334772 0.19085221 -0.41969153 0.57558084 -0.5765619 1.0385271 -0.570263 0.1010349 -0.8639259 1.1770432 0.030685358 0.56793606 -0.4355772 0.95265865 -1.9368551 0.7849094 -0.38820666 -0.566765 0.5157508 0.083931416 -0.65831524 -0.40523362 0.5802324 -0.021826241 0.8066899 -0.36451754 1.1371628 -0.2606554 0.45712614 -0.02305375 1.0556617 0.2623624 0.26599398 0.28605 -1.1880758 0.17280027 -0.2547091 -1.225172 0.30392095 1.5895369 0.19391444 -0.7957337 -1.3468196 0.41255257 -0.956467 -0.3908264 0.10836501 -0.55924493 0.16754998 -0.9031891 0.21745278 0.74759436 -0.6742188 -0.5681605 -0.44438165 0.41897228 0.6450459 -0.84665215 -1.2675339 0.44552958 -0.18196945 0.3617759 -1.0166429 0.19144201 -0.97573644 1.4667588 -1.5608013 -1.3426892 -0.27636483 0.49454927 0.44913715 -1.2175652
tout 0.28381786 -0.14753401 -0.81662196 -0.050530918 -0.09084155 -2.2765722 0.0315628 -0.07880238 1.3512524 -1.342721 -0.9872368 2.4766462 0.32048222 0.3320993 1.9341944 0.73862696 0.05189858 0.3458677 1.0495963 -0.34522954 -0.6885031 -1.526704 0.5693455 -1.6596026 -1.0468336 0.61227393 -0.5052481 -0.4228529 -0.84809077 -0.36460173 1.1468977 0.13991241 0.72787994 1.8329206 -0.26716954 1.8402103 0.5081678 -0.3449829 0.1960769 -0.41644403 -2.1739893 0.96015203 -0.9519447 1.0185553 -1.5601287 1.0350443 0.4691013 0.32579303 -1.4250637 1.1943766 -0.070826136 0.41901428 1.2969979 -0.33666584 -0.62961286 -1.5853858 -1.3898066 0.58733267 0.3444329 1.4408656 -1.7294378 -0.06421104 1.1805879 -0.5468342 0.45035663 1.3773706 -0.3032256 -0.54438233 -0.51155955 -0.053807963 0.77347934 -0.28178445 -0.62826604 -0.7076674 0.94306767 1.7103115 -1.5222728 0.58335537 -0.0023439834 -0.2118099 -0.94606626 0.16579296 -1.5344213 -0.16593097 0.39984378 -1.1046059 0.5654397 0.15402864 0.66314435 -0.23088583 -0.8140824 -0.11831044 -0.57730305 -0.4858989 -0.08593337 -0.58709365 -1.1594867 -2.5384686 -0.87397665 0.83311206
vous -0.4193565 2.2897992 0.09487575 0.6359874 0.12642305 0.43874222 -0.4396535 1.6513402 0.13538767 -0.23829165 0.97743183 1.7297783 -1.0120707 -0.5740074 -0.64372325 -1.6951475 -1.4456732 0.6508792 1.2817266 -0.6934764 1.9140725 0.0813715 -1.2136894 -0.7741628 -0.21724084 -0.46039462 1.3468044 0.8783949 -0.24884084 0.50140524 -0.8019045 -0.04317926 0.6393328 -0.42333853 -1.0396305 0.9919459 -0.7921206 -0.3517792 0.7380853 0.037961666 -1.5651989 -0.28988805 1.54473 -0.29383862 1.1010562 -0.11390633 -0.67633736 -0.43868738 0.33873096 0.61629283 1.3646467 0.37849975 1.4119381 -0.12525499 -1.0021697 0.26027662 1.6891036 -0.049837355 -0.07620296 1.850703 -0.17477769 -0.6907811 -0.5621149 -1.6537148 -0.62487024 0.4709054 -0.9759135 -1.860161 0.104193985 0.016529229 0.17620663 0.05709223 1.7649698 -0.6736546 0.06944677 -1.105266 0.46559095 -0.72685736 0.08966997 0.6773363 0.4216314 0.55805266 -0.61537343 -0.24649695 -0.39816546 0.9312527 -0.4622459 0.6121386 -0.8901882 0.32518208 -1.089539 1.4009615 -0.19187778 0.24961558 1.1247122 -0.99318045 -0.94926953 -1.438308 -0.49326316 -1.0502537
être -1.4888642 -1.2410637 0.5238805 0.37626508 0.18829125 0.45423338 1.6567299 0.08432566 0.27830815 -0.5824004 0.38361746 0.6595981 -0.29881597 -0.07855724 1.233868 2.1386406 1.225242 -0.18274346 -0.4248629 -0.17147025 0.7478104 0.3112464 -0.7497432 -0.48315704 -0.34029105 0.040574312 -0.7242641 -0.3395288 0.1145109 -0.023347221 1.1141213 0.63261664 -1.5404181 1.2400646 -1.0449413 1.0422176 0.050916858 -0.058665246 0.02402134 2.8609698 -0.23468505 0.44688785 0.0013369918 -0.80681247 0.21651945 -1.7101846 -0.23137897 -0.073774576 1.2752328 2.33762 3.6231449 -0.18797801 1.583756 0.93151647 -0.61974806 -0.69606036 -0.13318862 -0.18343627 -1.0029188 -0.92473096 0.5555726 -0.037667446 -0.04955458 1.4947412 2.198067 -1.5418786 -0.041496266 -1.3350743 -0.9295667 -1.3874749 -0.3048356 0.12092584 -0.35801804 0.1872606 -1.0602366 -0.19159469 -0.66525793 0.31989646 -0.3187244 0.87094057 1.010074 -1.1682184 0.9058825 -0.457129 1.1617748 -1.0689696 0.008181877 -0.04796764 0.31928515 1.7591994 0.90428287 0.43046993 -0.55924135 1.3203477 1.1820035 -2.023883 0.97952807 -1.4351699 -1.058334 -0.6555232
si 1.4764967 -1.6276429 0.43730143 -0.0705799 -1.2356682 0.9792054 -0.16444951 1.1931766 -0.25492042 -0.6831362 -0.5591637 -0.86144936 -0.33476293 2.3651266 -1.2598405 1.574466 -0.5226661 0.3411732 -0.7898282 1.2217338 -0.55151755 -0.15131544 -2.4230194 -0.47316453 -1.3810533 0.42394692 2.0280244 0.09383884 -0.4427251 -0.62707835 0.07495092 -0.2908046 -0.947558 -0.5880778 -1.7999403 -0.396954 -0.07324168 -0.5337551 -0.008780748 -0.8404396 1.7873836 -1.7092693 0.04707789 -1.3315346 1.2565498 -0.109700635 0.2487809 0.6035858 -0.55626386 -1.4204825 0.68419874 -0.4184829 -0.27309123 0.13896641 0.9163684 1.8284743 1.7256043 0.29043585 -0.89564955 0.61493254 0.19873294 -0.56310695 -0.112176895 0.7659805 -0.28285068 -0.87362623 -0.47791883 0.32438463 -0.2377068 -0.007068999 0.93015975 -1.0134221 0.28996024 -0.58231187 -0.104039885 0.31105506 1.0820981 -1.4322871 1.2075431 0.4850116 -0.20623414 0.091895126 0.13144472 0.3799588 -0.8230434 0.06923203 0.4085414 -0.13738315 2.6703446 -1.0209875 -0.30852807 -0.3463616 -1.0957551 0.62223566 -0.5115271 0.9107866 0.92774415 0.012713492 0.16161704 1.1327975
chose 1.9969579 -0.15115815 0.9204736 0.23447502 0.23890825 0.50383896 -0.9903138 -0.5797451 0.35986844 -0.024177402 -3.2598336 0.33890358 -0.6650073 -0.77462983 1.6459191 0.67669374 -0.11241923 -1.4294496 2.4976063 -0.34768242 1.172997 -0.29378363 0.954253 -1.4801971 -0.40258774 0.31568575 0.3680793 -0.35143742 -0.046613775 1.8511562 0.40000126 -1.060835 1.1227362 -0.15878156 -0.1446689 -0.3670771 -1.609602 -0.06312759 1.0986339 -2.0422225 -0.43423647 1.4994571 1.0814762 -0.24383026 1.766687 -0.1773294 0.42564824 -1.0578247 -0.38174868 -1.5071596 -0.081915006 0.8137166 0.78227854 -1.2669048 -0.7544057 -0.34353864 -0.6430204 0.23732173 0.6408853 -0.29553097 -0.33780593 -0.10920687 -0.79862815 0.8065766 -1.0375266 -0.14337164 0.42453048 -0.7740734 -0.87822616 0.510227 -2.339108 -1.3491611 -1.2346841 1.7289344 -0.07302501 0.43166393 -0.36530292 -0.025552282 -0.45008832 -0.70318216 -0.33324835 -0.73632187 0.09925759 0.54343045 0.266111 0.1441805 -0.7017914 0.7544757 0.083340846 0.7442287 -0.829578 1.5460628 -0.49341303 -1.4469043 0.06009896 0.597355 -1.6157742 -1.5960068 -0.04844518 2.0663865
en 0.61871856 0.5025283 0.4826483 -0.3047154 -0.46552378 -0.82407564 0.01623642 1.5911378 -0.50254077 -0.24622387 -0.9809338 2.2690372 -1.1831852 -0.8635266 1.0453991 0.5980946 -1.567991 0.84724975 0.7238422 -0.046320565 -0.6808536 -0.31581214 -1.626135 0.16082871 0.18109672 3.1118977 -0.093612075 0.1689665 0.4982904 0.5016575 0.27282047 -1.2902923 -0.2750575 -0.2869988 0.6583116 -1.1247809 -2.398663 0.2785541 -0.24985203 0.6101953 -1.1431968 0.9115309 0.21609804 -0.4051847 0.02620771 1.1102303 1.4694626 0.9025292 -1.5741401 0.26330525 -0.9362772 2.5826325 0.19848362 -0.32777977 -0.7782808 0.6287513 0.052665904 2.285016 -0.36815298 -1.3093557 0.17798845 -2.2204957 -0.12645932 -1.7769407 -1.3955438 -0.36120683 -0.60236764 -0.12515458 0.28127965 -1.3852776 -0.14681374 0.22243348 1.904543 -0.17353691 -0.44990686 -0.8299996 0.18543889 0.28726327 -0.25047484 2.3446994 -1.3277451 1.2778212 -1.0235507 -1.1760685 -0.59870934 0.007995814 -1.8946052 1.8240223 0.6385011 0.9684494 0.6813504 -0.25306726 -0.7115335 -0.7161118 -0.8688401 -0.056225475 -0.3602184 -2.2587073 -0.034344748 -0.07496836
mon -0.4411953 -1.1812172 0.9243251 -0.24273536 0.87747526 0.5160144 -0.59801835 -0.17541447 2.0697098 -0.71538186 0.2598999 -2.0027852 -1.2665348 -0.9469623 0.2306324 0.33946744 0.1704695 1.933462 -0.17651017 0.50700015 -1.2307065 -2.0078144 0.3473322 1.0041099 -0.3249176 0.114261 0.5154195 -2.210563 -0.82038456 0.7645769 1.1939898 1.0080872 -0.39517206 -1.2139838 0.61206543 1.1012671 0.30055457 -1.5108161 0.45069888 -1.2429104 0.31273833 -0.8395817 -0.3637522 -1.3669789 -0.762335 -0.20762801 -1.2647069 -0.41185102 0.24164268 -1.077934 1.9045933 -0.593313 -0.24437574 0.9918832 -1.8314307 -1.8741063 0.81994754 0.3480717 -0.75751835 -1.437305 -0.1139812 -1.9348977 3.2478588 -1.7880263 -1.4644396 -0.45288602 -0.10359435 1.2493821 -0.4651231 -1.5595373 0.6716368 -0.08134098 -0.2988346 1.3274218 0.23478831 0.2277213 -1.8984618 -0.8642918 -1.9824083 0.3726308 -1.9156346 -0.13940856 -0.9345386 0.66524214 -2.4517953 1.5399247 -0.6386718 1.1551117 0.18145834 1.037489 -0.0014081923 0.18972759 -0.2853389 -0.82283586 0.4673064 1.0976824 -0.8117113 0.8631727 -0.22173846 -0.16128176
pouvoir 2.0320835 -0.3799313 -0.391626 -0.43740046 0.72266406 -0.5914952 0.8895692 -0.3032975 1.3259523 0.29026 0.562942 0.9056525 -0.11166556 0.7517109 -0.89583296 -0.48360422 -1.2021807 -0.65529007 1.0889511 0.11290729 -0.68957317 0.6655048 -0.43112355 0.36736226 -0.15706453 0.46625793 -0.16870672 0.16996667 0.95481586 0.6250512 0.7217149 -0.16295084 -1.3251295 0.8353315 0.72373396 0.042672962 0.24347311 -2.8803034 2.46728 -0.80683327 0.20969586 0.21211673 1.0002648 0.20699286 -0.33030966 -0.5887557 0.1908122 0.6572561 0.55360335 -0.38629428 -1.3900689 0.79150605 -0.50800455 1.5135968 0.83979756 0.8825558 -0.42231762 -0.38462374 -1.1677607 -0.5028329 0.19456673 0.50227046 -0.58954436 -0.5263738 -0.06769329 1.5264283 -0.9423887 -2.3058314 1.5247172 0.41401273 -1.59312 -0.9995319 -0.015933797 0.077205956 -0.85924023 0.15803353 -1.1659136 -0.5671678 0.5177034 -1.0857382 -1.2892996 -0.18253128 1.398449 1.17648 1.9243457 -1.2131373 0.17517416 -0.9086453 0.21675897 0.1194442 0.2428606 1.0829302 1.1225034 2.1805305 0.18728751 -2.6990118 -0.39316207 1.0095527 0.6926483 1.4171715
demanda -0.6237459 -0.50612175 -0.1882837 0.35420963 -0.32834756 0.93968546 -0.9798363 1.1391863 -0.77270436 -1.7018874 -1.2550601 -0.29914907 0.9969528 1.0093025 -0.16286434 -0.5005134 -1.0138417 1.3056989 1.5093809 -1.3095605 -0.32773477 0.6521218 1.1516538 -0.40839574 0.5710219 0.4614559 -0.041603886 1.2616329 0.42420936 1.5774771 -0.3762172 -0.18017974 -0.26795772 -0.99401194 0.37237483 -0.9019124 0.30113238 0.56079787 0.7422911 -0.19132903 -0.69700503 -0.8399459 0.3565388 1.4725897 0.080569796 -0.056103706 1.7683129 0.24944906 0.5682915 -1.9772588 -0.3424623 0.8913324 0.50602645 -0.03657539 1.2935702 -0.5239473 -1.448555 1.0236635 0.51492083 -0.0075973347 0.818928 0.5834107 0.272988 0.2501551 2.871206 0.46186838 -1.1059192 0.29314187 -1.1395001 1.2943069 -0.9596437 0.04612768 0.14136656 -0.039058916 -0.9803443 -0.07938823 1.2472538 0.7608605 -1.2076668 1.9134151 -1.1346976 0.76574683 1.0256982 0.74285436 0.4180758 1.6944349 -0.4867184 -0.1935895 0.40313298 -0.39139196 -2.4035935 -0.68538874 0.68857116 -0.5448736 -1.4134022 -0.4112834 -0.064647235 -0.29980695 -0.38038334 -1.468631
ainsi 1.0092653 0.15410948 -0.24513379 2.0720952 0.22619383 0.9366273 -1.3752916 -0.60802305 0.77343655 -0.9045503 -0.45291668 -0.92844415 0.97549874 -0.60339874 -0.50584173 0.53211033 -1.2960548 0.42476773 0.3085951 -0.3771119 0.4614307 0.8679415 0.12223884 0.94222003 -0.6313745 1.4075615 -0.6916103 0.21941073 -0.9486716 0.4105516 -0.18816207 1.0161371 -0.8127886 0.07896755 -0.1816035 -0.40452856 1.1543653 -1.772923 0.7491402 1.540494 -0.83072037 0.13704944 -0.9028064 1.2251453 0.32216033 -1.522878 0.6373866 -0.7342703 1.4220167 -0.6431827 0.0013947412 -0.14062436 1.1287175 1.4253836 0.37048534 -0.031608988 -0.3084241 -0.08964074 1.516834 -0.57512856 0.5194084 -1.4026567 -0.44497907 0.7774748 -0.20371427 -0.10115628 0.61857396 0.75188315 0.45314682 0.9129477 -0.62829614 -0.6402605 -1.0569404 0.8010395 0.19758122 0.26391885 0.3144207 -0.32235146 -0.40381384 2.6565456 0.06654647 -0.37777174 -1.8529854 -1.1963975 0.87463194 0.8915949 -0.20037124 0.75749594 0.3982663 -0.7495786 -1.0893071 -0.19731024 0.92035425 -1.329253 1.2196554 -0.15103714 -0.6606804 0.14497997 -0.56742 1.2310178
continua 0.52267003 -1.0683404 0.2724652 0.80430716 1.0760633 -0.012345526 1.2477196 -1.8074754 -0.6516689 0.9153034 -1.2005621 1.6391016 -0.23542349 0.69515896 1.1519397 -0.83733326 0.9330512 0.74774075 -0.2635141 -0.7957517 1.4411074 0.09101665 0.167479 -0.2880502 0.02051752 -0.6400945 1.4106605 1.0459721 -0.121836245 -1.644249 0.28717676 0.061638206 0.5836562 0.2631712 -0.07652914 2.2214954 1.5971476 -0.48466003 -1.0970703 1.0116386 1.732611 0.7855325 1.0746195 0.3674931 -0.1969693 0.11075501 0.5651328 0.45084512 0.45007694 -0.9594653 -0.50250345 -0.67105097 -0.6924628 0.917134 -1.6534257 -0.8300924 0.8137328 -2.0589054 2.2731125 0.2890738 -1.8333632 0.23549895 -0.82519406 0.39147735 -0.63112116 -0.16858861 -0.011198156 0.2822483 0.65712404 -0.2343081 -0.07594985 0.8329003 -0.47260088 -0.6088544 0.47656956 -1.7077812 -0.58979917 1.0988847 0.741584 -1.5375615 1.7795858 -0.1324835 -0.88896835 -1.5994614 0.6450751 1.3509496 0.12245129 -0.33421496 -0.9771168 -0.8843041 0.1216652 1.0737365 -0.58047247 -1.1910737 0.15230243 0.04167168 -1.5031776 0.826658 -0.9996719 -1.0813756
anglais 1.780985 1.0410231 0.008104782 -0.2664904 -0.25772524 0.14735776 1.2230049 0.5201072 -0.84197074 -0.15646237 0.1779765 1.3488989 0.35419807 0.19662398 0.14357245 -0.49213648 2.3627105 -0.29078344 -0.059203953 0.33712134 -1.7481538 1.9739801 -0.54928946 -1.8177806 -0.59580415 0.2275158 -0.8995655 1.3186533 0.32359672 0.45340112 0.21065937 0.4987 -0.26624212 0.61726075 -0.92789346 2.2728524 0.9048217 -0.00889685 1.1243396 -0.5882952 -0.46203163 -0.1107905 0.30634266 -1.3450739 -1.3976507 0.6102158 0.018825885 -1.5936923 -0.57754004 -0.9402404 0.59787637 0.3189334 0.18006453 0.087456234 1.5134146 0.7600955 1.8137584 -1.2527927 -1.7593243 -0.63943434 1.0617808 -0.13376741 -0.6111835 0.038520977 0.7661542 0.39520946 0.78263927 -1.1182871 -0.000114220195 0.6046624 1.691701 -0.17821176 1.0375527 -1.6143857 -1.052839 0.92844635 1.0435547 1.2401184 -0.5083935 -1.0357844 -1.5741218 0.34343708 0.96355444 0.7654865 -1.0366921 1.1903237 1.2123212 -0.807961 -0.33357233 -1.0007142 -1.1896006 0.920888 -0.024058383 0.009614864 -0.11653766 0.38988054 1.751664 1.3324436 1.4699793 -1.258501
reprit -0.5990518 0.16802527 -0.8504489 0.6033912 0.2827823 -0.3240001 -1.3682741 0.20562828 -0.5994527 0.029884063 -2.4219365 -0.80768687 -0.52683675 1.0408428 1.169609 -0.58749056 -1.4958917 0.62655425 0.9503387 -0.2916602 -0.20080312 0.5800461 0.33124 -0.3148846 -1.9434791 0.2892363 -0.20625462 0.50225013 0.5556106 -1.0167547 1.4131107 1.7950747 -0.20206387 0.6842682 0.8891253 1.7593921 0.036573097 -0.5051002 -1.6429285 -0.8129207 -0.14372338 -0.3013707 0.98516 0.11732565 -0.42505845 1.024326 1.8784217 -0.74019694 -0.051013142 -0.57803893 -0.4126582 1.0574914 -0.45177794 0.43171507 -1.0416812 -0.43961936 -0.9840751 -0.37323338 -0.25808573 -1.4551646 -1.9506446 0.039827738 0.64193684 1.4403454 -0.60572374 -1.2605244 0.688962 0.62025076 0.08304612 -0.46930182 -1.3963627 -1.5420083 0.9184678 0.13617326 -0.69108003 1.0677401 0.75530726 -0.039614156 0.66301227 0.04467872 -1.1578535 2.6336308 1.2114205 1.0122523 -0.008486843 0.47618496 -0.31478345 0.23704441 0.358628 0.1541116 -1.4659481 0.6015502 -0.17692792 0.025145113 0.93965846 -0.21184401 -0.93387115 0.074194536 0.19654366 0.08976592
- 0.39020523 -1.3443506 -0.6430372 0.32655513 -0.96740633 0.7247998 -0.83626103 1.5173033 0.37653425 2.1194196 -1.0536447 -0.18188846 -0.20844528 0.19740325 -0.4214982 1.860193 0.66707367 -1.8806133 -0.37209728 0.9087404 0.63015383 -0.59982914 1.5698892 -1.1639113 0.9046753 -1.3003519 -1.491531 -1.5060995 0.50593925 0.033519603 0.44372454 0.4438653 -0.95402277 1.103944 -0.088470966 0.4831366 -0.3802907 -0.11190859 -0.64156663 0.4297196 -0.17215072 0.5532543 0.0069325007 -0.43023083 -1.0038683 1.6722506 1.5194787 -0.075340606 -0.91339636 0.7503188 0.10918173 -0.8394285 -0.2803079 -1.1332078 0.18364172 0.21467435 0.09818022 -0.60506773 -1.0013673 -2.0798273 -0.072700396 0.47282264 0.035619605 0.04360816 -0.5800894 0.4655959 0.7793028 -0.28482875 0.17302966 0.015517658 0.3665777 0.17532808 -1.0845014 -0.5216146 0.06963231 -0.3296212 0.33121184 0.4786033 0.062409595 0.1938008 -0.5494484 1.7296984 -1.2552075 0.77060246 0.58800954 0.20603403 -1.5006604 -0.53861177 0.49483156 0.7084014 0.6741937 -1.3837613 -1.3537827 -0.18922448 -0.33796316 1.8713136 2.3511155 0.44945732 -1.5003798 -0.70691216
fut -0.00043096766 -0.6494259 0.18105319 1.6782293 0.8438746 0.7924723 1.0659579 -0.086327314 -0.47761807 -1.6966696 -1.355152 -1.2550482 -0.40639398 0.21672297 -1.5887432 0.45763254 -0.5054618 1.0807623 -0.28185096 0.6715106 -0.30263683 0.947503 2.0341809 -1.8793141 -0.60416156 -0.70885396 1.797047 1.1187347 0.740834 -0.52921844 0.23332208 1.6410766 0.1183068 -0.83622473 0.89190847 -0.9460939 -0.20902355 -2.7378387 0.33951122 -0.66694814 0.8650285 -0.360562 1.2281872 0.25097427 -0.32614455 1.411758 1.4311153 -2.1896832 0.47233024 0.19125938 -1.9063147 0.5237648 0.011912905 0.486917 -2.0362532 -0.27514726 0.9792026 0.8072555 0.7199276 -0.22365126 -1.8373625 -2.0434132 0.08336745 -1.1055975 -0.537812 0.5198592 0.2202948 1.6266068 0.9265021 1.2410952 -0.74960935 0.47835785 -1.3115357 -0.60542816 0.8658474 0.29521358 -2.0274205 -0.83690405 0.43500653 0.18915503 -1.1181924 1.051042 -1.5974476 -0.13587198 0.95054644 -0.12248056 -0.69113404 0.28950942 -0.29218027 -0.66923773 0.020874038 0.55637914 0.1665938 1.336652 -0.4222288 0.5912363 -0.42272353 -0.9186547 -1.0142454 1.0070356
hôtel -1.5406517 0.25362074 -0.46990234 -0.6984647 1.6190599 1.5625532 -1.054691 0.056641176 1.6876979 1.4566395 -0.18469201 -0.08290816 0.9685263 -1.0929892 -0.1443609 1.8194855 0.8960399 0.3081868 0.53152716 -0.9019601 -0.5233369 1.9053779 0.5087024 -0.692545 0.10125469 -0.21378945 0.040874787 0.36009964 -0.17328921 -0.24023312 0.65375304 -0.14921266 -0.6756377 -1.2701865 0.36063278 0.04598455 -0.8028774 1.2680964 1.0453796 -0.14133233 0.5434045 1.1643192 -0.08035476 -0.63602227 -0.11552271 -0.61661094 1.5100634 1.0102649 -1.1868945 0.28061306 -0.74980074 1.3658781 1.7993152 -0.3598858 0.249779 0.15483183 1.4199027 -0.4221091 1.8741646 -0.7743266 0.3813428 0.4723148 -0.26579252 2.4973762 0.20888302 -0.6331578 1.6111494 -0.49712116 -1.0769969 -0.2705176 -0.12429659 -0.20129722 0.06861325 2.1360939 0.50075233 -1.8503809 0.79780644 -1.3505546 0.2489934 1.0818139 -0.047282405 -0.31862792 1.4318657 0.12633657 -0.61322355 -1.6796446 1.7260315 -1.0584465 0.049083717 -0.15517198 -0.50032955 1.79227 -0.31557655 0.33194578 -1.1615582 -0.22313553 0.6253372 0.6663117 1.4528887 -0.28421476
franz 0.6124614 -0.56336164 -1.142663 0.028630273 0.8479846 1.1413299 -0.22236411 0.51182526 0.37243304 0.013869211 0.4296869 -0.69532156 -0.5482699 -1.7558709 0.9001428 -1.2534375 1.1017756 0.34907204 -1.3205886 -0.039357163 0.27600056 -0.914353 0.9232574 0.9449121 -0.11079073 -0.22643092 0.7663164 0.9194094 -0.15153985 -1.7188389 1.5251436 -1.0737653 -0.6593058 0.81436014 -0.037850805 -0.14820376 -1.2151474 0.58716506 -0.83778 0.8365734 -0.9808252 -0.32702178 -0.67113376 0.03610262 -0.058851976 0.03221433 0.09086339 -0.49952912 0.09514357 -0.3454546 0.17469871 1.2542075 0.8209936 0.28411672 1.6840602 1.0232103 -1.523392 0.98203516 0.62681973 0.11073959 0.42181122 0.88504994 -1.5565767 -0.30191746 -1.8078481 -0.26278442 0.34406355 0.2202475 0.42084512 0.6842818 0.026839733 1.4340664 0.91108733 -0.0141604785 -1.2161661 1.0021117 -0.41659093 -0.15044081 1.1738186 -1.0280116 1.2365444 0.18335035 0.05364856 -0.18490037 -0.07739821 1.1727574 -0.6896369 0.6788245 0.28874335 -0.60917413 -0.39971465 -0.27395338 0.888872 -1.999098 1.0217009 0.74052787 -0.8098312 0.29734945 0.5476023 -0.021545557
vit -0.81667805 1.7755051 -0.9196661 0.7898129 0.9445929 0.015353911 0.5684229 0.407809 0.66871107 -1.0965765 0.5992039 -0.6774546 0.681236 0.37113032 1.2281686 -0.09303548 0.0894894 0.2974624 -1.1843209 -0.763636 0.064888045 -0.7237201 0.031792995 0.57956237 0.21683367 0.5416283 2.5161376 1.1500788 0.6756049 -1.289186 1.9483907 -1.2521645 -1.346692 -0.06558347 0.7614131 0.07908382 -0.5084265 -0.498428 0.6108487 0.65578145 -0.41654342 2.4893887 1.0382011 0.13970509 1.4545838 1.4281607 -0.56077236 -1.1375815 -0.6926051 -0.31149584 -0.65268993 -0.5021225 0.39963534 -0.24381766 1.1449199 1.0401251 0.33649242 -1.0442233 0.4470614 0.15265281 1.147384 -1.8853496 -0.9863257 -0.16503073 0.051871456 -0.66662467 0.56079876 -1.2992947 1.4834692 0.35669017 -1.7925341 -0.28045753 0.010125298 0.08469577 -1.8403522 -1.0960171 0.54891 -3.0719006 0.6712205 0.87072176 -0.53727674 1.7139969 -1.5428694 0.20257859 0.7994274 0.24228771 0.027833436 1.5942857 -0.17459457 0.12474764 -2.083655 0.06347971 -0.3846373 0.09470078 0.925094 -1.5923074 -1.018844 -0.44738927 -0.50417495 0.03316648
homme -1.4185523 0.38718712 -0.33159974 -0.65409756 -0.17274117 0.14659734 1.4512548 -1.2705904 0.929924 1.865308 -0.33243054 -1.356561 -0.32423303 -0.5027958 0.57565135 -0.3948939 -0.059848897 -0.17811002 0.5904095 1.5132475 0.488292 -0.74615514 -0.76156944 0.40079057 -1.4698887 1.6300367 -1.3491197 0.69082284 -0.5651685 -0.99649453 0.83296126 -0.6442606 0.8564152 -1.3172387 -0.066684306 0.8523184 1.2660819 0.36303362 -0.5969062 -0.34030423 0.860923 -0.3372523 -0.61367947 0.15500389 0.09153931 0.22146717 1.2862436 -0.24158558 -1.1621547 0.8159921 -0.45324057 0.29508564 -0.27333608 0.99114525 0.3336011 1.1047311 2.2199736 -0.2665559 -0.23903896 -0.052909046 -1.0312443 -0.34512597 2.104173 -0.94002545 -0.9856496 0.7114393 -0.51240855 1.1887563 2.0017934 -0.9351872 0.7457246 0.393033 -1.1724067 -0.9145136 -0.2994095 1.6636225 0.18999182 -0.36700216 1.1542556 1.0560948 -1.6933227 -0.6924139 -1.1334479 0.05109076 0.4316457 0.19790503 -0.4807994 -0.46910787 -0.33242384 -0.46571314 -0.35045218 1.170555 -0.06568173 0.20620944 -0.32702383 -0.2142148 1.3160365 0.4269186 -0.090504736 -0.7519515
debout 2.1407514 1.2125131 0.28961098 -1.6956627 0.8171044 1.0157379 1.355388 0.7698981 0.6164718 0.3514636 -0.08380628 -0.43909323 -0.49045375 1.3916404 1.4094881 -0.3557621 1.7029504 -0.37364513 -0.82845974 -2.6385016 -0.19134097 -0.94901603 0.5025613 -0.841282 0.53755856 -1.5046512 -1.4383383 -0.1715385 0.74007756 0.11112239 0.31758386 -0.38082707 -0.90470237 0.7575517 -1.0428451 0.016651448 0.488634 0.41436443 -0.7021149 1.3522743 -0.53734463 1.9787129 0.4244702 -0.073664576 -0.29276332 -0.46213293 -0.5506971 1.3064525 3.7618535 -0.12741746 1.2846134 0.9653187 -1.8956116 0.56057656 0.88250506 -1.0632868 -0.17086679 -0.58627564 0.21990803 -0.11272674 -0.97281027 0.08498329 -0.25601584 -0.25754476 -0.9502867 -0.14424872 0.0007333495 0.31877956 0.5861642 0.23083279 0.12262177 -0.99983716 0.49888426 0.48047784 1.2717965 -0.079968266 0.42710733 0.9973557 1.216264 0.03535548 1.230366 -1.6528322 0.3528148 -0.40315393 0.14609581 -0.3426856 1.731851 -0.5339108 -0.92485607 -0.949444 0.13060033 -1.7869043 -0.19500071 -0.82695186 -1.0997341 -0.6827948 -1.3296268 -0.18838303 -0.7242781 0.7177979
au -0.36030832 -0.9896997 0.010769267 2.710908 -0.43888456 0.48234642 1.2531904 0.67330545 -1.7441655 -0.669317 0.10136938 -0.67089367 -0.8538037 1.0453885 -1.097922 -1.7715343 -0.98368627 0.33328363 -0.00046282075 -1.7202551 1.1930915 1.0794191 1.2519635 -1.5332727 -1.7514141 -0.38348597 0.7513501 0.7812637 0.6523634 -2.6631842 -1.9069321 -1.038033 -0.6252234 -0.32217783 -1.0960848 0.25630316 1.4748776 -0.3306632 -1.1917171 0.2797839 1.3545426 0.53411037 2.191496 0.570785 0.4915675 -1.7279407 -0.040751778 -0.44656178 -1.8723823 0.8726107 0.9348149 0.32175684 1.5807453 1.3433622 0.58205634 -0.14045514 -0.9034096 0.024132762 1.2615924 -0.8282708 -0.67042446 2.9030612 -0.95031965 0.14747779 0.7117125 -0.6476808 0.17815718 -1.2763017 1.5287973 -0.31641912 -0.9394517 0.8820237 -0.8503538 -0.59010375 -1.1780728 0.20559376 -1.5548446 -0.54153997 -0.19978927 -0.93390733 0.89661336 1.1636591 -0.3585333 0.19581477 0.67360526 -0.4218783 0.2693317 1.4640257 0.2726849 1.6216779 0.58362156 0.59696436 1.4323672 -0.26831692 -0.55750954 -0.49907833 -2.286875 -0.46917132 0.16878416 -0.4754689
milieu -0.920927 -0.15492706 -0.38936713 -0.29425305 -0.77569246 1.1647284 -0.9963242 0.9416733 -0.99895936 -1.1070627 0.21547449 -1.1533824 0.9276965 0.7806455 -0.5315259 0.30202776 1.5734497 -0.25986868 0.16523725 1.5768895 -0.08066763 0.7940808 0.6381699 -0.50066406 0.41777855 -0.63873184 -0.7683242 1.9678277 -1.4758604 -0.23073022 -0.1257087 1.4679941 0.8861382 -0.8384044 -0.6803705 -0.13434449 1.3354183 0.3515417 0.17814079 -0.24842343 0.30850166 0.849053 -0.2594999 0.2593444 -0.039373852 -1.4358844 0.9950132 0.608675 0.20448475 -0.94567126 -0.29455352 -0.6416073 -0.5826661 -0.3957205 -0.68145025 -0.71509403 0.7545863 0.3374325 0.015769698 2.0155745 0.08953668 0.7838142 0.04909829 0.9788358 -0.107401736 0.061996493 -1.389409 0.4643601 -0.5343427 1.0535283 1.3038901 -3.0478225 -0.36828977 -0.5048896 0.9836764 0.58702445 1.8727535 0.93708843 -0.20716494 0.05645606 -1.1337186 0.11396685 -0.5677911 2.3050442 -0.35969734 1.585103 0.80705994 0.6371297 -0.5440481 0.55136913 0.2819362 -0.72733796 1.344254 0.9459952 -0.64382535 -2.2407072 0.018609077 0.38885757 -1.4915621 0.0826705
seul 1.7653122 1.3204261 0.14511038 0.9082837 -1.2130238 0.7631484 0.25130647 -1.4414729 1.8002416 -0.342212 -0.8088058 1.0220361 -0.6706302 0.16402778 1.2737596 -2.240123 1.1885805 -0.5489868 0.8926932 -0.82024485 1.111654 0.70894945 0.12076619 -0.2763694 0.6031391 -0.7622088 0.13833898 0.2450118 1.7736402 -0.008429319 0.54966205 -1.0587459 0.33065888 0.92017275 0.37388408 1.0793715 0.30156934 1.5293447 0.82945806 0.61029726 -0.8688482 -0.5685278 -1.1941565 -1.6662061 1.108692 0.8535942 -0.631559 0.30037123 0.7679189 0.014462344 0.18120885 0.8162887 -0.61152935 0.30995473 -1.5944852 0.32365996 -1.6686618 1.383272 0.99428856 -0.83963966 0.8514022 0.22055656 0.77790934 -0.1918252 -1.0468814 -0.05154728 -0.62526536 -0.8171689 -0.78196305 1.5078065 1.8208914 0.35574085 -0.14504069 1.0015168 0.29751444 1.1295733 0.9762588 -0.67242175 1.1463386 0.46688205 0.33521697 2.2271972 0.26250553 -0.41514197 -0.7032988 -0.19315752 -0.9051689 -0.5352763 0.18128663 -0.3003956 1.1746513 1.1485921 -0.032129735 -1.1965774 1.3647459 1.0799446 -0.028877832 0.048312828 0.8401206 1.0243702
instant 1.2757456 0.9169012 -1.5558842 0.26881737 0.13293275 -0.93036616 0.5874604 -0.44046366 -0.12144586 0.07518884 -0.29795444 -0.9174986 1.2681855 0.5510956 -0.8892774 -0.25819346 -0.8308236 -1.8943002 -0.3933731 -0.15713407 1.0986029 1.3053493 0.22707765 0.95337707 0.075148605 1.4696316 -0.17959872 -0.921533 0.45799828 0.031228326 -0.16753401 0.47563607 -0.18467212 -0.45661348 1.7245959 0.3332539 0.9905043 -0.2599843 -0.006620303 0.24278519 -0.86774486 1.390336 0.017012248 -0.58460295 -0.77233887 -0.09281543 0.48536235 -0.27673912 0.24611014 1.2845459 -0.14296348 -0.42750585 -0.45103326 0.7545792 -2.1859412 0.10513612 -0.9233237 -0.21579184 -0.6514901 -0.3069913 0.49653837 -1.1735517 -0.58361745 -1.3834243 0.81094927 0.2689283 0.07550746 0.14808646 0.3339066 -2.092248 -0.008689888 1.4783801 -0.7795215 0.025157824 -0.41728768 -0.97985667 1.453031 -1.3624783 -0.25618428 -1.419963 0.87129873 -0.22166759 -0.30381575 -0.9993152 -0.07320618 2.1169524 -0.7134288 -0.2770059 1.3280511 -1.2689894 -0.86387485 -1.5904237 -0.92173886 -1.1690701 -1.0242765 -1.4912268 0.9503876 1.2196211 -1.1278591 0.7606652
