480 100
<s> -1.5338025 -0.6103038 -0.24569461 0.57139075 1.7183135 -1.6823282 -0.2732146 -0.31847435 1.6332263 0.5280612 0.38790652 -1.4789288 -0.33726376 -0.9174368 1.5159005 0.71412486 0.10615234 0.42962408 -0.5678367 -0.0629377 1.232419 1.0954705 -1.1535326 -0.56545866 0.22486728 -0.12996791 -0.38173354 -0.73589385 -1.7667844 1.6455868 1.464368 1.49655 0.6249284 -0.8008238 -1.3593019 -1.544716 0.72149867 -0.8487076 2.3929534 0.16647305 0.81159484 -0.27057627 2.1168485 0.6022838 -1.6415111 0.54368436 -0.5555479 -1.5320437 -0.2609835 1.5702791 -0.77432775 -1.0811061 -1.921004 0.45599064 0.7399799 0.47428352 -0.48958355 -0.4848787 0.6385613 -0.6899074 -0.6716889 -0.93161136 -1.2267557 0.45675588 0.5468636 -0.052655865 -0.13767503 0.081592426 0.68513596 0.54872 1.0200496 -0.19964397 -1.3614507 0.46273735 0.91369575 -0.13858107 -0.87961954 1.1667804 0.64506406 -0.22534242 1.3642144 0.90173346 0.80573094 0.8948169 0.5430928 -1.2965506 1.4605637 -0.49109474 -1.3140709 -1.8418437 -0.08911803 -1.2296563 0.13154057 0.96225345 0.14963877 -1.0881163 0.6617901 -0.35601884 0.07133418 1.3357292
les 0.118168 -1.6523461 0.58806795 0.005452102 -0.10012905 1.8213046 -1.1241112 -0.37628883 -0.922895 -2.5896335 -1.2262918 -0.862877 -1.3967149 0.38074446 -0.30592358 -2.0856898 1.8635161 -0.5187413 0.12474662 -0.3651119 -0.73306483 -0.021153556 -1.1810524 0.23600866 0.39062893 -0.8848247 -1.1357645 -0.7601419 -0.4205606 -0.13293427 -0.24297786 1.0711143 -0.2796725 1.765216 -1.284725 -0.76809627 -0.19325863 0.8004329 -0.038492355 1.2838905 -0.8997926 -0.5074852 1.5394222 -0.32163215 -1.369953 -0.2662569 0.21364997 1.6081917 -0.0019263132 -1.6065416 -1.8332809 0.49030975 1.1424534 -0.20199926 0.33112878 0.38685882 0.56677437 -0.20959711 2.3354616 -0.6073881 0.2211122 0.7329632 0.26124182 1.1772008 0.6523508 -0.65222216 -0.024896009 1.0056899 0.64428574 -2.4982028 -0.32361627 -0.5688421 1.0094417 0.269058 0.72405654 -1.2583035 0.84608805 1.2363878 -0.5118162 1.8384652 -0.83497316 -1.1976362 1.9198791 0.090066284 -0.23313265 0.5577583 1.488822 -1.5439168 -3.050356 0.9795748 0.04307469 -1.4074633 -0.17663874 0.116932996 -0.02808902 2.3022525 1.2223233 0.65244764 -0.8433899 -1.3291588
sont 0.8290782 -1.1544626 -0.11625135 -0.4191537 0.013164175 -0.06475067 -0.36223748 -0.19090185 -0.02330245 -0.95490175 -0.42496547 -0.3795 1.3527929 0.045755424 1.439136 1.6590698 0.35584685 -1.82417 2.0883605 0.50820565 1.7236043 2.1724226 -0.46526954 0.8556582 1.4349084 1.348748 -2.0046701 0.36013892 0.5806828 -1.8072342 -0.043190077 0.13563113 -0.5345715 0.218268 0.256783 -1.1527861 0.93332046 -1.3425165 -0.53937817 -1.0479368 1.0250375 -1.2645866 -1.2195473 -0.46613717 -1.824425 0.46892077 -0.20128685 1.5826643 0.03939434 -0.40180022 -0.273216 0.56062114 -0.46157244 0.3835086 -0.81660527 0.78999263 -0.36618486 -0.7053439 0.11780844 0.17042758 0.8101095 1.783895 -0.26833907 -2.2388277 -1.6652555 -0.4872585 -1.3191525 0.13684154 -0.4462725 0.6377944 -0.1872033 -1.2563205 -0.4106352 0.56815046 -1.487633 1.1085514 1.1238996 0.2199921 -1.229121 -2.9113562 0.5346604 0.88685566 -1.241761 1.0101886 -0.16974059 0.46431234 0.59478503 0.32100394 0.19798014 1.1958896 0.6900533 -0.651088 -1.6607875 0.038077798 -1.4516978 0.71548176 -0.12526485 2.6609652 0.6713477 -0.016074236
pour 0.6113939 -0.6824811 -0.40728697 -0.9927772 -0.124022916 -0.88116336 0.40579265 -1.2431753 0.3143509 1.2860507 -0.06224313 -0.9724151 -0.71776956 -0.57165694 0.8455588 0.7834903 0.14922361 0.21870525 -0.057419807 0.5547167 1.0100683 -0.045974486 2.090039 -0.8654122 -0.13495006 0.31004876 -0.1566696 -0.16088706 -0.53760415 -0.74189144 -0.93683076 0.7943955 -2.4931445 -0.81410146 0.2529477 1.1544113 1.9786365 -0.3982105 -0.11320638 0.2839273 -1.5331732 -1.7970502 -0.26791865 -0.4299175 -0.6971348 0.1585748 0.21920775 0.13154556 -1.1583174 -0.02797154 0.38475883 -1.4893275 0.65865517 2.1099114 -0.8244006 -2.241841 0.46755123 1.1279967 0.61909866 -0.84512013 -0.879676 0.9251956 0.6734612 0.23818643 0.67579454 0.8681048 0.5470087 -1.1205443 -0.3812405 0.31368282 0.18990755 -0.05983304 -1.0177575 -0.6535999 1.2635431 -0.22113381 0.071004786 -1.223443 0.22678573 0.7611057 0.11330893 0.569588 0.06243772 -0.62149596 -0.6498754 -1.199304 -1.138687 -0.4449566 0.32368726 -0.28344482 -2.2679753 -2.023539 0.8668011 0.5870251 2.278911 -0.88560164 -0.32895792 0.56195784 0.38336682 -3.1504896
de -0.20315713 0.10203129 -0.614142 -1.3807956 -0.7353243 -0.6491641 0.20097658 -1.2122377 -0.66355336 -0.88796604 0.6813112 -0.27048895 0.32472184 -1.7832286 -0.1253634 -0.622186 0.59589136 0.4538618 1.8226074 0.9853991 -0.70870614 -0.75863034 -0.042877812 -0.7425064 0.7096935 -1.9105971 -0.62618893 -0.6798293 -0.36223418 1.478994 0.8458673 -0.33567524 0.20462506 -0.60053736 1.1085341 -0.92459947 -0.025445748 -0.16140775 1.3754922 0.22566953 0.97188014 0.5566358 -0.50225013 -0.05591 0.21138433 0.5045828 0.11705775 -0.78402835 0.60613394 0.34265137 0.31496698 -0.8985528 0.20948453 1.8046767 1.1529622 0.7023505 0.2862335 0.8889171 -0.36196667 -0.4544253 0.07448932 -0.17257118 -0.9295582 0.108911626 -0.84919643 0.04975646 -0.04337534 -0.095372535 -1.2426139 -0.097178064 0.41430166 -0.6428546 -0.02058959 -2.2651825 0.089151055 -0.19883487 -1.0633773 0.09283824 0.06553579 0.034068435 -0.49313864 -0.2830628 1.7180762 -0.29296547 -0.013000172 0.075229004 -0.7528913 0.25708446 -0.42240378 0.8624939 -0.08935297 0.13781619 -0.14962643 -0.6538728 -0.58239305 -1.4438744 -0.7620372 0.44760627 0.5763236 1.3531765
. -0.44859502 0.6232473 -0.58985406 0.9574688 -0.49130094 0.4162363 -0.39179018 -1.6645844 -0.62416744 -0.45334387 0.2951267 0.545422 -0.50287783 -1.5609453 0.5842607 0.65135163 0.014270004 -1.0584618 -1.5550503 0.9370394 2.438335 -0.090076834 -2.6969454 1.187452 0.01700399 0.9039013 -0.632889 0.22489162 -2.3037617 -1.5394471 -0.48023537 -0.048024654 -0.68405765 -0.5182329 0.7762773 -1.6724811 1.3744787 -1.2857989 1.6563538 -0.22382851 1.2774546 0.27620828 0.66768426 -0.47801548 0.2787244 0.57721716 -0.35974073 -0.03443757 -0.0037174858 0.024952807 -1.1335112 -0.7818268 -0.31885836 -0.38810042 -0.9258078 0.687071 0.41206583 1.2002882 0.39925689 -1.5831673 0.26745087 0.46081993 0.3966057 -0.14721109 0.46561322 1.2727793 0.84372056 -0.79963946 0.41198784 -0.79900444 -0.53313935 -1.4254009 0.9474898 -0.18252742 -0.9515212 -0.25669813 0.59423316 0.29864532 -0.008009151 -1.5982492 -0.9716559 0.058093425 0.08482573 0.2995618 -0.05609295 1.2532016 1.6702603 0.5842923 -1.8016264 0.21091682 -0.29479718 0.3571871 -0.075758435 0.7423675 -0.64549744 0.14767244 0.6407989 0.54993063 -2.179228 -1.6252869
</s> -1.6593832 0.23078984 -0.4436326 -1.4178873 0.7879419 0.20269562 -1.4209164 0.5061996 -0.07294447 0.9641681 0.682139 1.3204575 -1.3312955 0.48246986 0.32473895 2.3532665 -0.5676161 0.19545333 0.31826612 -1.1793591 -0.09552661 -0.52662164 1.1579748 -0.43463138 -0.56662977 -0.13519514 -0.69922835 -0.97071815 1.9588022 -1.2870011 -1.378212 0.14046225 0.8767542 -0.6060477 0.83630276 -1.3671558 1.9227796 0.42484874 -1.1171612 -0.46568394 0.0026140679 -0.9429006 -0.3038357 -0.2809487 0.45135048 -0.9015173 0.26724428 -1.5704376 -0.3771667 -1.2042781 -0.6255768 1.4322098 0.38102466 -1.0241007 0.49305236 -0.020042837 -0.0040192325 0.68670523 0.0053893253 -0.14062418 0.36174452 -0.50830483 -0.65165496 1.3824513 -0.46548527 -0.8614029 -0.1936565 0.032430943 -0.3419239 -0.597392 1.827763 0.71011615 -0.11550495 1.4837267 0.42120627 -0.88849247 0.0026460048 -1.4970956 -1.0145853 -0.5245619 -1.7398305 -0.6607306 -0.7936216 0.50647986 -0.73045605 -0.25587976 -0.42814392 0.1942998 0.01966443 1.4076331 -0.76415545 0.12874004 0.061158646 -2.1706738 0.08234066 0.05574358 1.625776 -0.5139695 0.8591601 -0.09389431
 0.25704563 0.8203547 0.16115989 1.0497465 0.20036924 0.9340552 -0.35355097 -1.3953208 -1.3554518 0.6450779 0.74589634 0.89217865 1.1854408 -1.4034401 -0.77987784 0.4696991 0.7793885 0.8047857 -0.020098612 -0.39547974 -3.730014 0.53613836 0.30507392 -0.56346446 -1.7548293 0.42973194 -0.12960209 -0.36793515 -1.1942474 0.10720648 0.054672807 -1.5514445 -0.30853492 -0.2133165 0.71553403 1.0831312 -0.6707515 0.37322408 0.9146097 1.4718585 0.51029855 1.2197326 -1.3149774 -0.87010866 0.43865708 2.4925253 -0.2909776 -0.6763507 0.41651106 -2.5547028 -0.55761707 -0.57959807 1.0283147 1.5351716 -1.9764569 -0.5095522 -1.0855742 2.0517862 1.618326 1.0543977 0.20646682 0.24795964 -2.4308589 -1.2817695 1.5649312 -1.0849931 0.85589606 0.59235287 -2.4732695 -1.0101655 -1.578385 -0.30677155 0.9122261 -0.96271265 0.59236395 -0.9847714 0.33733752 1.4098291 0.7390283 -1.1604253 1.3179897 1.3451172 0.6651288 -0.726851 -0.3571781 0.043651458 -1.7322968 -0.30685857 -0.4698545 0.60000575 0.47897258 -0.68332005 -0.28023824 -0.0039365776 -0.6198188 -0.10416822 0.9717974 -0.79980826 -0.09148128 -1.2461671
cependant -0.07352802 -0.41064855 1.4469743 -2.0549874 1.0487397 -0.7625228 -0.5758569 -0.27878 -0.41392976 -0.74544436 -0.54557765 -0.17253797 0.59874487 -0.11746757 0.3246581 2.2501996 0.45176566 -1.714216 0.97258306 0.48136187 1.5212553 1.7122296 0.08571576 -1.4118416 -1.6903116 0.18585826 0.35191086 1.718025 1.4850625 0.6160385 -0.7406462 0.3416308 -0.5851976 -1.6779052 -0.08149426 -1.0863242 -1.9510852 0.0032960065 0.18743593 -1.9647093 -1.6998929 0.048521906 -1.9650214 0.051588308 -0.863075 1.5260718 1.0822519 -0.13639337 0.07688251 -0.5558726 -0.41203654 0.9516973 0.39702052 0.8366007 0.9068868 -0.8798742 -0.12874548 0.26321733 -0.978953 1.3767165 0.18055502 -0.004008975 -0.4788626 0.6340895 -0.046039317 -2.5001388 -0.2884634 -0.89333177 0.6444698 -0.40065807 0.11571148 -0.4998878 0.12888439 -0.46823677 0.06972212 0.6974434 -0.8208329 0.12678616 0.4437369 -0.28521273 -0.5588638 -0.47652063 1.2327225 1.2005805 -0.54986346 0.549857 0.31709456 -0.22012414 -0.8799244 -0.33598757 0.44363248 0.2767412 -0.45333186 1.2266719 -0.54967135 -1.3840835 -1.3751224 0.26606 -0.31843227 -0.624136
, -0.9496747 -0.100381315 0.71358234 0.28342286 1.4447249 0.35659456 -0.0105833 -1.4949372 -0.88203406 0.45008504 -0.8773023 0.5276163 0.5548997 1.2438995 -1.6893413 -0.675347 -0.38717866 1.7545455 -0.6031853 0.011783436 2.0125024 -1.6603398 0.5822819 -0.27582216 0.6690956 -1.6260291 -1.7939711 0.43028396 -0.66396683 -0.5392772 0.23823331 -0.9088733 -2.2817266 -0.3379878 -0.34929037 -0.44878346 0.34054846 0.7890919 0.49032384 0.075608194 -0.92639536 0.1453481 0.3514871 0.93792915 2.0452628 0.84261465 1.3251686 -0.14759707 -0.9975034 1.0988212 -1.136799 -0.8958971 -0.25016388 -0.920884 -0.91337204 2.1239116 -0.630485 1.4882967 0.18059865 -0.45769626 -1.2208381 -0.5260146 -0.5195485 -0.8167459 0.63814497 0.042442784 0.3108725 0.1326547 0.35077104 0.91414285 -0.4803043 0.55307657 -0.72509176 -1.1623297 -0.9143111 -0.9417219 -0.71907985 -0.7229891 0.93246996 -0.763806 -1.5808244 0.1545721 -0.221278 -0.06429156 -0.3930177 0.4067158 1.4950672 -0.23134874 0.593698 -0.18608329 -0.083791286 -1.1104708 0.12322235 0.24037056 0.28234598 0.28213468 0.5523578 -1.2688267 -0.43120095 1.5868735
malgré -0.045159556 -1.3292694 -0.4331099 1.2462664 -1.1721234 -0.13415888 -0.9151813 -2.5291598 1.200588 -0.3314274 -0.11344789 2.3853571 0.07468276 -1.7709066 -0.20233887 -0.021279678 -0.649429 0.06456505 1.2867137 0.21736434 -0.08380608 0.474069 -1.0746969 -1.0537436 0.3275013 -0.14035968 0.019782037 0.6668081 -1.1774219 -0.3317616 0.9157894 0.43676764 0.07142421 -0.024410743 -0.03904131 -0.106240764 -0.3948075 0.3914542 -0.21966942 0.40216872 -0.21896394 -0.1301581 1.2543688 0.998402 -0.6795795 0.28807795 0.2211448 -0.65954465 -0.80984986 -0.54003215 -0.037745584 0.14756963 1.2984185 -0.8360215 -1.2568086 0.43463758 -0.03652945 0.94131815 1.4657848 0.776743 0.06372406 -2.1734245 -0.7370115 -0.70141405 -0.842986 0.26644653 -0.3800497 -1.5117644 0.29529965 0.55719626 0.75498354 -0.40111405 -0.8785451 1.5725714 0.37888032 -1.0601041 -0.22073767 -0.64136153 0.7098563 1.5193537 0.65304106 0.3246092 0.57810247 0.48695946 -0.2893861 1.5488415 -0.4819611 -0.3575643 -0.6309127 0.35510263 -0.23548666 0.42295137 -0.46430188 -1.168773 0.92893124 -0.0037877103 0.5044363 -0.4612529 0.070675775 -0.11325441
toutes -0.50280666 1.0939127 0.15429452 -0.21400602 0.03953299 0.5104908 -0.16799948 0.2596311 -0.5235883 -0.17325827 0.53234047 0.13608992 0.4672908 -0.2947169 0.032486018 0.71096146 -0.7108811 -0.08765738 -0.90430367 0.45702162 -0.29101878 1.9077729 -1.1785359 -0.11130135 -0.5446462 1.3332956 -0.09316713 0.40295094 -1.2043399 -0.2291684 0.091555715 1.1839858 0.5162923 -0.02089826 1.4372159 2.1930988 0.7086421 1.725102 1.1290505 -1.5997449 -2.6065528 -0.7113506 -1.0120158 0.92070454 0.71896577 -0.7317907 0.38139677 0.23355362 -0.58335745 -1.6115012 -0.5613744 -0.4900424 0.5137804 -0.72590846 -0.39809668 -0.87871253 1.1518193 -0.026685122 -0.373055 -0.7936504 -0.11763766 0.3259006 -0.47870022 -2.0872927 1.0921458 -1.3431997 -3.721199 0.59512144 -1.0531601 -0.965442 -1.0878994 -0.30423492 1.026849 0.077326044 2.1023204 0.53511417 0.31873438 -0.099045835 -1.0712849 0.8161529 1.8035467 1.3095002 0.36642143 0.15239182 0.5618692 -0.12227281 0.68428123 -0.5965037 0.9832943 -0.60906625 1.8514149 -1.1157422 0.020709686 -0.7287547 -2.341188 -0.64762545 -0.615454 0.19598775 0.17763582 -0.01863822
s’ -0.50642985 -0.57547474 -0.53010064 -0.49814954 0.4524904 -0.11151745 -1.1501333 0.13686919 0.26836658 -0.17728838 0.69612134 -1.9141699 -1.7104573 0.36009878 -0.3422803 0.9684083 0.77269304 -0.32680163 -0.5515713 -0.78407323 -0.19470766 -0.71103656 1.284112 0.0064634234 1.1639953 0.3054235 0.4818026 -0.68291414 -0.36175972 1.7100825 0.85141885 -0.48789683 1.2903082 -1.0440525 0.4798508 0.37134773 -2.9123213 -1.2649711 1.4685353 0.33038157 -0.83176017 -2.01854 0.08693786 -0.53320897 0.06411638 1.5852349 0.7179188 -0.5263055 -0.11069524 -1.966762 0.47056922 0.114232555 0.6596126 -1.5100628 0.34042266 -0.69523245 -2.9783278 -1.2654517 -1.925466 -0.28044856 -1.2301217 1.1145742 0.5696675 0.16427064 -0.9880265 0.76247174 1.2644157 -0.29871827 -2.2342844 0.4608927 1.7697852 0.43461472 -0.7055727 -0.95574856 -0.90513635 -0.6701749 0.10098842 -0.8107697 -1.4725974 -0.7569143 -0.44388974 -0.68938005 -1.1937128 -0.8322463 -0.94965476 0.43842784 -2.0573552 -1.4975346 -1.3208191 -1.0545695 -1.5068231 -0.5052656 0.565498 -1.077104 -0.35746363 1.6313705 -0.08403507 0.60651743 0.6496747 -0.53564584
il 0.19312987 -0.7554215 1.6263878 0.04844326 1.6415595 -0.7191971 -0.47912621 -0.8345271 1.8725464 -0.27290815 -1.0171804 -1.0592173 -0.5861581 0.5877556 2.0912898 -0.8591821 -0.4293589 -1.2228332 -1.1546135 -0.6306074 -0.85776067 0.024282768 -0.50921273 -1.062501 0.06655942 0.22878112 0.515935 -0.47854707 0.9445098 1.1032276 -0.69660056 -0.3512775 -0.1323429 0.8003508 1.4707673 1.051092 -1.0113224 1.1761459 -0.3384194 -0.010446131 0.049069334 2.0270774 2.0527263 -0.27977446 -0.7045007 -1.173721 -0.5655103 1.3658158 -0.16075978 1.3524649 -1.7774878 0.81081027 0.9190114 -0.9417236 -1.8370284 0.04365166 0.90278256 0.66233087 0.9959736 -0.035980914 0.17634599 0.16166809 0.27919286 0.45134646 -0.049604677 0.19450754 -1.2311788 0.2177841 0.54202104 -0.4838059 1.3403639 -0.40596253 -1.0122491 -1.3160683 1.1079912 0.3351641 -0.14424947 1.2890294 0.58587164 0.39636505 -0.3001609 -0.024037138 0.9444862 -1.423349 -0.022135131 -1.1170042 1.1444416 -0.017821047 1.2855223 0.039334677 1.3311555 2.5113673 0.501372 0.8717391 0.680264 -0.6001984 -0.5083217 -0.43149048 -0.25817996 1.6754194
fût 0.60061824 1.7077833 -1.1452842 0.7693692 0.38162118 -0.2477668 -0.178675 0.69795454 -0.5038271 0.7616491 -1.131558 -0.33828488 0.33664665 -1.3234773 -0.5913248 -0.73107874 0.8774138 -0.3940852 -0.17262451 2.0220623 0.62016445 0.9812702 -0.32860717 1.5697988 1.0936167 0.087447315 -0.22696826 1.231184 0.00029775966 2.456537 -1.1388841 1.138888 -0.69623506 -0.025819173 0.68633014 -0.06703706 -0.23851658 0.64745545 1.0417255 -1.6838621 0.65250206 0.94947374 -0.29546267 -0.1423698 -0.70457447 -0.71940124 -2.2525167 0.3081174 -1.9223088 1.3556486 0.23907763 0.7130719 1.0342852 -0.38791355 -0.43520188 -0.64683414 -0.78875804 -0.41908717 0.3503196 -1.0115942 3.074364 -0.5847525 -0.23218624 0.97350794 0.64383674 -1.2019404 -0.0024124086 -0.42620224 -0.27123278 0.030564457 0.55317557 -0.009475328 0.95326346 -0.52509904 -0.925784 -0.6717728 1.7255185 0.035853893 1.2736857 -1.5783465 -0.2037773 0.8474118 -0.5297228 1.2303809 -0.27731946 -0.069468535 -2.0205889 -0.062354848 0.2057348 0.348478 1.2333992 -0.67652416 0.54720056 -0.34881267 -0.4749096 0.62286973 1.454232 -0.5032298 -0.65792596 -0.3435795
à -0.5061262 -0.21629788 2.1724644 -1.3080118 -0.43735826 -1.7869568 -1.4715497 -1.8145723 -1.0779568 -0.009876748 -1.2627845 0.11152827 0.14816037 1.3927271 -1.0820034 1.0598997 -0.94053614 1.1930096 -1.4700615 0.17308064 0.031499613 -0.057239227 1.6901319 -0.05079921 -0.30212903 0.9734075 -1.274871 -0.031474605 -0.09758744 2.5364494 0.5127938 -1.2941744 0.17027473 0.32945508 -0.45361647 -1.415768 -0.22746179 1.6911998 -1.5409167 0.42496434 0.813468 1.1248173 1.4730052 2.9425306 0.27155408 -1.7416002 -0.5018136 0.26908118 0.84813726 -1.25718 0.013390906 -0.9766321 -0.9033856 0.52707 0.08970811 -0.14125694 -1.338086 0.8217019 -0.11307269 0.64524275 -0.73662573 0.23314923 -0.06780993 0.7260558 0.056907505 0.5757659 1.5074419 0.22999954 0.348377 1.5089943 -0.20202188 -0.16066915 -0.1772712 0.47846052 0.5409183 0.14499809 -0.21793705 -0.31153256 -0.67827386 0.51915133 0.1638436 1.1620395 1.912563 -0.49798203 -1.2399886 0.2614311 -1.2267369 1.652539 0.15693393 -0.19847454 1.2496296 0.4873424 0.5540587 0.11112869 2.036137 -0.70395887 -0.32923913 -1.3528284 -0.696769 -0.9401679
son 0.36137825 0.16674753 -0.23590957 -0.3393424 -0.63568646 -1.1540948 -0.85422456 1.9289756 0.5413884 -0.99480796 -0.39858332 0.9915718 0.080321044 -1.3962594 -0.18978548 -0.36696962 1.2323023 -1.8618749 -0.4039721 1.1082704 -0.5470318 -0.61946017 1.335999 -0.13228612 -0.4705329 0.08854495 1.2618287 -0.7942867 0.9091774 -0.67549986 2.5968606 -0.4820935 0.09469618 1.933391 0.22597033 -0.20064285 -0.52429175 -0.39724493 3.7258265 1.8337753 0.09155436 1.106967 -0.33798105 0.02562065 -1.586506 0.6307969 -0.369632 -0.26269257 0.1894768 0.89760983 -0.455396 1.1961031 0.3049092 -0.1387154 -1.521588 0.0658975 -0.04295066 0.25553837 1.5756693 0.6705206 -0.4087159 -0.7564355 -0.23287685 0.8717744 -0.31301805 -1.0700454 1.6953652 0.89598894 -0.6302471 1.4008017 0.9961647 -0.58341384 -0.36508104 -2.3669467 1.1684024 0.96494454 0.73848206 -1.2766124 -0.33932468 0.84135467 -0.032640625 0.31127325 -1.5392475 -0.5576891 1.2868366 0.768782 1.2199428 -1.1521999 0.10928859 -2.3600452 -1.3432885 0.679246 -0.44607806 -0.46550792 -0.6896405 0.80728287 1.2114102 -0.1474304 -0.9337505 -0.60545415
poste 0.3032563 -0.35909727 0.15441409 -0.19505814 -0.4204872 -0.4919082 1.7445623 0.522529 -0.8597896 0.72616816 -0.2427893 1.0637543 0.601734 -0.30922136 2.1744857 1.9324296 -0.31328046 0.5961692 2.4395192 -2.0907695 0.17478196 -0.5056314 -1.852401 0.51006365 0.77501565 -0.12702072 0.68784726 -1.1272006 0.071333036 0.47713324 -0.63078743 -0.28931138 -0.3182976 0.2661623 0.113137804 0.9010268 -0.006420713 1.5678867 -0.15913484 -1.1847495 1.5067735 0.13134891 0.11468957 1.9247005 1.1068465 -0.122634225 0.35056016 -1.4829878 1.2133117 -0.57796586 1.8137566 -0.7644024 1.7011758 -0.4770734 1.3255159 0.6043238 0.7301579 -0.5330622 -1.7150471 0.79688007 -0.66792554 -0.8392784 0.85719925 0.66301864 -0.80158985 0.75665206 -0.108669564 -1.5445696 0.22352442 -0.72326314 1.9792293 -0.6333359 0.8232517 0.40277186 -0.7463813 -0.8795598 1.5393305 0.47204044 0.4269281 0.48140925 -1.2924361 -1.8173255 1.7092843 -0.47282895 -0.5707991 1.084983 0.06341332 -1.3521731 1.1344932 -0.6398639 -0.7874492 -1.1670773 0.41305596 1.5609837 -0.012125652 -1.1301024 1.7147442 0.6373213 -0.39536417 -0.069526345
caderousse 0.57344437 -0.42258254 0.46094462 0.7032635 -0.34190828 -1.1352792 -0.105011925 -0.9609093 -1.2126503 -0.34177455 0.8232396 -0.001552429 -0.506213 -0.57501984 -1.6515998 0.49550688 -1.1614358 -0.67779726 1.0068965 -1.0562843 -0.1281187 1.1135318 0.10640597 0.1291957 -1.882599 1.6692294 0.18595216 -0.3163267 0.40247542 -1.8618551 1.0278713 -1.4270192 -1.9481149 1.1613561 -0.28103098 -0.13249758 -0.42794704 -1.2932563 0.24205935 -0.09669039 -0.020725742 -0.05014455 1.1207552 -0.5668496 0.22828957 0.84957254 -0.023525145 -0.19977172 -0.23956615 1.5125132 1.2977242 -0.36992472 0.32629004 0.91041803 -0.25018784 0.862737 -0.19415006 -1.6196868 0.40194026 -0.3612132 0.46332583 0.6261975 -1.5058258 -0.6118687 1.0259522 -0.44670942 -1.4830713 0.524064 0.14458779 0.13356969 0.7276357 0.11466093 -0.5726469 -0.79581994 -0.57414097 0.17027155 -0.8248573 0.1288869 1.3699154 -0.56160647 0.76299113 0.7688402 -2.066256 -0.25070715 -0.1288057 -0.030835537 -1.1335367 0.11647946 -0.17585817 -1.0733385 -0.67377996 -0.45787126 -0.716108 0.12340541 0.9138238 1.1625208 0.3771636 1.040634 0.27643308 0.4546746
aurait -0.19759037 -0.56508976 0.97886616 2.4431162 0.44980404 1.3047308 -0.19500026 -0.6590145 -0.74905574 -0.38668725 -0.6484171 -0.2176936 0.12844685 -1.3626665 1.7952894 0.49523422 -0.037407756 -0.185363 -0.8430274 -1.4531273 1.9338913 0.8932587 -0.64063776 0.83974326 -1.8085865 0.9220773 -1.0131865 -0.20679875 0.50974286 -1.0737966 -1.7108256 -1.0494791 0.9487865 -0.2477512 -0.44882938 0.08067322 -1.3635931 0.5896468 0.66798973 0.40148956 0.18936405 -0.6115165 -0.09325543 0.53897583 0.38660613 -0.8418746 1.632752 0.58135724 0.21202426 -0.87061155 0.95226455 0.3969011 0.96591026 0.8211859 0.19204189 -0.8625947 -0.6218007 0.3986797 0.6786225 0.1570371 1.9500287 0.45201585 -0.38977242 -0.76359993 -1.1324528 -0.0026044697 0.24313381 -1.0516033 0.86857593 0.06352991 0.3224149 0.48462152 -0.8172003 0.7834813 0.35913557 -0.11522506 0.6666502 -0.90213054 0.18609734 0.49526042 -0.94503546 0.025529379 0.003582403 -0.530458 -0.22661883 -0.8299125 -0.07698731 -0.4608344 2.5203578 -0.5096408 1.2269974 0.4696097 -0.43284458 -0.3012583 0.6303005 0.49010825 -1.1189286 -0.5656931 0.15163696 0.8095539
pu 0.47688386 -0.11660247 0.541563 -0.62720305 0.2602363 0.60044646 0.5595373 -1.4288139 -0.28947717 -0.19514164 0.05234904 0.69863605 0.48615393 0.12435776 0.40559506 0.66368866 -0.36695835 0.1418315 0.3173561 -0.36088473 0.81334877 -0.74079496 -0.066192016 -2.2211437 -0.17032893 1.8593884 -1.1392323 0.10413738 0.73583966 -0.88684464 -0.1078745 1.004854 -0.5208129 0.41183066 -0.86542064 0.61306053 0.09152699 -0.24511334 -0.019036379 -0.26753104 0.3994467 -0.083709516 1.0005685 0.28422737 -0.16835983 0.09542589 -0.013758911 -0.46819383 -0.6165165 -1.0527918 0.7858812 0.5297712 -0.5645953 -1.0927658 -0.7759862 -1.9822474 -0.36354128 -1.860984 -0.66101235 0.78967583 1.0031207 -1.1273131 0.20222032 -0.08482684 1.346471 0.6262724 -1.3025012 -2.8172014 -0.48867133 -0.34665072 0.6848283 -0.46095255 -0.45963556 0.95291746 0.42127427 1.2614827 0.5889652 0.8527407 0.26334476 -0.7459792 -0.051547267 -0.89480674 0.11189049 0.82310027 -0.23517244 0.34287 0.052791372 1.594488 2.1514282 0.85071796 1.221337 -1.540386 1.082507 -0.3772617 -0.82871604 -0.5564051 1.6182675 -0.7198592 -0.0733938 -0.6140402
voir 2.7757156 -0.77650446 -0.78468335 1.3366326 0.16475368 -0.8185671 1.7363986 -0.2977589 -0.8510706 1.9420549 -0.5943605 -0.740695 0.6372265 0.22534724 0.92256635 -0.40105158 -0.6936246 -0.3519813 -0.3619273 -1.3086736 -1.5628581 1.5140784 0.40788132 0.2864731 -1.237951 -0.55768454 -1.3328918 0.84160084 2.6400034 0.10317368 -0.71146214 -0.49002495 0.6818126 -1.2550257 -1.0352037 1.917912 -0.19170564 -0.83464575 0.2798153 0.6883868 1.4676405 0.092390954 0.36731723 1.0212113 -0.5745764 1.0088254 0.3459363 -0.69355667 -0.30938122 0.24764496 0.39835784 1.767599 0.51034224 0.6299118 0.29664773 -2.3018992 -0.36126754 -0.69263285 0.95491517 -0.7900124 0.46995983 -0.97421116 -1.3111969 -0.79356223 1.5525097 -0.8785786 0.50479615 -1.4436215 0.4713188 0.3898426 0.019276608 -0.28997976 0.05473624 0.13733374 1.4548438 -0.124739274 0.8809935 1.3984677 -0.6947431 -0.96847737 0.043946125 0.8373984 0.268848 -0.91539633 -0.61784303 -0.4984711 -0.22310428 1.0127279 -0.46860942 -0.92711526 -0.3404369 -1.5233955 -1.4836566 -0.46807912 0.4305521 -0.3283059 -0.23506996 0.35542083 -0.9335754 1.1348674
du -0.19210339 -1.8385111 -0.46927464 -0.38419953 0.8327642 -1.2007536 -0.56166285 1.0353144 -0.3176789 -0.38762456 1.0495182 -0.36482015 -1.6399014 0.4156467 0.7692763 -1.7269866 0.16280143 -0.35108238 -1.9110496 0.73802805 0.15849549 -0.8643276 -0.01715795 -0.31352678 0.6065459 0.8395094 -1.547045 2.4380312 -1.149661 -1.1822884 -0.66134465 -1.3243619 -0.30825105 -1.4015732 0.8188646 0.90709746 -0.102540046 1.6676644 -0.17300417 0.8149275 1.6423014 -0.79125214 -0.6693693 1.2451843 0.71779627 0.5325102 -0.5191455 1.7971565 0.10560289 0.14675298 -1.4610177 0.06752992 1.20009 0.3787845 -1.1713657 0.6381572 -1.2906052 -0.47482008 0.89045566 -2.7394986 0.9586967 -0.865138 0.18367666 -0.25437415 -0.5897959 0.32199356 1.998185 0.9609621 0.8423936 -1.7630081 0.69289213 0.9407223 0.9697003 -1.5205399 -0.7114004 -1.1132526 -0.32111055 -0.20963915 -0.23256192 0.80616504 0.58525556 -0.30026466 0.08100365 0.8524185 -2.344478 0.8344718 1.0149914 -2.108087 -1.7072263 -1.0936369 -0.6033589 -0.15635964 -1.2456692 -0.19972375 -0.16484949 -0.5168125 -0.43230686 1.1925939 -0.4377753 0.17706557
côté -1.4116515 -0.15515931 0.31197035 -0.88340086 0.18827729 1.7250794 -0.5383297 -0.33501667 -0.30086124 1.1033087 0.18985552 -2.2887342 1.2944851 -2.9509547 -1.1429925 -0.33934608 0.23864631 1.6898946 -0.12778765 -1.9335533 -1.2489035 0.28934607 -0.530237 -0.94092685 -0.10430351 -0.56346434 1.1909043 -0.6061315 -0.46463978 0.21281111 -0.90892494 -0.45024106 0.83477503 -0.40502912 0.2912233 0.86921984 1.1246074 0.9994566 0.9456979 0.46078995 0.1671954 0.7100136 0.7004815 -0.48869932 -1.3017416 -0.44002286 -0.62904155 -0.38919693 1.8206991 -1.1284838 0.4226293 -1.012793 0.819577 -0.49010748 0.164828 -0.14458373 1.3217002 -1.0813072 -1.9732782 0.2400445 0.40453777 0.99496907 2.3249066 1.2663221 -0.8087847 -0.56224877 -0.11053869 0.58085513 -0.7131367 0.33116308 -1.2980525 -0.79503083 -1.677085 -0.5083251 0.7455326 -2.581102 -0.049125493 0.6740495 -0.7572328 2.2733808 -0.40605378 2.0018795 0.49330568 -0.48309907 -0.4291217 -1.1115975 -2.1491048 0.50493574 -0.9294928 0.49354467 -0.087807804 0.009335155 1.4327326 1.2212659 1.1110349 -0.24164507 0.67117786 1.2592808 1.7370548 -1.1523336
un -0.21680331 0.62348014 -0.23484218 -1.8288294 -0.5523567 -1.1843731 1.1574005 0.44067493 1.1707264 0.8366998 1.8162799 1.0720395 -0.04861685 0.4558979 0.11725339 0.474033 -0.41970843 0.32012567 -0.3154754 -1.8094465 -1.301578 -0.28600022 -0.37019166 -0.31997797 -0.5049781 -0.37682837 2.1617396 0.12492958 0.12119007 0.6099788 -0.42595708 -0.8705006 0.84767205 0.6804558 -0.5230121 -0.88377345 0.07549652 -1.2817749 0.10610329 -0.021578014 -1.3573775 -0.6950476 -0.55925393 -0.23501752 -1.0012101 1.796107 1.237174 -2.010765 -1.5732145 1.0104253 0.9148756 0.0798012 0.2500322 -0.5294271 -0.35929385 -0.3018665 -0.3887547 0.8671513 -0.6670518 -0.21282917 -1.0898919 0.7866364 -1.1615982 -0.21117464 0.41969123 -0.7161648 0.56233114 0.13763532 -0.38561186 0.09162633 0.69816417 0.23770992 1.0596389 -1.7597133 -0.15647984 -0.57715154 0.25455546 0.003889557 -1.1963518 0.21279116 1.4416832 0.125226 -0.78634363 1.0273633 0.83501494 -0.5244654 0.11131857 1.3043013 -1.2368323 1.8541676 0.6492443 -1.3855247 -2.0352087 0.22343135 0.18483973 0.1098448 -1.1767925 0.044726614 0.16926092 -1.0265174
et 0.39198503 0.4128087 -0.15550028 0.85466045 -0.582876 -0.47460198 -1.1680667 0.15718558 2.1098142 0.6328567 0.92817044 -0.9024211 0.07930151 0.44881737 1.9377601 0.4830795 -0.27883893 2.1052868 0.51483744 0.04557356 -0.14330816 -0.57567227 -0.9087458 -0.17782167 0.022962658 0.4909621 0.95877224 -0.5000282 1.5564053 -0.41907912 0.03530188 1.0749419 1.2278314 1.5399653 -0.33565515 0.4571097 -0.2300882 2.2186863 0.10539737 1.2212938 -0.4788812 1.1734291 -0.7600642 -0.012738139 -2.1364992 0.78998053 -0.56671745 -0.8195433 0.31118017 -1.858975 -0.6109216 1.2503033 -0.5049734 -0.4744374 1.4126583 0.6236428 0.71818835 0.9197652 -0.46945405 -0.18471698 -0.5858193 -0.45681906 -0.3577049 -0.38814008 0.2867694 -1.3739693 -1.3069253 -0.95048034 1.3054677 2.8790884 -1.5768842 0.049984563 -0.33606434 0.23735432 0.5455835 0.47099712 0.014687406 -0.7117779 2.2534964 1.3159307 -0.8659462 -0.82410705 -0.8906849 1.3959458 -0.8136672 -0.32653946 1.254544 0.54366505 -0.14269443 0.07601958 -1.1711903 2.797448 -0.3950842 0.01675497 1.5256946 0.7833497 0.32724762 -0.4597483 0.56888115 0.12637329
cheval -1.0982552 -0.5160275 -1.0519303 0.2248739 -0.05408151 0.8284168 -0.28546563 0.8723263 0.67277735 -1.0504227 0.29004452 2.410206 1.9778166 -1.2608917 -1.4315829 -0.45374772 1.5765393 0.25930402 0.8811991 0.42723915 1.9215922 -0.4869031 1.0886348 0.05596288 -0.6167597 0.5502801 1.98324 0.7109355 -1.2105182 1.4267277 0.33918852 -0.82163835 0.109525084 -0.35820752 1.3847697 -2.6706083 -1.0790806 -0.29053086 -0.5170563 0.25696462 0.2584788 0.7146764 1.2159743 0.51479167 -0.28513134 -1.0363064 -0.20242469 0.60772854 -0.629056 -0.20959166 1.4576718 0.8556235 0.84931165 -1.5207311 0.20795515 -0.03641614 1.2110852 0.55258393 0.48836043 0.7883375 -1.3509719 0.102652095 -1.3359895 0.73660296 1.4958569 -0.19803312 0.5202132 -0.20339909 -0.11639754 0.674965 -0.85276157 -0.8998679 0.14528601 -0.05631004 -0.51544195 0.42697084 -1.2186613 0.18888511 0.957689 0.538972 -0.13005629 1.750989 -1.6346185 0.090625316 2.1790338 -0.31911463 -0.98035467 -0.42733446 -0.5438484 -0.12644663 1.0136942 -0.15043515 -0.78254074 0.46697247 0.6322502 -0.33180204 0.22867814 -0.24347067 -0.68480587 2.0744405
cette -0.8786511 1.1351825 -0.6102258 -0.47725058 0.60332763 0.65601885 -0.5902449 0.07913394 0.36960903 -0.709924 0.22159322 1.4370745 -0.71976054 0.18929845 -1.7714891 -0.83247435 -0.17287375 1.0654342 0.60380214 0.340453 -1.1242768 -0.045013778 1.9237745 1.1896476 0.024586834 0.63732755 0.99505955 2.3255131 -1.7031182 2.1623287 -0.6557169 0.6991905 1.783364 -0.9432741 -2.3403103 -2.4674006 0.15726781 0.30045837 -0.5637906 0.5093101 -0.7692968 0.35785902 0.5850563 0.5552366 -2.063723 -0.5968137 -0.41940627 0.56523764 -0.77981657 0.5061737 -0.12300517 1.1763873 0.5505091 -0.8088626 0.23321047 2.6438951 -0.19744281 0.6902382 0.017384605 -0.17985183 0.8176852 0.22317056 -1.0954297 -0.44267467 0.8197149 1.0020913 0.18672222 -0.038179085 0.3015957 0.46379763 -1.3079668 -0.44977844 0.06706911 2.6675484 0.32212266 -0.017236693 0.7039085 -0.6628334 0.5650106 -1.5994678 0.84898996 -0.881464 1.1168153 1.8415545 0.75229204 0.8100733 -1.1298871 -0.7990138 -0.6639217 1.1009823 0.94563496 0.79631716 0.024847671 0.56116295 -3.1434262 -1.3246748 -0.7459788 -0.9625316 -0.7158357 0.9137589
qui 0.48860022 -2.2002184 -0.029625598 0.54284227 0.053838577 -1.8164 -0.017437018 -0.0027666334 0.5739554 -0.18475209 -0.6901928 -0.19351578 -0.9155696 -0.62963784 0.51167035 -0.11432558 0.5885846 -0.5524643 0.6944262 1.1677613 -1.6852676 -0.15239677 0.31742275 -0.4715377 -1.1339793 -0.60600436 1.114405 0.7278934 1.0586115 -1.2382603 -0.71650034 -1.1747099 0.11133904 -0.8946861 -0.4520454 -0.19599186 -0.6654648 0.82535493 1.2248201 -0.033504482 0.19398972 1.1119112 -1.6843369 -0.4378642 -0.9621324 1.5463637 0.55956614 0.051927287 1.4653401 -0.013282994 -0.5010048 -0.66896504 -0.38537183 0.87930316 0.38951895 -1.207471 1.3783591 -0.9615119 -0.29640093 -0.9815601 -0.22219054 -0.68778485 -0.009673953 0.83234954 -0.81748337 -0.25420913 -0.8575723 -0.431953 -0.51522106 0.94873106 0.083138525 0.31111664 -0.6363908 -1.043489 1.3827538 -1.2643118 1.1994541 -0.43066218 0.71279895 -0.5827384 -0.45691553 -0.22174053 -0.8147055 -0.1597045 0.27225795 0.967686 -0.7186219 -0.25465432 -1.2274143 -0.7659779 -0.22533986 0.45130414 -0.015957959 -0.25316212 -0.8848803 -0.15154584 -0.20910317 0.068927445 -0.9574447 -0.07360406
entre -0.8027867 -0.075381644 0.8504096 -1.2899544 2.4842575 0.07313995 -0.9788219 -0.09143226 -1.875806 1.6000732 0.5123487 1.4220126 1.5416759 0.90590334 -0.5916961 -0.33677465 -1.4718766 0.42998797 -0.08390112 -0.0968475 0.10521607 -0.10531095 0.6220033 0.42671317 0.08073015 -1.6044586 -0.12269719 -1.0385762 0.27373257 0.5209862 2.1388934 0.93455327 0.15341921 -1.5227311 -0.06697699 2.007366 0.42651236 1.2369064 0.246156 1.0879831 -0.6214209 0.789919 1.7576867 0.63888335 0.8225996 -1.0963253 -0.2659213 0.49492714 1.8975511 0.8750937 -0.13597056 1.3060656 -0.1505127 0.7538785 -1.6605848 -0.32285443 -0.33467692 1.1120174 0.87761074 0.5656426 -0.55580693 -0.0984406 0.3399404 3.3768375 -0.8298637 -0.48550868 0.009369589 0.5934786 0.8778126 1.0263058 0.47431162 2.0443246 0.85577434 1.2502596 -0.4671921 0.64849234 -0.3616576 0.62106586 -1.5307586 0.1825906 -1.0477334 0.2420035 0.0120068975 -0.0060992874 0.5199521 0.12137679 -0.18804787 -1.0470561 -0.6614845 -2.0187168 -0.9184202 1.0960003 -0.79080176 1.4517503 -1.0387951 -0.8644364 -0.24421464 0.3110272 -0.59856594 1.7037071
le -0.58778185 1.1083854 2.1580837 -1.355243 1.2818544 1.5310183 0.7843139 -0.7157969 0.15591447 -1.4657297 -1.0278561 -0.46218216 0.7666291 0.1278642 1.4628897 1.8507242 1.5145296 -1.1802236 -1.2289934 0.12677833 -0.35429147 1.9368205 -0.26703957 1.5424671 -1.1652819 -0.33024263 -1.3011831 1.4040095 -0.46037185 0.73581284 -1.3275942 -0.091795 -1.2732642 -0.9388064 -0.6925727 -1.8995737 1.6405569 -2.2267225 -0.16611344 1.1371212 -0.271895 -0.25764304 1.1334349 1.2224694 -0.45660076 0.46018556 1.2025646 -1.0567558 1.7853256 1.6324612 1.1428066 0.4780298 -0.35863513 -0.469162 1.5251822 0.44777974 0.15653233 0.6755152 -1.5839328 -0.017824804 0.12558818 -0.22949672 -0.34915802 1.2965759 -0.13576634 0.29412997 -1.1119541 -2.1240203 0.5828062 -1.2715211 1.4330673 0.012804571 -0.62993544 -0.073898286 -0.36355913 -0.9478314 -0.5979091 -2.3725321 1.1396039 -0.088379785 -0.06055835 0.43770763 -1.3877411 0.5423876 1.2139785 0.013070613 -0.40698582 -2.7258742 0.7481721 -0.21288498 2.212467 -0.014615496 1.361199 -1.4798529 0.5262434 0.034330286 1.009001 -0.23264149 -0.14978756 1.1187305
; -0.7021219 -1.0855415 -1.4706924 0.40777376 -0.751124 0.5637733 -0.5649271 -0.9999903 -1.1762462 -0.63597894 -0.90304834 0.8356322 -1.3780292 0.14444157 1.4861374 -1.3540232 0.6142428 -0.7399553 0.10918135 -1.5395175 -0.34465703 0.18404405 -0.7312628 -1.9864857 0.37741414 0.75298834 -0.32695812 -1.7216929 0.020666905 0.047709763 0.8727899 0.71124864 -0.85553175 -1.3640304 0.28291517 0.60819346 1.3647158 0.31771097 0.721215 -0.963936 0.04258408 -1.611895 -0.43716383 1.3790461 -0.010981053 -0.55378497 2.1580474 -1.1513995 0.48306382 0.4947919 -1.1507626 0.19111733 0.09918679 -0.18994674 -0.3955571 -0.5644093 -1.677446 -0.647211 0.13062179 0.8696002 0.066656604 -2.0224395 0.4475224 0.36566466 0.3314441 -0.75019526 -1.6235145 1.137815 -0.34704646 1.950629 0.05230675 0.6961915 2.3096495 0.12779047 2.7037327 -0.9069049 -0.07860045 2.313383 0.34733477 -0.2733682 0.8041037 0.45180064 0.7431987 0.25115216 0.17842662 0.6503491 -1.1253768 -0.749904 -0.4088303 1.2829573 -2.5954201 0.21961936 -0.76639324 -0.5713114 -0.3845306 0.53095907 -1.3285457 0.7033011 -0.4219112 1.2927873
était -1.0763987 -0.50549906 0.7946784 1.3477618 -2.239032 -0.7345358 1.38388 0.07902436 -0.33989134 1.2526637 0.94507235 0.27857012 0.5752217 0.016798079 0.0021693371 0.04632255 -0.21630536 0.10266281 0.2654196 0.30161357 0.74196553 1.7737124 0.19066373 1.4523191 -1.769022 -0.31032136 0.6260037 -0.4040667 -0.4733357 -0.21666631 0.21888809 -0.46261483 1.1445602 0.78811157 -0.49795982 -1.1444981 -0.7487489 -0.19090447 -0.30109197 0.09795519 1.1843525 0.7003035 -0.18379718 0.8149233 -0.97519773 -1.0880914 -1.2195733 0.12286977 0.106066786 -1.3398063 0.5481599 0.4665563 -0.4681149 -0.08468111 0.12120682 0.38178012 1.1404864 -1.5664701 0.3587345 -1.079211 0.8475403 1.6318629 -0.38744208 0.70949507 -1.2843995 1.5920348 -1.3143345 0.094101354 -1.3870752 -0.6398226 -1.7382162 -0.030399699 0.21111538 0.54985887 -0.8785886 0.809677 -0.39497665 0.3008326 0.4258053 -0.36851865 -0.652982 0.4092624 -0.18747535 0.582959 1.085773 -0.71137637 -0.6914609 -0.61331856 -0.43403268 -1.789105 1.0135612 -1.8251923 -1.0845793 0.08455734 0.90303683 -0.41730386 -0.5695667 -1.1903834 0.6076424 -0.8232562
l’ -0.61194366 0.064300455 -0.3677752 -0.46997005 1.3818028 -0.4665715 -1.3072362 0.35650924 1.1197262 0.9875491 -1.7906075 0.37984133 0.26620454 0.5876453 0.32525972 0.174286 0.54662836 -0.0057127737 1.5485483 -0.36178127 1.0133877 -0.08378456 2.0628355 0.9935644 -1.3622962 0.7409503 -0.3532412 0.39658332 1.206244 1.1040232 -0.6840481 0.34335074 -1.3188843 0.84724903 -0.50544906 1.1007497 1.2751417 1.2106214 -0.06977602 1.4474059 0.30075032 0.18331455 0.43916005 1.5022817 0.5895049 -1.2620357 -0.79621935 -0.7493945 -0.42461544 -0.6684091 -1.418863 -0.06880668 0.027788114 -0.09025307 -0.5456106 -0.3911015 1.2681162 -0.97909534 0.8775968 0.09483445 -0.06879552 -0.50819844 1.0095714 1.2073495 1.1079298 0.16935253 -0.082653195 0.9127663 -0.08708183 0.891515 -0.7461748 1.1240612 0.045383774 0.23311186 -0.27918372 -0.47834823 -0.09642765 -0.8055759 -2.206993 0.27923983 1.5637602 0.18815307 -0.8102931 1.5436271 -0.033713467 -0.21405518 0.1219219 -0.82521504 1.0797346 0.110189974 -0.09579782 -1.2780899 -1.1312144 0.040060412 1.5490401 -0.044525474 -0.8801578 1.5213383 -0.8843273 0.034950692
d’ 1.1128982 0.8186517 0.81224436 -0.86136574 0.8495669 0.71858734 1.1178442 -0.07526245 -1.6122442 -1.750476 0.5430104 -0.2727638 -0.07668156 1.1308256 1.07376 1.210509 0.60978884 1.4215258 -1.0583713 -0.2711369 0.24014047 -1.5658165 0.8805992 -0.36525056 0.19341579 -0.20209831 1.2298636 0.17053212 0.22583586 0.24540862 -0.8449336 -1.0778157 -0.584038 0.20295823 0.17086397 1.1400257 0.41317716 -1.1145635 1.3687233 0.7742156 -0.94546664 -0.84666157 -0.38830584 -0.45734474 -0.5032325 -0.2811738 0.50964034 0.56047916 0.5204881 -1.6473925 -0.7259413 0.5859277 1.253247 0.5548591 0.17174894 0.29320434 0.012515746 1.310009 1.8905776 -1.2451388 0.7597899 0.21857095 -0.5713278 1.2934407 0.0060140863 1.9408897 -0.19821861 0.07079719 0.8677913 -0.88620824 0.70928496 0.41847613 -0.32415342 -0.88247794 0.19189511 -0.7127756 -0.011794467 -1.5404507 -0.770682 -0.30750453 -0.024138395 -0.42779624 0.49260405 -0.61974996 1.2334435 -0.16609028 0.017292969 0.348507 -0.5787507 0.3928706 0.6808286 -0.6629718 1.000601 -0.6851537 -0.1820474 -0.4504082 -1.1253984 -2.5450134 0.6453601 -1.1963472
chapeau -2.1237586 0.15870607 0.56338245 0.27830166 0.23332566 -1.0034869 -0.3829522 0.59256756 -0.71470344 -1.2748706 1.6494939 0.3621603 0.5269116 1.8556128 -0.77361465 -1.2515981 0.2037932 -0.6695917 -1.7224909 -1.1435418 0.81372017 0.9033541 -1.5933427 1.0184268 0.5002772 -0.872899 0.7315648 -0.13461275 -0.25323927 0.88534325 -0.445114 0.23076333 1.0913733 1.4409649 0.3921453 -0.10206591 0.6372406 -1.143642 -1.4633918 1.0820985 -0.12484023 0.6135526 -0.7830561 1.2635168 -0.3729888 0.14627339 -0.3052202 0.1908891 0.6031387 0.8047502 0.20767823 -0.9268069 0.79817253 -2.191803 -1.496271 0.086666934 1.15513 0.54008436 -0.8175949 0.4647599 -0.087082945 0.06452811 -0.865204 -2.3483484 0.07793615 0.66181517 -0.4873258 0.823072 -1.1899107 -1.1381209 -0.15149727 -0.058996305 -0.6711523 1.673097 0.44122863 -0.44269255 -0.2686088 -1.167072 -0.9795006 0.92150915 -0.57358986 0.87522334 -0.25937748 -0.82292056 -2.0306413 -0.59270155 0.0021859184 -1.4198164 -1.6813447 0.4506441 0.6084508 0.86428744 0.75942326 0.5501206 -0.25239602 -1.7058448 0.09850027 -0.38162944 -0.7406589 1.31908
trois -1.6871852 -0.32767853 -0.040522438 2.0477152 -0.13027382 0.423299 -1.0141121 2.0525603 -1.4900182 -1.1850853 -1.5466093 -0.14203504 0.030883567 2.2132337 0.08533046 -1.0492294 -0.9845565 1.4455795 0.06089031 1.3349127 1.0072856 -0.6500534 -1.2480667 1.5818849 0.91496545 0.6356295 0.24755397 0.9166328 -1.213939 0.010193706 -0.20053387 0.4478341 -0.0026444523 -0.009081829 -0.8630352 0.83741504 0.05932003 0.065768324 -0.5417545 0.82660383 -0.80726457 -0.7838522 -0.22472839 0.54118145 0.32515514 1.1585196 -1.4581876 1.1148648 0.0066395923 -0.36433727 -0.88550174 -0.21067634 0.3856061 0.33074224 -0.99162066 -0.5592947 0.25931123 0.4989021 0.40326667 -1.1684773 -0.99962366 -0.043158956 -1.0732965 -0.15986314 0.07237908 1.2609193 -1.6340495 0.45075807 -1.6899252 -0.734797 1.238867 -0.023185551 0.99417484 2.047863 1.3593003 -1.730006 -0.20432965 0.124227494 0.1742881 -1.6180716 -0.7761775 -0.34478712 0.045985688 0.21755666 -1.2876545 -0.73814213 -0.6009802 -1.1948087 0.46181688 -0.8749838 -2.184608 -0.7513453 0.17668729 -0.5649648 -0.2494019 1.73226 0.2903039 -1.5188283 -1.174177 0.439984
la -0.25787553 0.4777148 -1.8629584 0.37814304 0.6191792 -0.9997288 1.2730098 -1.644316 0.39413166 -0.6779132 0.27524483 -0.5771836 0.045619998 -0.92570454 -0.6353593 -0.12844127 0.1708337 -1.0568506 1.4432818 -0.7008969 -0.34000957 -1.5840352 -0.9544252 1.0278383 1.00438 -1.0385886 0.27958167 0.21334574 -0.3435491 -1.2455288 0.6213739 -0.6523529 -1.390251 0.84664446 0.33148628 -0.02809788 0.017984476 -0.6221314 -0.27327892 0.5902406 -1.4337531 0.03911892 0.17647968 -0.11035626 -0.22000888 0.6717879 -0.26251444 -0.67268544 0.6153187 1.7515318 0.39056882 -0.77134705 -0.7389941 -0.7215589 0.11237012 -0.86855084 -1.5037737 0.29964244 -0.06534759 -1.0994313 0.6865601 0.38083297 -0.33458334 -0.2045934 -0.43809974 1.9204865 -0.54674447 0.2862028 0.8012776 -0.17750688 1.2289451 -1.5612161 -1.2959605 1.6829914 -0.31931153 -0.9103853 -1.1127763 0.13213141 -0.2596763 0.061286144 1.2925076 -0.98126125 -1.3872178 -0.011359327 1.7355843 -1.6744615 0.09769221 -0.22424695 0.31096613 0.08350095 -0.32117432 -0.6337939 -0.0739609 -0.8096197 0.71458864 0.65933806 0.7598916 -1.5341436 -1.8750505 -1.3332132
alors -0.87820786 0.8040688 0.7673806 -0.04052271 -0.5874876 -0.60408366 -1.3255588 -0.3934927 0.6975283 0.5959089 1.2129667 -0.5541474 -2.7197988 0.41136837 -0.8876211 1.7887179 1.6332762 -0.19320402 -0.28047973 -0.8583494 -1.3165499 -1.1055439 -0.411964 0.65974283 -0.08312549 -0.25215223 -0.4519915 -1.0878675 -1.3065649 0.52207667 0.6054808 1.1700963 1.2731911 0.033358026 0.64617735 0.26456264 0.21866575 0.9668208 0.30417264 1.1604553 0.086593315 -0.09043935 2.0452642 -0.7170609 0.16877373 0.73333436 1.0842153 -0.7617853 -0.9786177 -0.21671447 -0.44363114 -0.26130855 0.47173887 1.1852342 -1.2642084 0.7914813 0.718987 -0.3062212 -0.13502105 0.24570815 1.6056803 -0.11189987 -1.8140293 0.26847908 -2.021148 -0.08141343 -1.3436084 -0.28508455 0.9547843 0.3063073 0.70742404 1.2066828 -0.75402635 -0.28336918 0.30366388 0.521502 0.71874833 1.2590228 0.4357637 -1.953118 -0.3153782 -1.0095209 0.11554347 -0.0018630847 0.23706165 -0.4393594 -0.5169165 -0.9626731 -1.1295067 -0.41980433 2.2964811 -0.3676795 -1.1540409 -0.09438601 -0.4476231 -0.67077917 0.06920253 0.7029621 1.9438214 2.1609478
ils 0.0064978004 -2.7410667 0.10857698 -0.71855265 0.79451096 0.032568082 0.5203576 -0.65354407 -0.87009245 -0.05294706 -0.70629084 -0.40060776 0.85484767 0.045242213 -0.9594296 -0.36631373 1.4480989 0.7451146 0.31036925 0.27180824 -0.6224745 0.13991867 -0.7527035 0.68620545 -0.4775886 -0.0072051883 -0.4079295 0.6056946 -1.476903 -0.44837084 -0.5969589 -2.2530847 -0.4037851 -0.26422194 -0.31354403 0.21893123 1.2371798 -0.58101594 0.5128399 0.22596449 1.7066668 0.11110049 0.264269 0.78190005 -0.98258907 0.73256564 2.0887582 -0.082742885 0.30103827 0.8466026 0.69159 -0.95632523 1.6237721 0.460157 -0.9258609 -0.48914775 -0.5330672 1.0451852 0.6329234 2.063546 -0.5588015 -0.20787263 -0.9946385 -0.590424 -1.9299113 1.4169896 0.692263 1.4271339 0.19271255 -0.99816513 -1.7544296 -0.30077 -0.093316905 0.24786422 -0.5065522 -0.233868 -1.2999047 -0.52042675 0.41761068 -0.25586846 1.3620058 -0.59953505 -1.5434973 0.40710095 1.0244113 -0.5578189 -0.17280586 0.39639747 0.101185575 -0.27071583 0.27964976 0.29088128 -0.35197318 -0.55488926 0.5065863 -0.2511502 0.11912991 1.3583341 -0.5772223 1.0834972
n’ 0.579444 -0.72923654 -0.81073385 -0.092233144 -0.89920497 -0.06499784 -0.0040142736 -0.9714966 1.3479819 1.2139754 0.8503737 0.82012075 1.5813017 -1.4239773 1.0668144 -0.35743195 -0.5541066 1.3388238 1.0894228 0.12106881 -0.7364018 -0.4648686 -0.5543894 -1.0729802 0.25149888 -0.6794204 -0.5688878 2.556833 -1.3688539 -0.5746243 -0.4169428 0.90492415 0.38360947 -0.3761515 0.006864693 -0.732862 -0.8687216 -0.8222887 -2.0096326 1.0260562 0.5634709 1.4413085 -0.077731684 0.8690212 0.7753782 -0.69720775 -1.5442508 -0.43659204 -0.4474852 1.9882056 0.44136906 0.75974226 -0.34715587 0.5894379 -0.7674898 1.1360246 1.1239777 -0.80714 -0.82978344 -1.0165714 0.36355758 -0.107502855 1.4110541 -1.6136113 -0.887123 1.7940701 -0.46793795 -1.366951 0.1264349 0.0752144 -0.89298224 1.3259865 1.9612082 0.70406157 0.41378573 0.068849325 0.59968895 -0.9028106 -0.11950746 -0.7597952 0.67188895 -0.25643912 -1.0436026 0.22553836 1.032172 -1.5945911 0.3866683 -0.6208009 0.4408369 -0.47555745 -0.4374702 1.5483387 -0.8316813 -0.4044323 0.9227353 1.0032479 0.3000224 0.40648997 -0.5756671 0.57249606
tous 0.34176156 0.60269886 0.38240108 -0.14370629 -0.32094908 0.5235549 0.6751241 0.011996767 -0.6085554 -0.21233293 0.17861216 -0.2659153 -0.99848425 -0.76148903 -0.13121687 -0.11296817 0.07162464 -0.017706465 -0.3278502 0.84169513 -1.0845754 -1.1643798 1.5304226 0.7864355 0.30191407 1.5453861 1.2934597 0.9182222 0.50318915 -1.7998346 0.35812268 0.054448046 -1.6828135 -0.12949787 1.5653654 0.7045333 1.1938516 -0.46999037 -0.36443257 -1.147458 -1.6403444 -0.009290665 -2.1786075 -1.9025601 -1.5020622 2.2503223 -1.6881785 0.64471745 0.11233401 -1.643107 1.1601453 0.7879952 1.3642803 -1.8551548 -0.084689856 -0.7402756 -0.27150476 0.5720171 0.84818137 0.97930413 -0.27507752 -1.6470997 1.1579655 1.8950315 -1.654425 0.36959726 -0.14467172 1.6716197 0.47085547 0.6475203 -0.64168113 0.41800645 -1.400849 0.9205571 -0.4590134 -0.21819809 0.20976853 1.7507502 1.508641 -1.3348124 1.2178679 0.54432744 -1.5180172 1.6196172 1.7598243 -0.9881854 -0.6850527 -1.1129742 -0.32513466 0.69552374 -1.0308344 -0.1740118 -0.218684 0.48554984 0.33453763 -0.3598862 -1.0184093 -1.290741 -1.9328598 0.8643634
deux -1.4473543 -0.15828267 -0.4922742 1.0159967 -0.44174495 0.67961997 1.9830177 -0.5656508 -1.1437681 0.39066625 -0.8642703 0.1651273 1.6029904 -0.5374534 -0.3967165 -1.5062418 -0.54482526 0.42778307 -0.6009659 1.5655162 -0.0693074 -1.2534382 -0.0025741756 -0.29318035 0.053163886 -0.937434 1.239498 -1.1388072 -0.90350264 0.75416464 -0.74993485 0.034060694 0.557187 -0.420561 0.92188334 1.4685144 0.8939594 -0.083012484 -0.75345534 0.9649367 -1.8951349 -0.08231762 -1.2382687 0.3459114 1.4056766 0.19769508 -1.8169575 0.93509376 0.17004889 -0.2601908 -0.45380083 -0.83782935 1.9585654 0.3318351 1.1413305 -1.1398149 -2.355866 -0.24647985 -0.6278733 -0.029009925 -0.7653725 0.9861794 -0.676121 0.1664685 0.31634355 0.6669263 0.006188646 -0.018929996 -1.3809291 1.4223961 0.88352436 1.509217 0.5592741 0.06493263 -0.62294763 -0.18047015 0.2754167 -0.76327556 0.46441036 0.9021051 0.2554509 -0.63017774 0.55548036 -0.021348644 0.34791183 -0.66338396 0.6043994 0.9644192 -2.1215901 1.3096986 0.35367662 -0.34567198 1.1300907 0.11001144 1.0256494 0.5878697 -0.7998363 -0.12401118 -1.5935204 0.15080859
qu’ 1.4684163 0.06296429 2.4928548 0.38829693 -0.818215 0.92759335 -1.2380756 -0.038424976 -0.7460479 -0.24746543 1.755511 0.6710904 0.06638098 0.07335765 0.04815502 -0.5861101 -0.0068772435 -0.30655858 1.8120352 -1.5854248 0.5714035 -1.1460053 -1.0198189 1.0838785 0.20361117 1.1415999 1.008893 -0.2648242 0.9262036 0.1298942 1.243972 -0.26565197 -0.6344745 -1.3344074 -0.7312475 -0.05271551 1.3612397 1.2207109 -0.4723645 -1.5957032 0.67008924 1.3086282 0.07515146 0.25290275 -0.43300086 0.28004983 0.3575192 -0.27088764 -0.73774123 -0.30393243 -1.2073381 -0.89175326 -0.56100166 -1.3440415 -0.7772457 -0.22330943 -0.46057492 0.30877703 -0.42880166 0.47507486 -0.48345584 -1.519713 0.5545651 0.0606141 -0.9807641 -0.1517686 -0.269283 1.8955035 -0.067789376 0.12208312 0.88791126 -0.35685003 0.24309132 -0.45811898 0.6181821 1.2116663 -1.974918 0.28678674 -1.5190282 -0.07986036 -2.05926 1.2709048 1.0391473 2.1186097 -0.33354804 -0.17431645 -0.07335352 -0.09268083 0.31159008 0.23166065 -0.30832624 -0.5844939 0.23707959 -0.14023311 0.35578692 -2.1238136 1.4103644 1.6509769 -1.1575837 -0.5519413
fort 0.24198994 0.5334885 -2.333314 0.5015518 0.33501413 0.7862896 -1.4940007 1.626977 0.5920782 1.0904948 0.03329999 -0.22771089 -0.34616622 0.0074174628 0.3196673 0.85969037 0.7182065 -0.05339106 -1.9915178 -0.23682892 -0.17834887 2.834727 1.6248934 -0.6260736 0.23564479 -0.30992508 -0.68309015 1.2474252 0.20789182 -1.1124098 -1.5020702 -0.581477 1.8149455 2.3452382 0.1231148 1.2361275 2.0728364 1.3350865 0.08717494 -1.6781834 -0.10992218 0.7141608 1.6374109 -1.0451434 0.5087528 0.014447107 -0.7724656 0.9559149 0.5836449 0.40891033 -0.061042972 1.1075062 -0.09358821 -0.3133391 0.06935148 0.43669632 -0.06271642 -0.95148814 -0.028912958 -1.0584514 0.22215515 -1.040776 -0.22340596 -0.5222809 -0.25547773 0.751841 -0.46752915 0.88168496 0.40463382 -1.3542136 -0.32002676 1.1942998 -0.14338787 -0.72111976 0.887137 0.97292656 -0.10593811 -1.9500974 0.29203144 1.0228093 1.2979342 0.88953674 0.34781665 -1.3873338 0.050423823 -0.28317416 -0.29751563 -1.3173989 -0.06822859 -0.995387 -1.2464157 0.050756816 -0.073768355 0.06526392 1.8439147 -0.02959575 0.34556103 -1.6515497 0.26293963 -1.8993365
dont -0.18946663 -0.14430368 1.5383748 0.5669807 0.23784366 -0.806507 0.8033785 0.02200871 -0.17850979 -1.3421845 0.8012559 -0.5378826 0.31439316 -0.14049196 0.39427754 -1.5457474 -0.23453861 0.19653113 0.20380074 -0.7580677 0.11233981 0.98010796 0.5710626 -0.8186558 -1.1549234 0.7932812 0.06666054 1.8247848 1.087002 -0.032975055 -0.80454487 0.5206106 -0.3263937 -0.42906788 -0.6389316 1.2075399 0.8303458 0.22079135 0.20929152 0.1797201 0.009641349 2.416426 0.9445941 -1.1088833 -0.083223514 1.047307 -0.96763116 -0.8468237 -2.048522 0.32492328 0.12986025 -0.36778492 -0.50130534 -0.66660124 -1.9385672 0.18407829 -1.4948789 0.23128983 0.13740075 -1.7099317 0.2461465 -0.5728184 0.31208637 0.28321302 0.30525893 0.62658465 -1.2840583 -1.0767894 0.15527987 0.52432245 -0.76387525 -1.5235176 -1.0045053 -0.28444746 0.78982806 -0.74408555 0.653982 -0.21311009 1.0069482 0.12100267 2.1674263 -0.14942645 -0.50778323 -0.31696144 0.077668965 0.90677994 0.696684 0.1538981 -0.21023373 0.3574157 -0.033455584 1.5700911 -0.13917519 1.5775768 1.1796396 2.226484 1.292821 0.7031313 -0.35412592 1.4121825
lit -0.50865245 -0.7341256 0.71340364 1.3631884 -0.09167403 2.6043017 1.415942 1.1861882 -1.7841434 1.4999431 -1.2150849 -0.9044812 -0.46703097 0.86726815 -0.6107497 0.8608855 0.4883578 -0.05179774 0.15151869 -0.71722823 0.14577584 0.16513857 0.4935841 2.1303039 0.91439074 -1.8228971 1.2842625 -0.9270644 0.35465756 0.18133938 -0.038253073 0.3930422 -0.7731385 -0.83039296 -1.2417254 -0.31041303 -0.63977385 0.071700074 2.4476242 -0.11939822 0.41220006 -0.4368174 1.782227 1.1904845 -1.3305804 -0.11097368 -2.4827223 1.107841 -0.5262941 -0.19628428 -0.3605516 0.7513964 1.315269 0.56769234 0.10956461 1.0487592 0.54269695 0.487906 1.0521125 -0.915025 0.71590716 -2.048561 -3.3986552 -0.65965986 -1.5510672 0.47101173 -0.16078481 1.0521594 -1.3719703 0.73666227 -0.6584921 -0.46606645 -0.008895628 0.940446 0.8930503 1.22748 0.22121783 -1.1167207 1.497792 1.8281149 0.097059384 -1.6581019 -0.66868013 0.5414004 -0.62727284 -0.6961994 -0.6871143 0.65372884 0.29130495 -0.622485 0.34074852 0.24172164 -0.45550263 1.1103624 0.2106733 0.34257317 0.32410637 0.2372361 -1.4931746 0.7713307
dans -1.4992135 0.077366136 -2.3778596 -2.0101535 -0.26691857 -0.4689391 -1.061757 -1.7911352 0.7628904 1.1473386 1.6600586 0.18186383 0.049311806 -0.27634406 0.6291402 0.18017556 -1.3052176 0.8191905 -0.9428007 0.069121085 -0.99916565 0.82466406 1.1387568 1.1907454 -0.6711344 0.004917912 0.46392605 0.35515347 0.090909086 1.8346015 -0.25666878 -0.8793374 0.28274155 -1.0904454 0.54631764 0.517676 -0.01552731 -0.21293862 -0.48862377 -0.41604006 -0.09244803 -0.53712285 -0.34500548 0.6575634 -1.2901268 0.7791626 0.40801916 1.0817156 0.09567122 -1.8352568 -0.17193168 -0.39161536 0.18472421 0.6658593 -0.20994873 0.10125565 -0.91546285 -0.8593745 1.8952922 -0.95157635 1.1774126 0.6823839 0.3194074 -0.77172357 0.57166505 -0.9739503 0.2477515 -0.5987718 -0.26291656 0.54101187 0.21990517 0.95363235 -0.26329842 1.8909799 -1.7393628 -2.223476 0.4977267 -1.1182225 -0.7095281 0.79363006 -0.020220999 -0.12548143 -1.1952472 -0.31637552 0.48221275 -1.1423993 -0.6561124 0.90424085 0.052350897 0.12753938 -1.8558385 0.12805812 0.37170854 -1.3415806 1.9945958 -0.15633354 -0.040837202 -0.9242786 -0.27229497 0.16250996
une 0.7745101 -0.6755898 -0.15244636 1.5928719 1.2152166 -1.2611775 -0.36642998 0.8701287 -2.0093157 -1.035679 -1.7191885 -1.9089396 0.034292433 -1.4905094 0.47379684 -0.31401917 -0.010532532 0.14431925 -0.5064875 -0.75632316 1.6719434 -0.6270223 1.4026692 0.10629017 1.0974909 0.8137354 0.14909232 0.12769967 -0.07609927 -0.4450058 1.0747521 1.0657288 0.006224581 -1.8736104 0.61592185 1.4272789 1.0391607 -0.75406444 -2.497043 0.4674064 -0.15139642 0.8190984 0.5238815 0.31027162 -0.6124686 0.17481616 -0.8239716 -1.2181973 0.23929569 1.4145226 -0.28302622 -0.42259964 0.21980828 -0.29189378 -0.85853946 -0.7259515 -0.23505186 -0.8583078 2.21892 0.054149438 0.63908523 -1.9127102 -0.12762006 -1.361968 0.6775528 1.2551247 -0.4162447 0.9898701 0.7166076 1.0743678 0.13060054 0.35143507 -0.6875887 1.4401373 -0.10216898 1.4136177 0.64075255 -1.0633943 -1.0190964 -1.0030162 -0.023943588 1.7238238 -0.004827815 -0.6783474 1.4107808 0.44076547 -1.0584093 -0.57692695 0.00527424 -1.3563303 -1.0761904 -1.3743832 0.8821741 1.4638066 0.09395295 -2.1280167 0.81559885 -1.1948189 -0.61875844 -0.43723783
dit -0.04009704 -0.12991428 0.15595968 1.1296242 0.2121137 0.08600116 -0.24913493 0.9768686 0.23753813 -0.8286393 -1.1937065 -1.4123758 0.50011855 0.4247114 -0.15088359 -0.05839695 -0.55535764 0.19963202 -1.2361132 0.33840898 0.7779417 0.25376895 0.05399925 0.06040834 0.3367753 -0.5767872 -1.3032581 0.23359211 -1.8057939 0.5061352 0.770428 -0.1993784 -0.41961816 0.44161367 -0.3236398 1.4076371 -1.0770485 -0.024346046 -0.27821705 -1.188426 -0.03672643 1.4389211 -0.08375256 0.062672555 -1.4733263 0.50210667 0.8603598 -0.5797922 0.047872853 1.5923749 1.0774735 0.5743748 -0.4871718 -0.8017673 -0.8714997 -0.9368539 0.4372368 1.4694566 -0.040115036 -0.4747697 0.757536 0.89501864 0.38372695 -0.2693869 -1.339372 0.49760896 -0.89063716 -2.0874403 1.0476007 -0.57398874 -0.57283527 -0.067974724 -1.6235207 -0.51146525 -0.776199 0.3312106 0.9104051 -0.27952057 -0.8920451 -1.7759018 -0.6016019 -0.64926255 -0.42973116 0.12686539 0.15772644 -0.4759281 -0.124031335 -0.43532375 -0.24102703 -0.83292365 0.73935556 0.6433334 -1.5456952 -1.0960481 0.98519963 -0.26578382 1.9970416 0.75567514 0.76133615 0.36223653
fernand 0.44629598 -1.740304 -0.33756787 1.1044283 0.53030014 0.8229235 -0.31601423 -0.5337114 -0.38541257 0.43348983 0.41188797 1.3821939 -0.07292154 -0.44566396 -1.6949029 0.2955254 -1.0445251 1.3944273 -1.3160082 0.26952925 -0.63551605 0.17247087 -0.70293367 -0.59893686 -0.02122417 0.17813277 1.3295909 0.2852392 1.2790056 -0.8357313 -2.2288065 1.1679918 1.2695397 -0.3060291 -0.4152986 -0.19114318 0.36051452 0.5103738 0.42530927 0.667274 1.1876262 0.3953283 0.38081658 2.1689 1.9467753 1.0351243 -0.20658627 -1.7236862 1.5185274 0.90648115 0.014483425 0.97501814 -0.13947129 -1.5061642 -0.94268095 0.46263933 -0.8027025 -0.34986413 0.025041692 -2.461548 -2.102621 -1.2839481 -0.28977996 0.9752948 -0.9410026 0.35441732 -1.6308031 0.45912287 -1.1984257 -0.18624501 -0.5175985 1.7347288 0.0028169407 0.28888157 -0.83607435 -0.5516482 0.40400738 0.31750837 -1.1115632 -0.08016247 1.0334034 -0.055279374 0.4804914 -1.8068764 1.198253 -0.26624042 2.3461788 0.9595899 1.2627252 0.2399489 -0.88749504 1.118236 0.7165366 0.41070214 -0.93907887 -0.29160404 -1.2272563 -0.74697894 0.3217571 0.7054481
elle 0.016310424 0.12972713 0.35913458 0.5702281 -1.874198 0.31559587 0.2379111 0.88388366 0.1499647 0.71514595 1.544689 1.1046158 -0.6175716 -0.72044635 -0.058769852 -0.5632753 -0.02831053 0.5102325 -1.011438 -0.085987344 -1.9792812 -0.92616934 -1.1614575 -0.29605502 0.28200987 -0.61189234 -0.73540473 -0.5553008 0.9022037 -0.7121006 -1.6616237 -0.036624245 -1.8235337 -0.27244997 -0.60769045 2.519816 -0.1111576 0.2427086 -0.37830186 -0.26381934 -0.44248256 0.40807402 -0.8597052 -0.10101566 0.27344915 -0.067555055 0.117299624 -0.0072102454 -0.33512035 -0.017652737 -0.07015639 -0.0131880045 -0.19956627 -1.746546 -0.21614888 -0.26642174 -0.7351324 -0.5501062 0.2704948 1.7278037 0.506186 0.08655923 0.74407834 0.88148427 0.50715685 -0.8192329 -1.6626059 -2.4678335 0.90803105 -0.23445816 0.119709045 -0.032874804 0.8061226 -0.70770746 0.096731305 0.8708643 -0.51958424 -1.1590586 -1.8051728 -1.274144 -1.0929734 -0.16365963 -0.038354553 -0.7393827 -0.79449666 -0.13605854 1.2087723 -0.40465522 1.2262456 0.031721864 -1.0270486 0.2357024 0.71711636 0.06346123 -0.04343944 -0.34096083 1.1687143 -0.5506288 1.388065 -0.29726824
cela 1.3544015 -0.057010144 -1.2452613 -0.40636247 0.82191545 0.15134852 -1.4526021 -1.647591 0.47494006 -0.7067184 -0.7725824 -0.48223794 1.0329415 1.661326 -0.025240699 -0.91659147 0.7396451 -1.3733296 -1.1417183 -0.83414376 -0.39840338 0.38256976 -0.33972538 1.0379717 -1.1283133 0.10954961 1.4869666 0.66716564 0.7316068 -1.2011945 -0.010170756 -0.78034896 0.8876381 0.14093557 -0.6684534 -0.26433933 -0.113020144 -0.6692058 0.26362276 -1.468105 -0.2762248 -2.9683852 0.185244 2.0290928 0.42029345 0.47780478 0.5554347 -0.021054067 0.8929707 1.6832051 0.16801578 0.6846258 0.5200949 0.5322431 -0.14631447 -0.48748568 -0.59463084 0.23267424 1.3781635 0.93010926 0.8540325 0.77834034 1.6298828 1.1347489 0.41864356 1.1192832 0.26385975 0.867872 0.50902355 0.91111517 0.6828176 0.2657523 1.2476506 1.1960721 0.99622494 2.1050022 1.3195819 -0.09682972 -0.62732756 -2.2297647 -1.0861439 1.0156404 0.7214488 -0.7464035 1.3955991 0.9441635 -1.2588189 -0.0018410608 -0.18729705 0.802904 -0.87248266 1.1042365 0.45098 0.4568419 -0.3217338 0.7762382 0.033157833 -0.3848339 0.4855313 -1.059189
? 0.1874222 -0.3207821 0.5071326 0.25571474 -1.4292612 1.2008713 -0.84249026 -0.5111086 -1.8604345 1.6691597 -1.0176283 0.8004339 1.2563522 -1.55858 -0.09421257 0.65687865 -0.20558305 -0.14244828 0.3877442 0.15192637 1.4696286 -0.47993326 0.9468104 0.07049239 -0.49527302 -0.72959894 -0.89714736 -0.703208 0.29477435 1.2611969 0.36849642 -0.61958516 -0.03700773 -1.0950522 -0.8990278 0.6920042 -0.70480716 1.0761948 -1.8875139 -1.5917459 -0.56623346 0.44895205 0.7638367 -0.7608601 -0.060153477 -0.7783937 0.13433386 0.016005818 -0.18075451 0.8585395 0.51887864 -1.102882 0.079456285 1.0020598 0.4668872 -0.6151975 -0.19501938 0.92729175 0.51349145 -0.23088697 0.6733249 -0.20114623 0.2229802 -0.2657497 0.14272274 0.94457585 -0.63412726 1.4593256 0.010197286 -1.9013855 -0.84170765 1.3409199 1.3258178 0.7567585 0.63109493 -1.116335 -0.24283524 1.355049 0.2910242 -1.2278833 -0.095419504 0.34602162 2.6891656 0.5158022 0.019141924 -0.56955266 0.47477606 0.89379317 -0.043859508 0.63074785 -1.1820507 -1.2926623 -1.2569348 -0.15454197 -0.95489967 -0.05738367 -1.8957808 1.4979814 -1.0159732 0.3214211
— -0.95955527 0.55185723 0.639754 0.09671041 0.77708954 0.011081651 0.8654368 -1.2931855 -0.56641746 -0.14428693 -0.017363962 -0.73479927 -0.085575625 -0.5214434 -0.40395874 0.26005596 -0.56676424 -0.25538465 0.35964558 -0.054302074 -0.7570059 -0.15365428 0.943001 -0.87213546 1.2385948 -0.19349708 -0.21922308 0.19018382 -0.375717 -1.4167045 0.3315162 1.3606615 -1.4017999 0.29390433 1.9178292 -1.9153248 -2.1977217 0.34841567 -1.9013163 0.85214174 -2.2410586 1.0933483 0.62416816 -0.71101785 -1.0697577 -0.756161 0.32574427 1.5688152 0.81736326 -1.2164651 0.026354445 -0.75310814 1.5166671 0.48373914 -0.89803946 0.8712585 -1.264872 -0.32146367 -0.8304294 -1.2368549 -1.185815 1.7943292 -0.33129105 1.2441336 -0.05235421 -0.24685743 -0.38355336 0.4559826 0.25565505 1.2886939 -1.1692522 -0.34890813 -0.92444205 -0.4816126 -0.7120702 0.535465 0.9035488 0.20310657 0.45992026 1.2831519 -0.43672854 0.6681139 -0.8551742 -0.34939215 0.25758594 0.66177106 1.918691 -0.75065887 -1.4580584 1.1393064 0.8182733 0.76922005 0.50937337 -0.7185667 -0.22539233 -0.6620765 -2.3386467 -0.53171945 0.0063883737 0.8688051
ah 0.576375 0.3590088 -0.6316878 0.5521852 0.2517893 1.1448964 -0.90171283 0.49644214 0.7203518 0.47264534 0.7192096 0.7487215 -0.5331669 1.0224217 -0.22271499 -1.1273344 -1.3562223 0.3543544 -0.20710501 0.92344636 1.1535435 0.065688916 -0.7886766 -1.6738069 -0.504701 -1.0281577 -0.9740739 1.0621196 -0.1674397 1.5136224 0.18534242 -0.92322755 -1.3968619 1.3731556 -0.9695432 1.4994841 -0.3758744 -1.6663585 1.6920549 -0.042528864 0.9099254 -0.12993702 -1.0651594 1.5371032 0.14025955 -0.7452938 0.2620663 0.20635477 -0.97342896 0.7010526 -1.0547059 0.02088397 0.93101233 -1.4380996 0.29402208 -0.9663805 0.04594889 -0.045688346 -1.1301185 -0.8871103 0.92080134 0.59927726 0.96784604 0.059043534 -2.6862934 1.5770106 0.49170366 -0.77294415 -0.15792961 0.7401006 0.9057509 0.19181706 -1.5858269 1.1003256 0.6419921 -1.0192497 -0.07551812 0.13118155 -0.0668688 0.08924169 -0.82890356 0.0031096023 -0.4276169 2.1391969 -0.29047364 0.08394419 2.4125273 0.81452173 0.31383964 -0.3231527 0.22801179 -0.47861457 -1.249006 -0.44128484 1.1294444 -0.23646979 -0.28143838 1.1924063 0.7483529 -1.2006931
! -0.14953566 0.36804625 0.37366056 -0.3772192 1.116406 0.08454367 1.4752085 -0.060663957 -0.51295364 0.30262738 -1.0747355 0.12168027 0.14754184 -0.37500128 -0.63279444 1.7393446 0.30043298 1.0567242 -1.4717327 -0.07778846 -0.36729372 -0.12829566 -1.8886627 1.7957315 -0.998018 0.19363141 -0.13689266 0.41589046 -1.9814385 -0.1330367 1.021856 0.20118581 -0.57311237 2.2173536 -1.2142547 -0.8083045 -1.8206649 -0.503246 -1.0334604 -0.162561 0.43195692 0.31673646 0.4251144 2.0673943 0.49270982 -0.40513274 1.5721432 0.1551179 -0.26904067 1.3692702 0.15629695 0.81097156 -0.35895216 -0.37297234 -1.0777729 0.48583996 0.57836986 -0.39957467 -0.22741261 -0.8495406 -2.2080173 -0.18921155 1.3284247 0.073470905 0.67562926 -0.74866265 0.18496615 -0.75653267 1.6552135 -0.37401587 1.023145 0.3236154 -0.11105913 1.0522189 -0.19515239 -1.2855201 1.0065292 -1.4175152 0.33659044 -0.94805324 1.6439296 0.69936085 0.41699463 -0.38015035 -0.42903683 -0.48520923 0.8808399 0.058873054 -1.1252615 0.4112473 -0.5914773 -1.8759786 0.3660204 1.207963 0.14707065 -0.32630545 -0.54250026 -0.6186168 1.3808839 0.77672064
est 1.5163528 1.2573783 1.4682994 -0.05863197 0.48575914 0.6627035 0.019722722 -0.39538947 -0.87581855 -0.34803408 -0.2677949 -1.8150086 -0.20974436 -0.63100916 1.3023865 2.503107 0.060578093 -1.019681 0.37239486 -0.99532014 0.651579 -0.2800326 0.8377935 1.2124435 0.12791765 0.20325996 -1.2522403 -1.050851 1.6844193 -0.46041787 0.11047402 0.42517343 1.408805 0.30251026 -0.9294702 1.5615875 0.9825701 0.70490503 -0.7720023 -0.9766353 -1.9639628 -1.2210585 0.19526589 0.8242742 -0.83160347 -0.12007279 -0.5347112 -1.7118189 -2.299846 -0.34115842 0.603089 1.1812015 0.52416253 -0.43834558 1.2635304 -2.3811374 0.12896703 -0.384919 0.019232027 0.76517063 -1.0376445 -0.7856206 -0.7551324 0.7060905 -0.23492926 0.070092015 -0.7904573 -0.7098299 2.306243 -0.87952495 1.1230322 -0.11358634 -1.3107975 -0.3737886 0.5085562 -0.8793933 0.44755143 0.78405577 0.24375503 -0.012549236 -0.66565543 -0.6024154 -1.0286014 1.0462227 0.32323343 1.0693575 0.20867676 0.6908843 -0.10265002 -1.003057 -0.51835364 -1.2707518 -1.5671103 0.6388037 -0.3769071 0.7111619 1.0826161 0.14415395 -0.49258596 1.4333236
mort 1.2881651 -0.9735698 0.19012973 -0.26813883 -0.42459944 -2.2517354 0.8553318 0.32669377 -1.6113412 1.167388 0.26724756 1.1265582 0.34851825 0.8596497 0.56050795 -0.31031844 -1.113102 0.22810051 -0.7573347 1.6558069 -0.67677844 1.6323445 -0.67175496 -1.338247 0.6477907 -0.9357204 1.8363714 0.91949785 -1.225393 -1.5508541 -3.4423149 0.51220334 -0.8772139 -0.41103816 -0.8721349 0.4772836 -0.5889145 -0.25534487 -1.3991443 2.4955733 0.045859613 1.8928916 -0.5807346 -1.6439234 1.3336649 1.1400988 1.0852417 -0.25027832 -1.219522 -1.497618 -1.0086346 0.9607055 -0.30489343 -0.6430255 0.22372572 0.7787459 -0.9235002 0.03336104 -1.6074673 0.3283806 0.06842972 0.96335024 0.77791446 -2.120404 -0.15174447 -0.28476042 -1.4806912 0.91037303 -0.2351362 -0.51872003 -1.5742506 0.2943364 -0.28347492 1.0429012 -0.60914654 -0.010766197 1.0178065 -1.2732946 -0.7822502 -0.2890582 -0.60276467 -0.2574057 -0.9911342 -0.30879036 -0.41637415 -0.4435526 0.52540785 1.558298 0.18624064 0.5983898 1.036271 0.20399776 -0.8325856 -0.543586 -0.37333274 0.82895887 -0.54038054 1.2038902 0.57696855 1.0102438
je 0.21013823 0.3667381 0.6441392 0.51635504 -0.56143075 1.1169662 -1.7035642 -0.123511225 -0.4996791 0.41209048 1.6457222 -0.1442932 0.35976312 2.2204282 -1.9272774 0.21934739 1.3976927 -0.41509518 0.8695515 0.11263395 0.20928699 -0.045732204 -0.54726917 -0.04454722 0.040998947 0.2412609 2.0514984 1.1487201 0.07512427 2.9645746 -1.8080196 -1.5436274 -0.09154458 -0.96833336 -2.0553894 0.032010157 -1.4936934 0.7221581 0.69371295 0.46315172 0.6266201 -1.7678133 0.6560399 0.73327583 -1.3963763 0.69390404 -0.344292 -0.30897272 -0.43141845 0.31295535 -0.857718 -0.5571146 0.84294194 -0.3602762 1.0149214 0.57239944 -0.51956135 -0.7666005 -1.507979 -0.10228581 -0.5189975 -0.71841407 -0.24650824 2.5166872 -1.9817654 -0.447508 -0.46435785 0.70664066 0.47115022 0.5900382 0.49662048 -1.6858699 1.3340937 0.81441593 -1.2437091 0.025832672 0.06760848 0.110547 -1.4734659 -0.14995222 -2.1677024 0.34570566 2.272844 -0.037206218 -1.4205204 0.05487729 1.3378807 -0.5927665 1.1999595 0.7913926 -0.22288917 0.5997648 -0.9237435 -0.33880112 -0.117918745 0.78259826 0.5158209 -0.3836801 0.7191015 0.8215377
non -0.0038026795 0.35590914 -0.008780564 -1.0766348 0.52281296 0.652646 -0.39194584 0.19472115 1.1893666 -0.5870299 -0.20449615 -1.1213852 0.44703043 -0.060321603 -1.9302714 -0.58554894 0.18476248 -0.6245532 -0.5799394 1.7163318 0.46526554 1.4413157 1.2042402 -1.0604995 2.1701338 -0.69246924 0.503466 0.815576 0.3662592 1.9695969 -0.036552846 0.31217617 1.1552339 -2.1103673 -0.4987918 -0.65046275 -0.54748905 -0.934683 0.77749413 0.73880345 -0.50003225 0.28878438 0.61505526 0.648418 -1.090985 0.8125016 0.07500762 -1.3914485 1.7379534 -1.6426709 -0.6436805 -0.5493829 0.17850456 -0.85892236 0.42814404 1.1691144 -1.6525582 -0.050943304 0.85840416 0.38180485 0.47759318 1.0772992 -2.2054625 -0.010642469 0.8184692 0.5781748 -0.7697731 2.9480999 -0.12553373 2.4501882 0.15854912 0.48735848 0.04948511 0.4731964 1.3342716 -0.49947354 -0.71588343 -1.0089135 0.2599502 -1.6568729 1.1682525 0.5198075 0.53325987 0.06389853 1.6439443 1.7376708 0.5190059 0.29132393 -1.0683347 -0.14935726 -0.033507224 -1.0879476 0.3260718 0.04981692 0.80661786 1.3962578 -0.35512027 -0.88574135 0.56383705 0.026675772
pas 0.14024396 1.2616327 -0.37741327 0.4166123 0.30209064 1.9917357 -0.008887753 -1.599781 0.3822666 0.34485984 -0.82225883 -0.23325625 -0.06328577 0.5862289 -0.29990274 -0.30761847 -1.6648513 1.2351682 0.10046912 1.2263585 1.282089 -0.1156434 0.021056611 -1.1663717 -1.2956733 -0.730643 -0.5575101 0.5871558 0.26543802 0.4073531 1.1987388 1.1345978 -0.3077002 -0.45579642 -1.9867426 -0.29568934 -0.42823747 -0.08194503 -0.30389783 -0.44635075 0.9541366 -0.5649827 -0.49987686 0.032977313 1.0770818 0.08858448 0.18456769 -0.45590693 -0.7442801 -0.069573075 -1.3321189 0.41388866 -0.08653411 0.31407705 0.36443025 -0.047369435 0.37970918 1.2840959 -0.14769946 -0.019816272 -0.27702957 -0.08896864 0.22359422 -0.4724717 0.6713734 0.5590337 -0.34168795 1.0702689 0.1124253 -0.9314908 0.6301132 -0.5065898 -0.6635546 -1.5181783 -0.32047847 -0.3506049 -0.32890517 -1.2605801 -0.12038485 0.07945071 -0.8211612 1.4133818 0.37569988 -0.24161746 0.067653 0.40245834 -0.7965237 -0.6060459 -1.1529657 -2.234287 -0.16761686 -0.41312554 -0.17149447 -0.18274939 0.72181845 1.5150319 1.4724071 1.7462863 -0.13627692 0.106462374
moins 0.5486864 -1.5398709 0.20445254 0.73232037 0.44050497 0.44320005 0.6181389 1.0375295 -1.4996117 -0.7835839 1.8404901 0.42202494 0.07828723 0.4189876 0.08281913 0.70161754 1.1408141 -0.25397635 -1.4028159 -0.21908492 -0.5207123 0.1582738 -1.639179 -0.27798387 -1.3272575 1.3377042 0.78892684 0.72679245 -1.3066591 -0.5491412 0.52388984 2.3593442 -0.27759045 0.3106679 -0.087877914 -2.756582 -1.1507959 0.7353138 0.4603052 2.071513 -0.5746667 0.022296768 -2.2681746 -0.76873994 -1.2650568 -0.33839524 0.032392878 1.3786737 -0.5797034 -0.98266566 -0.015856778 0.42987388 -2.638691 -0.28074157 -1.0614866 0.5448785 -0.9930235 1.4746921 1.033058 -0.059106234 0.26918218 1.0332785 0.92784095 -1.5074141 0.41190347 0.8827011 1.029964 0.66485155 -0.147812 0.7385721 2.0184355 1.0223118 -1.7100799 1.5179476 -0.32135758 1.0378047 0.3388367 0.45104447 1.5025793 1.0421276 -0.24951518 0.71018875 -2.1807823 0.3276575 -1.0413082 0.3537974 0.38673067 0.88492775 -1.3622915 -0.8468719 -1.6842184 0.49233896 0.15650406 0.71301347 1.8520013 0.9297158 -1.1941661 -0.6020728 1.5473406 -0.18687525
monde 0.7928944 0.98885065 1.0900532 1.3682564 -0.18740024 0.73457885 0.7280012 -0.06495991 0.18506889 -0.6262048 0.58187217 -1.4394203 0.40821433 -1.1167122 0.4295185 0.75818926 -0.019301392 -0.25465652 -1.1163214 -1.6792771 0.5800489 -0.37316298 0.08733508 0.87070644 -0.19392309 -0.10175098 1.150067 -0.1456508 -0.032252394 -0.78488076 0.8356261 0.027680919 0.11666751 0.91432536 -0.36757213 -2.1492286 -0.91517013 -0.48298568 0.08256701 -0.28687027 0.5485333 -1.618134 -0.46830896 0.8642381 -0.62496215 -1.1598213 0.19031508 1.595661 0.32342315 -1.0558158 -0.56020886 -0.7228031 0.42968 1.3987691 -0.3156957 -0.20294848 1.5024378 0.6328067 -0.557393 0.5013469 0.7420142 -1.0484539 0.34271964 0.74785924 0.8291514 0.21008612 -0.12593201 0.20440155 -0.5123315 -0.36908758 0.8690342 -1.7556521 0.20091645 1.0112674 -1.0160369 0.40990245 0.3094171 -1.6694459 1.0508533 -0.6220702 0.80426735 -1.4874096 -0.26468712 -0.10359591 0.21247648 -0.47199032 -1.6625689 -0.5278429 -0.5884194 -1.5696709 -0.15324563 -0.7889128 -1.2680365 -0.8870934 -0.33719212 1.1119552 0.73433435 0.36792654 -2.3174753 0.28390548
ce 0.5997746 0.6105236 0.44305143 -0.72056895 0.09640907 1.1025726 0.6367001 -0.7386059 1.6818421 1.7285124 -0.8103732 -0.2733216 0.5550628 -0.5612543 1.5479122 1.40909 0.6213269 -1.2441349 -1.1574752 -2.2371097 -0.11293855 0.08569981 0.5282872 0.31846678 -0.24079618 -0.1919695 0.16614586 -0.080092974 -0.79936564 1.4951949 0.80975 -0.54845 -1.0194691 -1.9987065 1.0931675 -1.5123074 0.76632255 0.6473239 1.2967168 1.1505222 1.2875743 -0.9598077 -1.0913992 -0.3639486 0.34767863 0.16573672 -1.4966164 -0.8867485 1.2871368 -1.0093995 -2.0315235 0.037618134 0.4743802 -0.9464034 -0.54159397 -0.7594583 -0.30447152 -0.8228857 0.20944726 2.1801116 -0.2988683 -0.5373156 -1.6739734 0.27888238 -0.7500035 2.5269847 0.26084515 -0.20362183 -0.22945738 1.2177229 -1.4646754 0.031649135 -1.6837025 0.3010189 -0.91909504 1.024031 -0.21157175 -0.26209986 1.2636173 -0.3065361 -0.29232502 0.4759894 0.28644618 -0.5792093 -1.2780384 1.068057 -0.48027536 0.19113739 0.37070733 0.6715577 0.59145015 0.58682543 0.45325023 0.9479255 0.8357238 -1.4170713 -0.51357716 0.32145536 2.0417275 -0.2827974
que 1.0507985 0.23121148 -0.46431652 -1.185778 -1.4455782 0.077289544 1.1977803 0.2515856 0.8232686 -0.96775246 -1.8084719 1.277217 0.62609947 0.23766512 1.5600982 -0.6450665 -0.17932197 -0.19282892 -0.13844681 -0.23682725 -0.8991291 -0.5194606 0.65412647 0.54021883 -0.38514385 1.2562623 0.7514912 0.24476214 0.5022264 0.097230114 -1.2925082 0.55932206 0.71418923 0.46498287 -1.4779564 -0.49632818 -0.21828103 0.18370047 0.18571052 1.1593702 -0.38361114 0.44477093 -0.95423853 0.75246716 -0.30690423 1.1618116 1.0317475 -1.0638335 0.77738523 1.7645316 0.4726991 0.15642731 -0.0037929825 -1.4482639 -0.29712594 -0.52457803 0.46756625 -0.13721164 0.3627451 -0.27164096 -0.062391065 0.6127848 -0.70987296 0.022177435 1.3547693 -0.14139973 -0.7147119 0.2413226 -1.4019696 1.3719126 0.028471775 0.5711731 -0.20479879 1.4751132 1.5825061 0.27300575 -1.3365451 0.110140994 1.1239939 -0.28277904 -0.8636496 -1.5034859 -0.815892 1.4016743 0.9956364 -1.3467422 -0.7826882 0.8328958 0.18324617 -0.7962394 -1.2543594 0.54033786 0.5169877 0.49028933 1.6127377 0.20112695 0.26033747 -0.69769096 1.0556527 -2.2928448
ne -0.4247909 1.026736 2.1223345 0.061112083 1.447277 -1.2102809 0.2896662 2.2609966 -0.50809556 -0.07244317 1.3289235 -0.17586757 0.61338836 0.29913548 0.63469833 -0.0819601 1.8555101 -0.033345334 -0.57480913 0.25629175 0.2349328 -2.0375555 -1.7510341 0.94186693 0.5882566 0.33374244 0.8068912 0.64380926 0.7104487 1.7993646 0.6482499 0.7388008 0.08430259 -1.7382092 -1.0073171 0.13435945 -0.115404435 0.9045147 -0.3007197 0.61942697 0.9373877 -1.0416709 1.6304548 -0.6398209 0.53112173 0.5089759 1.9170866 -0.41364455 -0.66369116 0.35690522 -0.50936586 -0.16395871 0.8813379 -0.17031954 -1.2235801 -0.6062642 0.9372558 -0.38656926 1.0424191 -0.8291466 -0.44027835 -0.020842481 -0.08742771 -0.091111116 -0.53518796 -1.445107 0.20759583 0.21660987 -0.0884199 0.5903694 1.2657169 2.6659317 0.10281415 0.399241 -0.17019792 -1.7102374 0.43240494 0.893209 -0.014637701 0.12885113 -0.8378651 1.209357 0.17846683 -0.27177653 0.40967816 -1.0580903 -1.4057631 -0.057528228 -1.8865541 0.13316494 -1.0743889 0.080920584 -1.0021237 1.5409123 -0.9788725 -1.4416488 -0.5163111 -0.16433185 -0.31678426 -0.14922428
tout 0.7141797 -0.24782826 -0.30531242 -1.022604 0.7755195 0.69090843 -1.848051 1.6006352 -0.22442761 -0.59906733 0.8684247 -0.3433492 -0.25976864 0.54876375 -0.60461783 0.1939027 -0.15146755 0.80711365 0.8921839 -1.1185507 -0.53773177 -1.2421238 -0.68787926 1.7147143 2.0966282 0.63911605 -0.8919417 0.7412448 -0.6938235 -0.5328492 -1.9171165 0.1603967 0.31595632 -0.9071932 0.6430297 -0.8488391 -0.1371676 -1.20097 -0.07073051 -0.024443876 0.6900639 -2.4287016 -0.93318504 0.8592927 -0.21135062 1.1839304 0.09615101 -0.7127666 -0.301038 -0.14796394 -0.4717956 -0.6650969 -0.7625562 0.8289183 -0.9785231 -0.23417038 -0.30599028 -0.8800243 -1.1585329 0.2823342 0.2835547 -0.0067650974 -0.1758903 0.083035305 -0.73187923 -1.0008774 0.2885841 -0.16011904 1.097752 1.1012826 0.038546264 1.7865587 0.085111044 0.07911717 -0.63319665 0.80253875 -1.2126569 0.64693666 1.2661117 -1.4708774 0.92945325 -0.41054824 -0.68525714 -1.1832279 -0.050775226 -0.0319136 1.8292948 1.7273619 -0.05712008 -1.309705 -1.4441054 -1.6944618 -1.6040351 -0.4624944 0.19277063 1.2613379 1.1864663 -0.8504106 -0.6133235 0.59160125
vous 0.7238997 -0.56810033 0.4639216 0.38743287 0.4975112 -0.16931845 -0.66472787 0.50836885 -0.6850326 -1.162276 -1.773661 -1.1858367 -0.13036129 0.3835116 -1.468924 -0.37902817 -0.46063665 -0.49832755 0.8951425 2.0573225 0.34798244 2.1031668 2.6399808 0.1874881 0.6828715 1.0341313 0.69923526 -1.5318168 0.30388644 -0.58894736 0.31043783 0.73958844 2.4029887 -1.7339332 -1.9712538 1.1469027 -0.035452403 1.6776224 -0.013490725 -0.0468172 -0.25079846 -0.7880082 0.18225971 -0.81304574 2.1671357 -0.9497893 0.531258 0.29927456 -0.6668305 -1.5516303 -0.058724716 -0.20790005 0.29887667 0.5906528 0.74160814 -0.057664063 -2.1059167 1.5180751 -0.98058057 1.1654173 -0.29415134 1.880504 2.7768176 0.985742 -0.17093587 -1.148597 0.8099254 1.3307223 -0.5771396 1.0704408 0.78352207 -1.1401453 0.058868192 1.3385894 -1.5830938 -0.111029886 -0.79980487 -0.898181 -0.1429843 -0.4248582 -1.1952126 -2.030942 0.45901015 -0.14961249 -0.25539032 -0.8572197 0.06311001 -0.67592096 -1.2011654 1.029707 0.087395415 -2.1714938 0.027762793 -0.9812242 -0.30846912 0.23080553 1.8489871 -1.8585429 0.33783054 -0.5153116
être 1.3958975 0.6436004 0.6002964 0.85018075 0.47086537 0.011261584 -1.8119855 0.53440976 0.13456881 -0.5767666 0.9408817 -0.6593504 0.5036456 -0.5306744 -0.7898695 0.10567088 0.35289815 0.5752637 0.5793848 0.749687 0.17174049 -2.4941666 -0.17620295 0.4215553 0.9667078 0.32543525 0.7248881 -1.0045364 -0.5408505 -0.84335893 -0.92946213 -1.13357 -2.2144256 -1.4685837 -0.5388162 -0.3440446 0.41189653 -0.1086093 -0.9241662 -0.13472572 -1.615177 -1.5058112 0.13381833 -0.9323427 0.122287124 -0.13092852 -0.08725243 0.3653377 -0.72341365 0.03533923 -1.1490678 0.768413 -1.2554244 0.34742102 -0.14837489 -0.37126306 0.18894812 0.74591327 0.5441838 -0.62241775 0.54636914 -0.8956711 0.36937484 -0.089253664 -1.3053089 -1.1924667 1.307725 0.2511136 -0.3247248 -0.011971723 -0.31855756 -0.23688458 0.7602928 -0.9499707 -0.39905864 0.38612872 -0.7778492 0.53042704 -0.593947 0.63066834 -1.2058634 1.0996692 -0.13352251 -1.5220408 0.45515078 -0.23964776 -0.57861066 -0.3431886 0.46353936 -0.70769125 -0.7593973 1.7471105 0.29813373 -2.2506492 -0.5882066 0.36731428 1.461426 -0.5769472 0.44796786 0.5154588
si 0.19709925 0.25927123 -0.11576243 1.0213591 0.5144733 0.024113901 0.38053364 0.24602392 2.001433 -1.9026769 -0.54548734 -0.4000733 1.1453532 -0.1758082 1.9431475 0.97648996 -0.061702453 -1.1762623 -1.8857605 1.1768777 -0.23987937 0.44221303 -1.2173649 0.6608079 -3.6569371 0.55192876 0.882494 0.44366732 -1.010516 1.3740126 1.7017694 -0.7762988 -0.5428622 -0.5559162 0.9334567 -1.5594642 1.7558119 0.4105471 0.29868457 0.10206423 0.23507887 -1.8672041 -0.18031159 -0.37786242 -0.81644535 -0.58873796 -0.88244224 -0.7191136 0.18814608 -2.1281524 0.45419523 -2.1375327 2.0516055 -0.1495896 1.4181334 -0.19947284 -0.3465438 0.59092313 0.3035484 -1.681156 1.4042612 -0.08588635 0.13071762 -0.562642 -0.9522157 -0.7911844 -1.0456659 -1.2895553 -0.50074923 -0.18202025 -1.3173985 0.021934098 -0.28473857 0.5875798 0.053076137 0.5077947 -1.5975112 -0.12804449 0.2500065 -0.20582826 -1.0629296 1.7101408 -1.5653751 1.4681426 -0.4230299 -0.9942744 0.027564311 0.71995264 -0.020121288 0.183512 0.53830403 1.0061704 0.4973152 1.635658 0.38811433 -0.44192833 -0.35263684 1.0127192 -1.00952 -0.078151554
chose 0.14941296 -0.21880466 0.48771033 -0.5929827 -0.9974324 0.7221641 0.3901273 -0.53236157 0.8270612 -0.12811784 1.505476 0.72611886 -0.287832 0.6099752 1.6792754 0.6953825 0.7580475 1.0820417 -0.21479192 1.0075192 0.75372386 0.72144353 -0.69374484 -1.9094713 -0.2575799 1.2380574 0.1873836 0.67174554 -0.13593063 -0.021137115 0.42758474 -1.5656886 0.7958746 -1.0961587 -2.009851 -0.64180636 0.07838902 0.24386412 0.054807257 -1.805496 -1.2499132 1.8652658 0.23033826 -0.44776866 -2.0068839 0.66881764 0.41308972 1.2637467 -1.386747 -0.6780896 -1.4031523 -0.9206954 -0.69705796 0.5977328 -0.7266721 -1.1457411 -0.9252006 -0.19466184 0.5920903 0.5665655 -0.44648045 0.4206943 -0.67345613 0.29778463 0.8159051 -1.6116958 -0.045511115 -0.049901903 1.6682373 1.9344556 0.5937896 1.9251957 -0.28573558 1.0951813 1.6711383 0.18615209 -1.7005043 0.5454517 -0.36436763 2.669572 -0.11715256 -0.39430648 -0.5846693 -1.0613906 1.6718142 -0.87124246 0.08759485 1.4773165 0.3973337 0.11188409 0.006084673 0.113960214 -0.108973265 -1.7194169 1.3028963 0.06584705 0.40076295 -0.5748873 -1.1314541 0.028078437
en 0.07800754 -0.8107579 0.61200994 -1.2240646 -0.9679352 0.61500376 -0.40049505 0.19995375 0.78780776 0.4758296 0.11014537 1.264024 1.9826614 -2.1180565 -1.206084 -0.5804403 0.29248428 -1.0981075 -0.8652532 1.1345615 -0.47398385 -1.2973697 -1.0549027 -0.60130894 -0.29560727 -0.39604416 -0.42204505 0.20861305 -0.41166303 -0.8172551 -0.0073629096 0.43578383 1.2256637 0.064493 0.21217555 -0.6604652 0.15777902 1.2797687 -0.73430234 -0.8279631 0.08844311 -0.8202981 0.91494775 -1.5311252 -0.17961551 -1.1543641 0.50754416 0.98267615 0.020686291 -0.30836207 1.7256423 0.6545067 -0.29353705 0.82523596 -2.1273136 -0.7433999 1.4722981 1.7378324 -1.5997031 -0.17608012 1.2461257 0.14193478 0.7139189 -0.36879474 -0.14424181 2.171069 -0.098852545 -0.049444575 0.8204034 -1.2334814 -2.3662636 0.25903377 1.161722 0.03696271 -0.9763788 1.3201665 -0.7522738 -0.37296948 0.369679 -1.0621139 -0.85876167 -0.38342074 1.1692806 0.40552077 -0.41015217 -0.67508876 1.0982461 0.5874572 -2.5672789 0.47351632 0.03920881 -0.12209079 -1.030781 0.70198303 -0.30661786 -0.17569317 -0.5539802 -0.33861452 -1.3295146 0.65644455
mon 0.66423 -1.2198637 -1.4002596 -0.70698994 -0.42584568 0.71302915 0.020204533 -0.7643925 -1.0086697 0.1630241 0.6829235 0.14406553 1.2777817 -0.83542114 0.4599563 -0.11854022 -0.87547463 0.37333196 -0.59963095 -0.6253585 -0.007795438 -0.8909027 0.83425313 1.781842 -0.27406284 -0.31596166 1.4013176 1.0622315 -0.65360016 0.65971464 1.6379787 -0.1981288 -0.51538205 -0.5332913 1.5819603 -0.501135 0.17920059 -1.1423963 -0.29138276 -1.2278122 0.23815615 -1.325378 0.5515657 0.17391145 0.5308142 -0.9154507 -0.16571513 0.7825084 -0.64142597 -0.8117942 1.1305794 0.5282461 0.28171283 -0.45407477 0.9821406 0.32423937 0.857661 -0.9720322 -0.87147695 -0.47290635 0.06961122 -1.6293105 0.6539271 1.2377837 0.018004166 -0.024276525 -0.115849264 -0.8847299 -1.2205368 -0.48989576 0.61271167 0.019724783 0.015667707 -0.34912068 0.98787415 0.9264818 -0.0020809425 0.20656073 0.45277998 1.3009894 -1.5686864 0.23668528 0.014910129 -0.25343478 0.020293737 0.18268253 0.43820575 1.7629234 -0.40677705 2.2576947 1.2344744 -1.2925371 0.44334006 -0.8428508 1.7761937 -0.5621429 -1.7612436 -0.540107 -0.31910267 0.10349862
pouvoir 2.1619911 -0.041057862 1.0868872 0.30997735 1.332303 0.39754298 0.22504169 -0.3029172 0.29183215 -0.22551963 1.7738318 -0.9509207 -0.2929978 -1.3445988 0.82488173 0.05904078 1.3738847 0.76077205 0.977403 -0.13813818 -0.17088324 1.5221919 -0.28603283 0.2915411 -0.12896581 0.022151707 -0.6680425 0.45872864 -0.95935225 -0.64829475 0.5786729 0.08684721 0.20581554 0.57145035 -0.7065585 0.5486243 3.1286502 0.6176946 -0.3572752 -1.0365549 -1.0914664 -0.36659053 -0.0014014058 -0.7936352 0.04994173 -0.078116484 -0.579422 -2.1786196 0.50879145 -0.4435504 -0.54598314 -0.76052743 -0.76343095 0.38103047 -0.69174695 0.79200983 0.7918927 -1.3622589 1.3188057 1.5048907 -0.34989786 0.6893067 -0.5620055 0.85266984 0.37546036 0.054445412 -0.6136515 0.47492695 -0.29408234 -1.2765188 -0.19868888 -0.5964604 -0.8215408 0.49543577 0.6072986 1.4015164 -0.5149048 -0.20487571 -0.28677058 -0.75983334 -0.5071857 0.8189855 -0.49798822 0.114077926 1.2183113 0.11286529 0.6172696 0.5106679 0.30424073 0.7614787 -0.38330057 -0.92641085 0.6929103 1.4838085 -1.2972064 1.300983 -0.5134815 0.11234302 -0.22792715 0.47977895
demanda -0.11261602 1.3081954 -0.5188569 0.015312541 -0.7442792 -0.6955893 -0.29073864 1.1965553 0.7653502 1.2364038 -0.6561725 -1.6732346 0.5905492 1.5377105 0.19467233 0.1677374 0.28404617 -0.31056887 0.749876 2.013123 -1.2572981 -0.21076466 -1.0533845 -0.40103924 -0.011431117 1.1426105 0.0037557967 -0.3432399 -1.6670539 -0.38241482 -1.2309747 -0.34212822 0.7292467 -0.16681747 -0.7798938 0.30762106 -1.2219263 0.79261947 1.791551 -1.518756 0.05272497 -0.73768824 0.48177865 -1.418087 0.07273117 -0.7158899 0.06647758 0.5014243 -0.21931973 -0.14582823 -0.24093482 -0.79077935 -0.74881476 -1.2445792 -0.82760036 -0.8734203 0.8532689 1.4347843 -0.35216963 1.2871838 0.19602823 0.8065391 -0.5998412 -2.0327694 -1.5538367 1.6806445 -0.7705885 -0.07031576 -1.2919699 0.08008259 1.2211461 0.11487214 -0.032551207 1.2632807 0.34302795 -0.098058216 -0.24801287 -0.93236774 0.31611276 -0.4999664 1.4607623 -1.4058431 -1.8068509 -0.30935794 0.20114213 -0.65693045 -0.29826918 0.780116 -0.52636707 0.25334334 -0.46080896 -0.8298895 -0.65799206 -0.6508075 -0.25604305 -1.3462667 -0.48740783 -0.27698678 0.43006587 0.53172934
ainsi -0.019702997 0.2279784 0.5002764 -1.894532 -0.53654337 -0.43955624 0.14980072 -0.34169614 1.1461821 2.6495917 1.9391298 -0.56217915 -0.383805 0.87058854 1.1145048 1.657062 2.3589664 1.5907941 0.8071257 0.4760242 -0.9800084 1.1507992 0.31327158 -0.47685668 1.740689 -1.68986 1.0096146 -0.938551 0.90950024 -0.28988868 0.12338588 0.058033563 -0.22839555 0.5930865 -2.008017 0.5147472 1.9316512 1.5280304 1.0486655 -1.637937 0.07477568 1.0584855 1.9897014 0.57196885 -1.4773718 3.0205252 -1.5239598 -0.6933734 -0.7945735 0.87525314 1.8469541 -0.05030822 -0.16568315 -0.34401703 0.61970353 0.13332644 0.024969323 -0.6524458 -0.59041274 0.35193643 0.93035424 -0.53279495 -1.1284386 0.48408878 -0.33849105 -0.54725826 0.83710456 -0.9647084 0.29049367 1.5424628 0.4955395 0.058769327 -0.5613945 -0.9940581 1.4859726 0.07462216 0.10484821 0.60988146 0.09165399 -0.46218818 -1.3882554 -0.6593862 1.6153382 -0.3948628 -1.3028163 -0.029687455 -0.3434245 -1.631101 1.8292086 0.22376424 -1.0869429 -0.1568597 -0.04932255 -1.193269 -1.0396488 -0.7394908 0.33369872 -0.1968128 0.23053749 1.1725972
continua 0.68039864 -0.50138164 0.4362725 0.46028748 -0.78233826 -1.949898 -0.6663339 0.009925518 -0.19368508 0.07052877 0.5626022 -0.426104 2.0292518 0.6391138 -1.0220695 0.048377 0.23036517 -0.39216536 -0.87985283 -0.16794845 -1.990913 -1.0299366 -0.35933065 -0.21413511 0.19094414 0.2730723 1.8970095 0.7677797 -1.8167971 0.3012352 -0.9219272 1.3793705 -0.6029097 2.4426246 -1.1123253 -2.5367577 0.5851587 0.109284215 1.6063608 0.3010588 -1.1002284 1.1694847 0.4536421 1.3446836 -0.30974025 0.985754 0.9087573 1.4024845 -0.45138136 -0.13838738 -1.4282391 0.97785634 1.252497 0.60243833 0.24870563 0.1844098 -0.7978865 0.037895802 -1.1995615 0.04721695 -0.73795027 0.56883883 0.9404494 -1.2664198 0.6887102 -0.29045922 -0.9498783 -0.97762597 -0.60597783 0.3463629 1.3373682 0.017298907 -1.8853656 -0.9342641 0.37267986 1.1454849 0.12914021 -0.23253317 1.5717223 -0.9617808 -0.63897735 -0.31687772 -0.25371855 -0.28702945 -0.23505756 0.4990229 1.4884878 1.3642428 -0.82097554 0.52843606 -1.249308 -0.44725275 -1.1539376 -0.39138064 0.34267274 -2.080429 2.7560794 -0.28010714 1.0594231 -0.14126429
anglais 1.6355972 -0.95517397 -1.5780414 -1.735869 0.49769685 -0.64264685 0.40982157 -1.0969778 -1.2090689 0.1267983 1.6719118 0.47877407 0.87783384 -1.6712184 -0.047075987 -0.048078585 -0.7106303 0.2235693 0.8345854 0.5903023 0.4315006 1.6006498 0.80538875 0.34689862 -0.9628336 -0.0906706 -0.77702063 -1.239042 -0.56162554 -0.5296742 3.0684123 0.5842425 -0.25552842 0.16808328 -0.38663098 -0.5102044 -0.17046325 0.2935195 0.16227062 -0.55357915 -0.29915518 -0.64308417 -1.041147 0.13002668 0.17357117 0.39504012 -1.1243136 0.37004092 0.059705168 1.9366591 -0.0051581115 0.44114083 -0.8880519 2.4248583 -1.2258142 0.7735116 0.9719491 -0.60315865 -0.12940429 1.089142 0.5104026 -0.6756834 -0.54068285 1.4302276 -3.0190072 -0.9301845 -2.6312635 1.072385 0.726855 -0.6597575 0.67266846 1.3020705 0.019385597 -1.0572684 0.49679312 1.2609435 0.7500088 -0.7156116 -0.9577571 1.3415346 0.32709178 0.99532074 1.8281741 -0.639408 -1.1741247 -0.26100507 0.7553758 -2.0489607 1.4150295 -2.3189723 0.76099396 -1.5463673 -0.024068763 1.0878631 0.5049414 2.069535 -0.30790415 0.53432184 -2.4493701 -0.06703918
reprit 0.6901915 -0.41512606 0.81016684 -0.09259985 0.44988903 -2.6521266 -2.8386283 0.7856296 -0.29895875 -0.5287456 0.6265603 -1.6210043 -0.02835828 0.29226053 -0.9863502 0.66400623 0.869657 0.058091227 -0.14359206 0.19875088 -0.11170207 0.54914105 -0.9821861 -0.26197687 1.0701699 0.015471854 -0.35820976 -0.95615196 1.3363361 -0.8039232 1.2606059 0.3295101 0.11893313 -0.42978522 -0.25577 0.23819388 -0.78865623 -0.03920814 1.2999948 0.21752268 -0.062467463 0.9328135 -0.6253521 0.036964167 1.955873 2.0431836 -0.25484723 -1.5685648 -0.2593505 -0.29960972 1.8732239 0.060795873 -0.049783785 1.2034879 -0.054006174 -0.54150164 -0.15008022 1.8844945 0.66633606 -1.966547 0.43052608 -0.58697766 0.09111752 0.41346565 -0.24058291 -0.6765784 -0.59739786 0.7421864 -2.2662165 0.0035396554 -0.09574395 0.83082646 1.3055885 0.13279858 0.33396298 0.27212864 0.836354 1.0942343 0.42676124 0.19612657 -0.49670637 -0.2319487 0.8880315 -0.034912635 -0.31107 0.5529329 -0.3365783 1.3915578 -0.5607518 0.25658813 0.6079527 0.49015862 -2.8491807 -0.29012522 -1.5908498 -0.5113181 -0.7559743 0.6097609 0.68112546 -0.32739386
- -1.5373516 1.774587 -2.1358385 -0.29216066 0.5099151 0.7686986 -0.19239083 -1.005277 0.116788775 -0.30375057 -0.54887915 -1.1261032 0.096972704 1.1914518 1.1819984 -0.5453161 0.9696877 -0.38149634 -0.60565144 -0.04918669 -1.0822086 0.76648045 0.95724833 0.85256493 -1.0475248 0.46355414 0.26118416 0.30462706 0.72148657 -2.1736357 0.7903311 0.31053653 0.39706993 -0.79725033 -0.21983862 -2.381947 -0.3815692 -0.8861565 0.6693172 -0.18086833 -1.9811711 -1.1138172 0.4205169 -0.46005753 -1.267645 0.35538945 -0.22685948 1.9058381 -0.4505377 1.2377608 -1.2047458 -0.039492074 0.35007608 1.3654773 0.61519426 0.76364714 0.040706143 0.5353909 -0.44562197 -1.1781236 -0.12507558 -1.4337296 0.30986258 -0.38577333 0.18600038 0.30753922 -0.64816 -0.66739726 0.7271802 -0.09775664 -1.4076123 -0.14231926 0.60157394 -1.6865087 -0.7186322 -0.17221174 -0.43720272 -0.7161344 -0.41179162 0.059120476 1.5415471 0.38243613 0.17463332 0.09531684 1.1161242 -1.5340558 -0.5742681 1.2355213 -0.09108419 1.6608665 0.77209854 0.21248472 1.3780575 1.2450567 1.034572 -0.017298972 0.24780661 0.9314991 -0.08434535 -0.5382756
fut -1.33517 0.28267747 1.0165008 0.7169277 -0.24292234 -0.59593564 -0.45612887 -1.0131247 -1.3569144 -0.65545326 0.0006817281 1.210548 0.72837937 0.8242512 1.9996313 -0.80692387 1.5724967 -1.124894 0.2130741 0.97963893 1.8226439 -0.8443432 -1.1237218 -0.64498645 -0.82833976 -0.74290484 1.0892694 -0.2837868 -0.28712702 0.3212796 -0.019296238 0.3230027 0.53359467 -0.43204337 1.7938061 1.1529759 0.7500189 1.1148359 -1.0178865 -1.8666797 -0.075060636 0.19197303 -0.113190696 -0.929301 -0.34345517 0.38749924 0.06407054 -1.0033939 1.1531932 1.1578375 -0.67316943 0.40402403 1.4981732 1.2565012 -2.1192763 -0.08005516 0.9693911 0.96522236 0.869053 1.1048931 0.32993007 -0.03463483 0.34449077 0.7985959 -0.27125663 1.1946293 0.8505454 2.0729158 -1.0895126 0.039730012 0.7222909 1.4252148 0.7114552 -0.29706064 1.0350087 -1.4767044 0.6631597 1.0075022 -1.0672498 -0.2994857 0.035884555 0.8605638 0.47717476 0.9795052 -0.2862395 0.8445709 -0.7450487 -0.5614178 0.52871567 -0.5030701 0.6412158 -0.6358585 0.0023273062 1.8366969 0.20302553 -0.16057274 -1.3261954 -0.5999712 1.3271446 -2.746343
hôtel -2.0683856 -0.47367787 -0.76771986 -0.10377139 -0.01769363 -1.5669297 0.54231775 -1.5048019 -0.731635 0.67761815 0.15390909 0.18555929 0.5848543 0.19782433 1.0331389 1.9216659 -1.4660445 -0.3805433 -0.316156 0.4089416 1.1146599 -0.2509843 -0.72824454 -0.45083848 -0.18295968 0.095483825 0.13349277 0.547864 0.64123625 0.17282094 -0.5724416 -0.784908 -0.094907194 -1.3219465 -0.8598346 -0.5338695 -1.0864267 -0.13689929 0.12105997 0.20438768 -1.6270489 -0.38585255 1.268596 -1.0021191 0.90439034 0.103893846 0.57409453 0.048820663 2.3933027 1.4544599 -0.091647774 2.4193535 -1.0541512 0.2107141 -0.8795033 0.41034997 1.9697683 -0.0540874 2.007785 0.17062342 1.165249 0.37479904 1.1548088 0.845833 2.1940894 -0.29416403 -1.2955066 -0.12416898 2.0170758 0.77192813 -0.26072177 -0.8776223 1.4184715 0.26328135 -1.1526179 0.6954627 0.14577734 -0.470752 0.42888665 -0.54579455 0.4274932 0.862637 0.7491184 -0.75625956 -0.49495706 -1.0463382 1.1653093 0.0026372285 -0.20364568 -2.034317 0.24979855 -0.6180509 -0.44617057 0.88973737 1.7574835 -0.036778904 -0.20020027 -0.6521436 -0.01862052 0.5285543
franz 1.0471512 -0.26122963 -0.3284291 -0.14749376 2.0875845 -0.45616412 2.725083 -0.47902676 -1.1489453 2.6681457 -1.3461007 1.2634561 1.1688356 1.2912545 -1.0791439 -0.5528073 -0.26689303 0.29424626 -0.7307524 -1.6717595 0.09761851 -0.43445593 0.08771583 1.9099383 0.7702859 0.3778129 -1.397289 0.082094304 0.34460858 -0.3144706 1.8589909 0.59605306 -0.29842576 -0.5812767 0.46259236 -0.1944906 -0.2744423 0.2686307 1.0525157 0.048358668 1.0700946 -1.0221356 0.45094976 -2.3566248 -0.71044534 0.19575039 -0.7797126 0.2104565 1.2658662 -0.6899816 -0.13659617 0.77231044 1.0585198 1.139759 0.16025037 -0.8752771 0.14612469 0.8208581 0.29299626 -1.7332889 -0.7800698 -0.12497963 0.65604347 0.048177633 1.0513291 0.036471777 -2.7545867 -0.97979426 -0.2897058 -1.5035014 1.1563277 -0.66068137 -1.7826538 -1.3322436 -0.57633543 -0.27525485 0.8225873 0.68395686 -0.79743737 -0.14182039 2.3213716 -0.49138665 0.49540442 -0.019684032 -0.5247426 -1.902178 1.2933097 1.6925187 0.84035885 0.5543802 1.0586613 -0.22297357 -1.9372346 -0.031246904 -0.76913786 -0.0051602833 -0.46560007 -1.4307706 -0.24632512 -1.3206787
vit 0.68940705 -1.0098388 0.17137083 0.48184586 0.48279163 0.31399262 0.34652567 -0.98966473 -1.0971389 -1.4083006 -1.9997538 0.007339388 -0.49433962 1.1843493 -0.11316626 0.45465204 -3.0708475 0.66948247 -0.84395057 -0.2510969 0.16880317 0.20001583 -0.35948738 -0.15097181 0.032965533 -0.96904004 -0.4907879 0.8660344 0.7103121 0.46816903 0.5711236 -0.012085464 0.11270928 1.0182576 1.3171691 -1.5654731 -1.0278718 -0.7838447 1.3739804 0.08750225 1.9484162 -0.0888143 -0.8284763 0.50751305 0.34018925 -0.7762407 -1.8331021 -1.5392303 -1.0866486 -0.8374841 0.51330924 0.10861647 1.9132918 -0.43544412 0.0038166344 0.67311066 0.619081 -0.41191754 1.2810069 -0.103401825 -0.08800495 2.31038 1.9404926 1.8352649 -0.8031299 -0.61466455 -0.14191104 -0.20701429 -0.25544363 1.8409126 -0.67579854 0.23336196 0.7232883 0.0051904432 0.61316353 -0.15723142 0.531539 -1.8627898 -2.2335918 0.048386406 -0.9809759 0.14892453 0.23390424 0.6919962 -0.8272147 1.2358396 0.72918916 -1.6659248 -1.3998513 -1.8399444 -0.6859436 -0.08114743 -0.1821019 -1.2636263 0.15007359 -2.0036566 -0.34022212 -1.0159302 -0.8021577 -1.408884
homme 0.8821026 1.6272285 1.2111647 -1.2221409 0.10097803 0.12172145 0.26397258 0.74242806 0.36551988 -0.2635777 -1.0844493 0.2925803 0.7908676 1.1403432 -0.27491927 0.62581444 0.82785285 1.6188807 -0.9949709 1.1068499 0.27691162 -1.2443017 -0.78323895 -0.57974815 0.2705394 -0.29591054 -0.24197522 0.37214026 -1.2399496 0.20438832 -0.5665197 1.5936755 1.2290298 2.7359924 -1.9301091 0.69472265 -0.6558645 -0.74307746 0.4050531 1.2967875 -0.80542207 1.4635981 0.8215593 0.6202383 0.15826449 0.5786465 0.22824371 -1.0016752 -0.6365994 1.3809022 1.6985159 -1.3915607 1.025643 0.79723257 0.72964793 -1.0502036 1.7036389 -1.9426404 -0.59062403 -2.5036678 -0.49479628 1.3274937 1.1134741 2.0976267 -0.50308067 0.78046507 2.470848 1.0065068 1.0799532 1.565381 -0.14141566 1.5499698 1.1546127 1.0137793 2.0965633 -1.4399962 -1.6438836 -0.60525197 1.0344776 0.6306362 -0.27259284 -0.04185284 1.5930853 0.5233991 1.6143411 1.1035614 2.0822165 0.05826235 1.1016804 0.05557687 0.95312744 0.6711903 2.2384865 0.39179116 1.7706178 -0.115243345 0.31507182 -1.0382878 2.1103337 1.0943061
debout 0.60746354 0.9295147 0.166796 0.68812484 0.97314644 1.7392727 0.26196697 1.138927 2.469449 -1.7699603 -0.9513406 0.2898649 -0.058745172 -0.1994399 -1.8369298 0.7716143 -0.15995435 1.7566147 0.49606022 -0.21672261 0.17099558 -0.12623003 -0.43299386 0.12381485 -0.4796127 -0.27399564 0.3491972 0.8617447 -0.03415575 1.359908 -0.5379211 1.0566447 -1.1744075 0.103766926 0.30291715 0.4022375 1.083818 0.45186114 -0.1368142 -0.050020564 -1.1089936 1.4383392 1.2254149 -0.14876588 -0.53299 0.043502346 1.1076825 0.73727727 -0.56648684 0.41018113 -1.5130618 -0.5553683 1.0382631 -0.27699172 1.0286388 -2.398436 -0.1267254 1.5591697 -2.100286 -0.83666116 0.3918187 -0.24054769 -0.9074553 0.44078928 -0.9892833 -0.73930717 0.2969399 0.394068 -0.8761844 1.64794 0.4041707 0.15811892 0.6784742 -0.30084658 -0.98426807 -0.23115611 -0.91045624 -2.2159243 0.2628197 -0.8272521 1.2402513 0.50803626 -0.009671537 -0.18923733 -0.5108229 -0.74034274 -1.448709 0.724126 1.2171534 -0.4755026 -1.4164917 -0.05500754 0.13980481 -0.15755415 -0.5153437 0.22852954 0.22612225 1.3819375 0.24958526 0.91100657
au -1.1629419 0.26587653 -1.012007 -0.6868743 -0.13663399 -0.47470838 0.905591 0.25563443 0.25335592 0.94686323 0.7145026 -0.39190477 -1.0696096 -1.0735297 0.071557276 -1.5581585 -0.42066032 -1.4317507 -0.10475276 -1.750575 0.802983 0.42309505 0.7730668 0.373812 -1.153644 -0.14759965 0.1526413 0.17196694 0.07629095 -0.69155544 1.0168587 0.29836687 -0.4878271 0.42472398 0.71147156 -0.03904542 -0.6315652 -1.4358321 -0.12399795 1.1737003 0.6005722 1.6350946 -1.309412 -0.92225283 -0.6742474 -0.9243968 -2.2942646 -1.1859473 -0.5360334 1.2427521 -0.6648138 -0.81865585 -1.081859 -0.7945832 1.010569 -0.09063446 0.17629503 -0.48276198 1.4518464 2.4347198 0.26086593 0.7002062 -0.0055295527 0.8098359 0.9146946 1.0165137 1.0414217 0.9642799 -0.42037016 0.009644151 0.3966566 1.5138807 0.25511852 -1.0299433 1.341614 0.78261423 0.41998097 -1.7635744 1.011696 -1.5114118 0.40961644 -1.3409207 0.3410904 0.77467006 -1.4622098 -0.52518725 0.98920417 0.77422756 -1.4032792 1.963977 -0.7837279 -0.85966 -0.296586 -0.6645195 -0.60314345 0.18774435 -1.2630742 -0.9977867 -0.6265779 0.5690823
milieu 0.5449331 0.37491858 -0.49096718 -1.3407927 -0.22892627 -1.6188892 1.1251799 0.5504383 0.97361 0.8435982 -0.69160575 -2.5373178 2.0119116 -0.8986957 -0.7718502 0.1882128 0.508235 1.178139 0.31966093 -0.5728555 0.9484853 -1.3703203 -0.83600646 0.66869116 -1.7336376 -0.73403263 -0.78938264 0.17901881 -1.8796563 -0.90778095 1.5878532 -2.272573 -2.0192292 -1.1729844 -1.4997385 0.22637457 1.260658 -0.68098754 0.014067491 0.201109 -0.060988214 -0.47836748 2.0445988 0.7016188 -1.2335802 -0.4000115 -0.027352069 0.09617695 0.41971537 -0.5157781 -2.3467104 -0.62673897 0.08845303 0.00011708215 -0.8632697 -0.23548138 0.89970547 -1.3145142 -2.551566 0.6190929 -0.28225535 -0.36509666 -0.5269709 -1.1745682 0.12127659 -1.7012734 -0.52049553 -1.3118061 1.7710439 -2.1825557 -0.6165563 -1.4916614 0.49892098 -1.0247256 -0.06872271 -0.27149865 -0.31233656 1.3455583 -2.2135427 -0.32752106 -2.361173 -0.8731285 -0.13263324 -0.510546 -0.00995278 -0.23147237 -0.89608836 2.0288322 1.6667649 -0.35705677 -0.3781104 -0.1786992 1.1487643 2.429769 1.8491175 1.4207882 0.62358934 -0.20983785 0.010454484 -1.0769509
seul 0.040834595 -0.2140587 -0.48603067 -0.7762809 -2.9604168 -0.37830073 0.51086473 -1.7259148 0.6747472 0.29787743 0.6045127 -0.6763538 -0.6891317 0.48907265 0.7290614 1.2560475 0.087658584 1.1372045 0.8256843 0.433163 0.2706755 0.83088464 1.175665 -1.0695934 -0.33601356 0.8602565 0.14107524 -0.62076783 -0.842581 -0.995381 -1.0841192 0.33776116 0.45150748 1.7158372 -0.53184265 0.6408054 0.80922526 0.55663013 -0.74578345 -1.1425285 -0.16993713 -0.34921974 0.41661298 -0.6964452 0.054171674 -0.48913777 0.28333536 0.27903053 -0.16690408 -0.20789471 -0.035080817 0.17388737 -0.24981996 -1.5104806 -0.08097238 -0.46486 0.21335238 0.66938144 0.619897 1.3422068 1.2714715 -1.1072193 1.4520662 1.1482263 1.1653638 -0.3337513 -0.80439603 1.4897001 0.55913186 -0.8481187 1.576635 -1.6076919 1.1161222 -0.8189634 1.9148147 1.0198458 -0.17784342 -0.46975803 1.1512799 1.4758614 -0.09788181 -1.4051042 1.9292339 -1.0421944 -0.14117965 -0.19441512 0.9100307 0.43549746 1.4938118 -0.6082755 1.6281776 0.26968962 -1.1136764 0.52301395 2.5378036 -0.26014325 -0.2506341 1.8271437 1.0439575 0.8754266
